4.593573138117790222e-02 -2.187770605087280273e-02 -8.524959906935691833e-03 -5.898998118937015533e-03 6.600245367735624313e-03
-1.029553823173046112e-02 6.760945543646812439e-03 -1.689260639250278473e-02 -1.665948331356048584e-02 -1.477855537086725235e-02
2.927560592070221901e-03 -9.868072345852851868e-03 2.969928784295916557e-03 1.031580846756696701e-02 1.627365313470363617e-02
1.820425316691398621e-02 8.507511811330914497e-04 -2.834646729752421379e-03 -1.688562519848346710e-02 1.672822982072830200e-02
-2.901538647711277008e-02 1.429752726107835770e-02 -1.647518388926982880e-02 -9.009348577819764614e-04 1.136429607868194580e-02
8.679933845996856689e-03 -1.283707190304994583e-02 -2.097430452704429626e-02 -1.165930740535259247e-02 1.815681159496307373e-02
1.328081823885440826e-02 -1.979204453527927399e-02 1.000735536217689514e-02 -1.991030015051364899e-02 9.442395530641078949e-03
1.412909943610429764e-02 1.304143108427524567e-02 6.076446268707513809e-03 -4.253364168107509613e-03 -4.195444635115563869e-04
-2.173488494008779526e-03 1.958333700895309448e-02 -9.067211649380624294e-04 -4.482259973883628845e-03 6.210976280272006989e-03
-1.647992618381977081e-02 1.820199564099311829e-02 -3.610328538343310356e-03 1.831434667110443115e-02 -1.938052102923393250e-02
2.017652429640293121e-02 -3.080317378044128418e-02 -4.247353877872228622e-03 9.401526302099227905e-03 5.263097584247589111e-03
2.671382622793316841e-03 -1.760419085621833801e-02 -2.320884028449654579e-03 3.186069056391716003e-02 -1.172913424670696259e-02
8.275648579001426697e-03 -4.546267539262771606e-02 4.782080650329589844e-03 1.345358882099390030e-02 1.761571876704692841e-02
-1.040347944945096970e-02 2.399805374443531036e-02 -1.172067783772945404e-02 -2.575610205531120300e-02 -3.700403869152069092e-02
-7.339888717979192734e-03 1.218703482300043106e-02 -5.694429855793714523e-04 1.615794375538825989e-02 -3.053596988320350647e-02
-1.752499118447303772e-02 4.179814364761114120e-03 -2.685796841979026794e-02 -1.872986927628517151e-02 3.789171576499938965e-03
-2.327043563127517700e-02 2.108241245150566101e-02 -1.163026038557291031e-02 -3.130894899368286133e-02 2.125777304172515869e-02
-1.510137040168046951e-02 1.940504647791385651e-02 -1.040661334991455078e-02 2.170451171696186066e-02 7.624385762028396130e-04
-2.264485880732536316e-02 1.804633252322673798e-02 -5.830711685121059418e-03 -2.803663164377212524e-02 -2.370639145374298096e-02
-7.083000149577856064e-03 9.317383955931290984e-05 -9.981350041925907135e-03 -8.336024358868598938e-03 1.143776252865791321e-02
-1.689150556921958923e-02 1.731126196682453156e-02 -1.127179153263568878e-02 -3.336777538061141968e-02 -4.158919677138328552e-02
-2.513227984309196472e-02 2.848179452121257782e-02 -1.230790931731462479e-02 2.725411951541900635e-02 -5.027610808610916138e-02
-1.249979250133037567e-02 -5.918505135923624039e-03 -1.349919848144054413e-02 1.813499629497528076e-02 9.759874083101749420e-03
1.169213652610778809e-02 -7.116056047379970551e-03 -4.338702652603387833e-03 -7.898714975453913212e-04 1.285266689956188202e-02
-2.269425662234425545e-03 -1.334210485219955444e-02 8.617541752755641937e-03 9.368244558572769165e-03 -2.655212767422199249e-02
6.507764104753732681e-03 -4.381643608212471008e-03 -8.301112800836563110e-03 5.841709673404693604e-03 9.749992168508470058e-04
-1.421148702502250671e-02 2.554012462496757507e-02 -2.188966609537601471e-02 -1.482472871430218220e-03 -1.193614397197961807e-02
1.612849161028862000e-02 1.224071718752384186e-02 -2.464843727648258209e-02 -1.109386980533599854e-02 -7.882514037191867828e-03
-1.053559221327304840e-02 -8.671999908983707428e-03 3.825036983471363783e-04 3.242003545165061951e-02 -7.741428446024656296e-03
5.178376100957393646e-03 -3.995627164840698242e-03 -8.809852297417819500e-04 -6.071794312447309494e-03 1.501051941886544228e-03
-1.480441424064338207e-03 -1.556537952274084091e-02 -4.010497126728296280e-03 -8.079741150140762329e-03 -1.358331087976694107e-02
-1.918475516140460968e-02 5.014127120375633240e-03 -1.205186732113361359e-02 -3.390596713870763779e-03 2.142121456563472748e-02
2.305166982114315033e-02 -7.481482345610857010e-03 4.596484825015068054e-03 5.348944570869207382e-03 5.603590514510869980e-03
-1.040053274482488632e-02 1.850309036672115326e-02 -1.418469101190567017e-02 7.075664121657609940e-03 -3.673447994515299797e-03
4.448258131742477417e-02 -2.354680746793746948e-02 -3.948752768337726593e-03 -7.927743135951459408e-04 -2.934488933533430099e-03
-7.498910417780280113e-04 -1.251242402940988541e-02 -1.712546567432582378e-03 1.769760437309741974e-02 -1.627288945019245148e-02
1.310684066265821457e-02 -2.673900919035077095e-03 -1.164216455072164536e-02 -1.229223911650478840e-03 -1.548791211098432541e-02
-5.165012087672948837e-03 1.807089336216449738e-02 4.373798612505197525e-03 -1.099351211450994015e-03 6.893737707287073135e-03
1.650974713265895844e-02 1.654460839927196503e-02 8.570835925638675690e-03 -3.414681553840637207e-02 -3.696634247899055481e-02
1.861723838374018669e-03 -1.380196027457714081e-02 -2.902125939726829529e-03 6.460614502429962158e-03 6.480030249804258347e-03
-4.058487829752266407e-04 -3.787038149312138557e-03 -4.304108675569295883e-03 -3.727868665009737015e-03 6.546549848280847073e-04
2.184170670807361603e-02 8.198049850761890411e-03 -6.971379043534398079e-04 -2.344067394733428955e-02 -7.906845770776271820e-03
-1.991717517375946045e-02 1.307537965476512909e-02 4.070198046974837780e-04 4.686933010816574097e-03 3.167648799717426300e-03
3.222901001572608948e-02 -1.515536196529865265e-02 -2.439516969025135040e-02 -8.159783668816089630e-03 -7.474628742784261703e-03
-1.839127950370311737e-02 -2.406717976555228233e-03 6.945782341063022614e-03 1.077966578304767609e-02 3.762278938665986061e-03
-1.693414896726608276e-02 2.312310785055160522e-02 -6.283440627157688141e-03 -2.237931825220584869e-03 -2.507076971232891083e-02
-3.567623347043991089e-02 6.048874929547309875e-03 -4.079473670572042465e-03 1.278883870691061020e-02 -2.010793611407279968e-02
5.229054950177669525e-03 1.244699466042220592e-03 -2.111475542187690735e-02 2.405184134840965271e-02 1.109847240149974823e-02
1.498449873179197311e-02 -3.916115965694189072e-03 -2.687541954219341278e-02 5.131838843226432800e-03 2.123329974710941315e-02
-3.282089903950691223e-02 7.682253606617450714e-03 -7.494510617107152939e-03 6.079569458961486816e-03 2.910268492996692657e-02
4.511383827775716782e-03 7.820642553269863129e-03 -2.114221826195716858e-02 -5.997677333652973175e-03 -6.550088059157133102e-03
1.827734336256980896e-02 7.159146945923566818e-03 -6.574437953531742096e-03 -7.850305177271366119e-03 -9.059521835297346115e-04
-1.065718848258256912e-02 -2.859466476365923882e-03 1.202256232500076294e-02 1.900267787277698517e-02 4.128841217607259750e-03
1.793905720114707947e-02 9.325409308075904846e-03 2.486337034497410059e-04 -1.052052062004804611e-02 1.565246842801570892e-02
1.067213900387287140e-02 -2.196325547993183136e-02 3.879184834659099579e-03 7.689164485782384872e-03 -2.943095564842224121e-02
2.541575022041797638e-02 1.856101490557193756e-02 1.107921171933412552e-02 -1.000844687223434448e-02 7.867168635129928589e-03
2.083000726997852325e-02 -2.892490709200501442e-03 -8.654455654323101044e-03 -2.867917716503143311e-02 -6.121154874563217163e-03
4.009419586509466171e-03 -2.535985782742500305e-02 -3.481414634734392166e-03 2.602846175432205200e-02 1.373333483934402466e-02
3.514551557600498199e-03 1.856425660662353039e-03 -8.297707885503768921e-03 -1.277777645736932755e-02 1.689324341714382172e-02
2.127088233828544617e-02 -8.751482702791690826e-03 1.629061182029545307e-03 -7.349010556936264038e-03 3.368899342603981495e-06
1.967294607311487198e-03 1.587504893541336060e-02 -4.979016957804560661e-04 -6.860152818262577057e-03 1.553491037338972092e-02
-6.836637388914823532e-03 -1.767265796661376953e-02 -1.307259127497673035e-02 1.562906801700592041e-02 -3.480170620605349541e-03
1.857605646364390850e-03 1.304892823100090027e-02 -1.607443019747734070e-02 1.093972660601139069e-02 -1.425749901682138443e-02
8.541553281247615814e-03 -1.277476921677589417e-02 -6.099837832152843475e-03 2.392853237688541412e-02 -8.780561387538909912e-03
1.072308421134948730e-02 -1.060345559380948544e-03 -6.360528990626335144e-03 2.645367011427879333e-02 -1.910228398628532887e-03
-2.222123323008418083e-03 4.860335960984230042e-03 -1.684400066733360291e-02 4.689379129558801651e-03 -1.383549720048904419e-02
2.598848193883895874e-03 4.749108920805156231e-04 -1.387081667780876160e-02 1.308457553386688232e-02 -6.348486058413982391e-03
-1.357028074562549591e-02 1.037847157567739487e-02 -1.052900403738021851e-02 1.199046731926500797e-03 -8.539898321032524109e-03
4.975282121449708939e-03 1.040107849985361099e-02 -1.503472914919257164e-03 1.205621100962162018e-02 -1.451323274523019791e-03
-2.324536442756652832e-02 -2.098279818892478943e-02 -1.123052462935447693e-02 1.492819655686616898e-02 -1.062980387359857559e-03
1.219230052083730698e-02 -2.003228664398193359e-02 -9.316083975136280060e-03 2.340617589652538300e-03 2.314056828618049622e-02
9.200211497955024242e-04 1.569753512740135193e-02 1.216557715088129044e-02 -1.528752781450748444e-02 -1.770572178065776825e-02
-9.666549041867256165e-03 -5.609955405816435814e-04 -9.243345819413661957e-03 3.415039507672190666e-03 -3.187637776136398315e-02
8.539598435163497925e-03 -1.637188252061605453e-03 -1.614480279386043549e-03 -2.121789008378982544e-02 -1.464028935879468918e-02
2.297508995980024338e-03 3.038610564544796944e-03 -1.929327473044395447e-02 -1.839022152125835419e-02 3.753318451344966888e-04
-4.952482879161834717e-03 2.381563372910022736e-02 -9.617961943149566650e-03 -1.076956838369369507e-02 -7.446744479238986969e-03
-4.121937230229377747e-02 5.468203220516443253e-03 -1.028127130120992661e-02 7.260091137140989304e-03 -2.975245192646980286e-02
-2.708163484930992126e-02 2.377070300281047821e-02 -1.921699382364749908e-02 1.128924172371625900e-02 -5.764763336628675461e-03
2.611213549971580505e-02 1.620853878557682037e-02 -1.979919848963618279e-03 -2.073441445827484131e-02 -2.100864425301551819e-02
2.461137808859348297e-02 -2.138478215783834457e-03 -3.732109034899622202e-04 -9.668476879596710205e-03 6.775560788810253143e-03
3.898369148373603821e-02 8.310819976031780243e-04 -2.647016569972038269e-02 -1.754080876708030701e-03 -8.140047080814838409e-03
-1.235209638252854347e-03 6.585255265235900879e-03 -4.247519187629222870e-03 -6.887462921440601349e-03 -1.259385421872138977e-02
-5.332316737622022629e-03 -7.380496826954185963e-04 -2.545093651860952377e-03 2.295836806297302246e-02 6.720774807035923004e-03
-1.414085365831851959e-02 1.554356236010789871e-02 -2.231194823980331421e-02 5.286863306537270546e-04 -1.708336919546127319e-02
8.248303085565567017e-03 2.103509753942489624e-02 -1.731421612203121185e-02 -4.630729090422391891e-03 -7.471687626093626022e-03
1.619723974727094173e-03 -2.131243050098419189e-02 -1.400500442832708359e-02 1.974598504602909088e-02 8.918500505387783051e-03
1.354888081550598145e-02 -1.867264136672019958e-02 -3.028153209015727043e-03 -1.258233748376369476e-02 5.834246054291725159e-03
-7.838017307221889496e-03 1.427155639976263046e-02 -6.790827494114637375e-03 1.223297044634819031e-02 8.373437449336051941e-03
-4.977726563811302185e-02 2.877345867455005646e-02 8.466767147183418274e-03 -1.673032902181148529e-02 -4.993119277060031891e-03
-2.719040727242827415e-03 -2.011963725090026855e-02 -4.172774031758308411e-03 -2.783400705084204674e-03 7.090420462191104889e-03
-1.407946087419986725e-02 1.827132888138294220e-02 -3.726575989276170731e-03 1.702909357845783234e-02 3.365289885550737381e-03
1.672139763832092285e-02 1.346602290868759155e-02 -1.077823573723435402e-03 -6.747844163328409195e-03 3.837039461359381676e-03
-7.512508425861597061e-03 2.920592669397592545e-03 3.662656527012586594e-03 -6.210420280694961548e-03 -9.316449984908103943e-03
8.880718611180782318e-03 -2.415301091969013214e-02 -1.994137885048985481e-03 -5.265464074909687042e-03 -5.625608377158641815e-03
1.059602387249469757e-02 6.927079521119594574e-03 1.881934935227036476e-03 6.353305187076330185e-03 1.446011196821928024e-02
-2.365151885896921158e-03 1.378325559198856354e-02 -1.245887763798236847e-02 1.563172414898872375e-02 -2.879955247044563293e-02
-1.769065670669078827e-02 3.632639709394425154e-04 5.461293738335371017e-03 8.748870342969894409e-03 -5.530327558517456055e-03
-1.802346482872962952e-02 1.663006469607353210e-02 -2.002127654850482941e-02 1.464487239718437195e-02 -2.064995281398296356e-02
-3.193858638405799866e-02 2.210949547588825226e-02 -4.773908760398626328e-03 1.515054702758789062e-02 6.194879766553640366e-03
3.205045359209179878e-03 -2.663607709109783173e-03 -1.198876928538084030e-02 -9.442746639251708984e-03 4.620935767889022827e-03
1.170632150024175644e-02 -2.000570110976696014e-02 -1.303672906942665577e-04 1.086685899645090103e-02 5.540632177144289017e-03
1.540090981870889664e-02 -1.368387881666421890e-02 -6.609670817852020264e-03 -4.326250404119491577e-03 -2.148474100977182388e-03
2.622937969863414764e-02 3.341461997479200363e-03 -2.619070233777165413e-03 -1.072642859071493149e-02 -3.480180352926254272e-02
-3.746258467435836792e-02 1.974942715605720878e-04 -4.263833165168762207e-03 1.538204215466976166e-02 3.269321052357554436e-03
-1.748586818575859070e-02 -3.368029836565256119e-03 -2.138213999569416046e-02 6.948156282305717468e-03 1.048159226775169373e-02
4.296319093555212021e-05 1.503209304064512253e-02 -5.505299195647239685e-03 1.714512472972273827e-05 -3.222855925559997559e-02
-6.910929456353187561e-03 7.323361467570066452e-03 -6.114390213042497635e-03 1.784351840615272522e-02 2.920466009527444839e-03
-1.393760903738439083e-03 -8.811279200017452240e-03 6.666642148047685623e-03 -9.044776670634746552e-03 1.359758712351322174e-02
-8.844398893415927887e-03 -2.307678107172250748e-03 -4.659160040318965912e-03 8.638158440589904785e-03 1.207013148814439774e-03
2.240323461592197418e-02 -6.956383585929870605e-03 -1.577732712030410767e-02 -2.759047970175743103e-02 -3.705294057726860046e-02
2.921776846051216125e-03 1.938644982874393463e-02 -1.535805128514766693e-02 -2.604408748447895050e-02 -1.148211490362882614e-02
-1.409261208027601242e-02 -1.529429480433464050e-02 -8.468483574688434601e-03 1.564504578709602356e-02 -6.342795677483081818e-03
-2.529423916712403297e-03 4.129966348409652710e-02 -1.734741590917110443e-02 2.965843072161078453e-03 -1.112000830471515656e-02
3.100114641711115837e-03 2.441412769258022308e-03 8.659955114126205444e-03 3.127247793599963188e-03 -5.452666431665420532e-03
-4.897269420325756073e-03 -2.455880120396614075e-02 1.963907852768898010e-03 1.766144111752510071e-02 4.373170435428619385e-03
1.670429669320583344e-02 4.649281036108732224e-03 -9.839677251875400543e-03 -1.452100463211536407e-02 -1.527336798608303070e-02
2.285178005695343018e-02 5.180293694138526917e-03 -2.654577419161796570e-02 -1.109863072633743286e-02 -4.529316443949937820e-03
-1.007308252155780792e-02 1.219254173338413239e-02 -1.261210069060325623e-02 3.749726805835962296e-03 -2.656679786741733551e-02
-8.424934931099414825e-03 6.467198021709918976e-03 -1.252325624227523804e-02 -3.800241975113749504e-03 -1.924676634371280670e-02
-9.022206999361515045e-03 1.000688876956701279e-03 3.364142728969454765e-03 -1.357657276093959808e-02 4.667124710977077484e-03
1.337090879678726196e-02 1.500115077942609787e-02 -2.311446703970432281e-02 -1.064066961407661438e-02 -1.895411498844623566e-02
-2.504782378673553467e-02 1.221302617341279984e-02 -1.821381971240043640e-02 8.812729269266128540e-03 -8.100473321974277496e-03
5.727308802306652069e-03 -5.709155928343534470e-03 4.661075363401323557e-04 -2.383837848901748657e-02 1.410805992782115936e-02
2.712276997044682503e-03 -8.659888990223407745e-03 -6.537850480526685715e-03 7.861437276005744934e-03 1.923085004091262817e-02
-2.475466392934322357e-02 3.291058167815208435e-02 -1.754838600754737854e-02 -6.730100139975547791e-03 -2.051151916384696960e-02
9.862672537565231323e-03 -1.401295606046915054e-02 -3.463293425738811493e-03 3.864931059069931507e-04 3.037533024325966835e-04
-2.468117699027061462e-02 1.300638727843761444e-02 -1.026890822686254978e-03 -1.079768221825361252e-02 4.670191090553998947e-03
-2.162480354309082031e-02 1.507635600864887238e-02 -1.300345547497272491e-02 7.356264162808656693e-03 -4.655429720878601074e-02
-1.038166345097124577e-03 1.354231685400009155e-02 -1.144772581756114960e-02 -8.285122923552989960e-03 1.672262675128877163e-03
-2.407981315627694130e-03 -5.393851548433303833e-03 -2.279145456850528717e-02 -7.973477244377136230e-03 -3.299186006188392639e-03
-5.626427475363016129e-03 -4.261577501893043518e-02 1.857611816376447678e-03 3.198217600584030151e-02 1.911690272390842438e-02
7.526049856096506119e-03 1.139006577432155609e-02 6.326222326606512070e-03 -7.863302715122699738e-03 -1.137286610901355743e-02
-9.177938103675842285e-03 1.017664792016148567e-03 8.417268283665180206e-03 2.099430654197931290e-03 1.594260334968566895e-02
3.190825460478663445e-03 9.773885831236839294e-03 -5.564334802329540253e-03 -1.176000665873289108e-02 8.381358347833156586e-03
-1.208599191159009933e-03 -1.128740026615560055e-03 -1.099785044789314270e-02 -9.722761809825897217e-03 -1.427553221583366394e-02
-1.897196099162101746e-02 -8.596867322921752930e-03 -1.319280266761779785e-02 1.994548738002777100e-02 -3.476557508111000061e-02
-2.092993631958961487e-02 8.875137194991111755e-03 -1.416279654949903488e-02 -2.299573738127946854e-03 6.209962069988250732e-03
2.553064189851284027e-02 -2.106468891724944115e-03 -8.837877772748470306e-03 -4.832954611629247665e-03 -4.868719726800918579e-02
1.188565045595169067e-02 -1.562403887510299683e-02 -1.908838935196399689e-02 1.182834804058074951e-02 -2.564677782356739044e-02
2.611713111400604248e-02 1.770176924765110016e-02 -4.457382485270500183e-03 -2.826762944459915161e-02 5.738050676882266998e-04
-1.746958121657371521e-02 1.793800853192806244e-03 -4.850952420383691788e-03 -2.925334847532212734e-04 1.109149772673845291e-02
2.105076424777507782e-02 4.241995979100465775e-03 -2.437672391533851624e-02 -1.681556925177574158e-02 -1.482178457081317902e-02
-5.666242446750402451e-03 1.976945064961910248e-02 -4.432627465575933456e-03 7.714346051216125488e-03 -6.644262466579675674e-03
1.934230886399745941e-02 -1.033851876854896545e-02 -1.276169437915086746e-02 -1.365996152162551880e-02 1.125963404774665833e-02
-9.777004830539226532e-03 6.547627504914999008e-03 1.899169641546905041e-03 -2.138220297638326883e-04 -1.403876487165689468e-02
-6.428368855267763138e-03 1.571110077202320099e-02 -1.473250426352024078e-02 -1.167042087763547897e-02 -1.288381312042474747e-02
-1.281830109655857086e-02 8.244040422141551971e-03 1.264396123588085175e-02 -2.793309837579727173e-02 9.030715562403202057e-03
-2.323826542124152184e-03 -1.481183990836143494e-02 5.519341211766004562e-03 1.264045760035514832e-02 1.724019995890557766e-03
-4.778412636369466782e-03 -8.622957393527030945e-03 -1.706668548285961151e-02 8.115486241877079010e-03 -5.035154172219336033e-04
-2.024958468973636627e-02 1.628190092742443085e-02 -9.777226485311985016e-03 -2.972848527133464813e-02 -1.644128188490867615e-02
-2.065137960016727448e-02 8.645811118185520172e-03 -4.131842404603958130e-03 6.868740543723106384e-03 -9.109098027693107724e-05
1.290004700422286987e-02 -2.067454718053340912e-02 -8.924445137381553650e-03 3.910911735147237778e-03 2.242842921987175941e-03
-2.986362203955650330e-03 1.618444174528121948e-02 -4.149591084569692612e-03 -2.445295453071594238e-02 5.836816970258951187e-03
6.065182387828826904e-03 9.759038686752319336e-03 -4.805136006325483322e-03 8.715837262570858002e-03 -2.995501644909381866e-02
1.070666033774614334e-02 -7.447562180459499359e-03 7.644733414053916931e-03 -2.523871371522545815e-03 -4.897484090179204941e-03
2.963714534416794777e-03 -2.177648432552814484e-02 -4.364318214356899261e-03 -3.915363922715187073e-03 2.565257623791694641e-02
-4.925472894683480263e-04 -2.157531678676605225e-03 3.066322999075055122e-03 1.350044086575508118e-02 1.439552661031484604e-02
4.602774977684020996e-03 -1.712911576032638550e-02 1.960309688001871109e-03 1.158400438725948334e-02 2.414413727819919586e-02
-3.849457576870918274e-02 1.341634616255760193e-02 -1.286726910620927811e-02 4.100007005035877228e-03 -8.709250018000602722e-03
-8.087262511253356934e-03 1.092706061899662018e-02 3.951084334403276443e-03 4.184960853308439255e-03 -8.443307597190141678e-04
3.451929986476898193e-02 -1.233953051269054413e-02 -1.588360033929347992e-02 -1.168759912252426147e-02 -1.561070885509252548e-02
5.924196913838386536e-03 -2.257219603052362800e-05 5.073244683444499969e-04 -1.031846739351749420e-02 6.308229174464941025e-03
1.076264958828687668e-02 1.094908267259597778e-02 -6.230814382433891296e-03 -2.086285874247550964e-02 -3.935295622795820236e-03
2.122501656413078308e-02 -1.291026920080184937e-02 6.192484870553016663e-04 1.882272027432918549e-02 1.003128103911876678e-02
2.047517709434032440e-02 -1.462218537926673889e-02 3.715665545314550400e-03 1.354234013706445694e-02 -2.016633749008178711e-02
-8.856448344886302948e-03 -2.575699612498283386e-02 8.998915553092956543e-03 9.172094054520130157e-03 2.222048118710517883e-02
1.207306049764156342e-02 8.216225542128086090e-03 -8.898119442164897919e-03 3.440695814788341522e-03 9.261010214686393738e-03
-1.130997668951749802e-02 1.786768436431884766e-02 -8.664035238325595856e-03 1.818099059164524078e-02 2.168005798012018204e-03
2.735972404479980469e-02 -1.184231508523225784e-02 -1.824563369154930115e-02 1.410307642072439194e-02 -3.761314321309328079e-03
1.319474633783102036e-02 -1.226035039871931076e-02 9.120266768150031567e-04 -1.032996643334627151e-02 4.795811139047145844e-03
-9.613954462110996246e-03 4.075309727340936661e-03 -1.871554064564406872e-03 1.176609471440315247e-02 9.245983324944972992e-03
-7.163945119827985764e-03 -3.016429394483566284e-02 -2.921292092651128769e-03 6.100256927311420441e-03 -1.500383950769901276e-02
-2.444137819111347198e-02 2.955900877714157104e-02 -2.134842053055763245e-02 -2.366050146520137787e-02 -2.188389771617949009e-04
-3.245336702093482018e-03 8.425755426287651062e-03 -9.044711478054523468e-03 1.299753692001104355e-02 5.541966296732425690e-03
1.300471462309360504e-02 1.129047386348247528e-02 -1.046088244765996933e-02 -1.697143726050853729e-02 3.768850816413760185e-03
1.239737588912248611e-02 -1.264493260532617569e-02 -3.370305756106972694e-03 8.042729459702968597e-03 -2.141094394028186798e-02
2.685972116887569427e-02 7.048793137073516846e-03 -9.901579469442367554e-03 -4.120891913771629333e-02 1.835370785556733608e-03
-3.373721614480018616e-02 3.316323831677436829e-02 -5.447258707135915756e-03 -6.575862877070903778e-03 2.275246940553188324e-02
2.043286897242069244e-02 -1.280210725963115692e-02 2.209122991189360619e-03 2.245153533294796944e-03 1.060764305293560028e-02
-2.837284654378890991e-02 -3.322966769337654114e-02 -1.599475368857383728e-02 2.501374855637550354e-02 -6.544264033436775208e-03
2.263055369257926941e-02 -6.204392411746084690e-04 -1.438405131921172142e-03 -9.062730707228183746e-03 -3.409866010770201683e-03
2.135435206582769752e-04 -2.079324610531330109e-02 -3.775996854528784752e-03 5.606621038168668747e-03 -1.356587838381528854e-02
8.165999315679073334e-03 1.209611073136329651e-02 -7.501968182623386383e-03 5.824481602758169174e-03 2.791935810819268227e-03
-1.450037467293441296e-03 -6.662469822913408279e-03 -1.038286089897155762e-02 -1.015460584312677383e-02 -1.568233221769332886e-02
1.139211002737283707e-02 1.566287875175476074e-02 -8.013308048248291016e-03 -2.126293256878852844e-02 -1.214267499744892120e-02
1.479096710681915283e-02 8.130220696330070496e-03 -3.798055928200483322e-03 -2.347857877612113953e-02 -1.543096546083688736e-02
6.355281919240951538e-03 -2.445603534579277039e-02 -2.253579441457986832e-03 2.913218364119529724e-02 -1.056484878063201904e-02
1.222984958440065384e-02 8.291963487863540649e-03 -9.996149688959121704e-03 2.375410310924053192e-02 2.969495952129364014e-02
1.086922921240329742e-02 -8.518817834556102753e-03 -1.675059273838996887e-02 1.688317954540252686e-02 1.355018746107816696e-02
-1.927932538092136383e-02 2.357587916776537895e-03 7.381734438240528107e-03 1.503785327076911926e-02 -3.996292501688003540e-02
3.096771193668246269e-03 6.890818011015653610e-03 -5.818708799779415131e-03 -9.003280662000179291e-03 1.856275834143161774e-02
1.719553256407380104e-03 -2.667998196557164192e-03 -9.937803260982036591e-04 -1.214559376239776611e-02 -3.734691441059112549e-02
-5.027364240959286690e-04 1.462229900062084198e-02 8.693374693393707275e-03 1.281218230724334717e-02 -1.735249720513820648e-02
-9.024705504998564720e-04 -9.709324687719345093e-03 1.240889425389468670e-03 2.345003001391887665e-02 3.284918377175927162e-03
-1.500021945685148239e-02 -1.685787108726799488e-03 -4.816533997654914856e-03 2.084673754870891571e-02 3.756365040317177773e-03
1.007905416190624237e-02 7.508839014917612076e-03 -3.842308884486556053e-03 4.646743182092905045e-03 -8.678897866047918797e-04
-1.126912701874971390e-02 1.496905367821455002e-02 7.074219640344381332e-03 1.220101863145828247e-02 -1.611200161278247833e-02
-3.775358898565173149e-03 -1.735403202474117279e-02 2.274867147207260132e-03 3.033093921840190887e-02 -2.215229161083698273e-02
-4.039622843265533447e-03 1.608732901513576508e-02 -6.593255791813135147e-03 -5.364628508687019348e-03 -2.671408466994762421e-02
-2.438187412917613983e-02 2.551096258684992790e-03 -7.022846024483442307e-03 1.624002307653427124e-02 -1.685299910604953766e-02
1.659679599106311798e-02 -7.505550049245357513e-03 2.549079945310950279e-03 9.393734857439994812e-03 1.972970552742481232e-02
1.050854101777076721e-02 -1.177995651960372925e-02 -2.162167336791753769e-03 1.003689758363179862e-04 8.688977919518947601e-03
9.399158880114555359e-03 -2.415536530315876007e-02 -1.136048138141632080e-02 2.574463747441768646e-02 -7.123814430087804794e-04
-5.527343600988388062e-03 -2.155193686485290527e-02 -1.192148029804229736e-02 4.198573902249336243e-02 1.131886267103254795e-03
-4.167895764112472534e-03 -4.418730968609452248e-04 -6.587947718799114227e-03 -1.326354965567588806e-02 1.087631471455097198e-02
6.942701991647481918e-03 -5.653555039316415787e-03 -1.583356992341578007e-03 3.354223445057868958e-03 -6.956465542316436768e-03
-7.691145408898591995e-03 1.595048606395721436e-02 -1.538437232375144958e-02 -9.804782457649707794e-03 -1.535906083881855011e-02
1.063003204762935638e-02 2.618793398141860962e-03 -1.368510071188211441e-02 7.217023521661758423e-04 5.720549961552023888e-04
-1.216262578964233398e-03 5.962143652141094208e-03 1.925362856127321720e-03 -1.835171878337860107e-02 -2.213590033352375031e-02
-1.623140834271907806e-02 8.631564676761627197e-03 -3.126407507807016373e-03 -1.028919313102960587e-02 -2.676803991198539734e-02
-5.897495895624160767e-03 1.256603375077247620e-02 7.015276234596967697e-03 -1.705571776255965233e-03 -5.213757231831550598e-02
-2.366416389122605324e-03 9.497572667896747589e-03 4.074746742844581604e-03 -7.206786889582872391e-03 2.861275337636470795e-03
-1.220629084855318069e-02 2.896018559113144875e-04 -1.826521381735801697e-02 -9.966932237148284912e-03 -1.530571375042200089e-03
-7.521345745772123337e-03 3.019311465322971344e-03 7.844924926757812500e-03 4.492138046771287918e-03 -4.843939095735549927e-02
-8.153303526341915131e-03 3.443564753979444504e-03 2.179781440645456314e-03 1.887636608444154263e-03 2.205453580245375633e-03
-1.546557620167732239e-02 5.565256811678409576e-03 -1.683382876217365265e-02 9.529536589980125427e-03 -9.500888176262378693e-03
1.600960083305835724e-02 1.524647884070873260e-02 -7.043184246867895126e-03 2.116103423759341240e-03 7.810616400092840195e-03
8.358139544725418091e-03 1.930402591824531555e-02 -2.181624993681907654e-02 -1.286316383630037308e-02 -3.674905019579455256e-05
1.781418360769748688e-02 5.020056269131600857e-04 3.412602003663778305e-03 1.448833197355270386e-02 2.589945448562502861e-03
-9.278628043830394745e-03 -1.172062754631042480e-02 -1.019239239394664764e-02 1.061844080686569214e-02 -9.222756139934062958e-03
-4.296403494663536549e-04 1.457007229328155518e-02 -6.294496823102235794e-03 2.150171622633934021e-02 -3.855663817375898361e-04
8.993812662083655596e-05 3.704525530338287354e-03 -7.310184184461832047e-03 6.565742660313844681e-03 -3.446614369750022888e-02
4.197303205728530884e-03 8.364569395780563354e-03 -1.217715814709663391e-02 2.710009738802909851e-02 -6.480112206190824509e-03
1.662538759410381317e-02 -1.322998665273189545e-02 -1.649296097457408905e-02 -5.896566901355981827e-03 1.275857794098556042e-03
-1.019806973636150360e-02 -2.876622835174202919e-03 -1.959768496453762054e-02 -1.021596882492303848e-02 -1.338942628353834152e-02
-5.025437567383050919e-03 6.099076941609382629e-03 -1.199541613459587097e-02 1.449041441082954407e-02 1.551209948956966400e-02
2.198161743581295013e-02 -1.010862737894058228e-02 9.332891553640365601e-03 -2.188021782785654068e-03 -2.638301812112331390e-02
6.732924841344356537e-03 -6.939312908798456192e-03 -1.994037255644798279e-02 1.149450987577438354e-02 -1.240111980587244034e-02
-4.186710715293884277e-02 1.491919439285993576e-02 6.061737425625324249e-03 3.707371279597282410e-02 2.295910380780696869e-03
-5.175775848329067230e-03 1.372941303998231888e-02 5.554048344492912292e-03 9.987737983465194702e-03 2.364431321620941162e-02
1.254778821021318436e-03 -1.418541278690099716e-02 -1.313183736056089401e-02 3.307140991091728210e-02 -2.476456807926297188e-03
-3.225393826141953468e-03 6.524768657982349396e-03 -2.902208827435970306e-03 -1.137353479862213135e-02 5.072974134236574173e-03
-3.692823695018887520e-03 -7.216210360638797283e-05 -1.142572262324392796e-03 8.256121538579463959e-03 4.152989946305751801e-03
-7.631790358573198318e-03 2.870875597000122070e-02 -1.178715843707323074e-02 -1.968943048268556595e-03 -7.488070987164974213e-03
2.383838035166263580e-02 -1.971114240586757660e-02 2.400923753157258034e-03 9.843854233622550964e-03 4.896111786365509033e-03
-6.186987273395061493e-03 1.848894055001437664e-03 -2.557422406971454620e-02 4.079676419496536255e-02 -3.104608878493309021e-02
-9.995345026254653931e-03 1.512895105406641960e-03 -7.696093991398811340e-03 1.545514538884162903e-02 9.257167577743530273e-03
4.744358826428651810e-03 -3.905415302142500877e-03 7.678138790652155876e-04 -4.345647059381008148e-03 -2.981075085699558258e-02
-1.976841595023870468e-03 -6.157033611088991165e-03 -2.444262802600860596e-02 -2.514067478477954865e-02 2.260314114391803741e-02
-1.242006849497556686e-02 1.239111553877592087e-02 -1.403449755162000656e-02 -5.858273711055517197e-03 1.163259876193478703e-04
-2.218152396380901337e-03 3.789163893088698387e-03 6.440636701881885529e-03 -3.552702022716403008e-03 1.477208174765110016e-02
1.005664933472871780e-02 2.063424326479434967e-02 7.616233546286821365e-03 -1.046773884445428848e-02 2.978166332468390465e-03
8.390584262087941170e-04 1.987968105822801590e-03 4.402711056172847748e-03 8.552431128919124603e-03 -1.013116445392370224e-02
2.816639840602874756e-03 1.022578869014978409e-02 -1.807773858308792114e-02 4.785856232047080994e-03 -2.714861929416656494e-02
1.578148826956748962e-02 4.167548380792140961e-03 -8.652415126562118530e-03 -4.963070154190063477e-03 1.674625091254711151e-02
-3.744769096374511719e-02 4.164776951074600220e-02 -8.664725348353385925e-03 -3.862340748310089111e-02 -2.376995235681533813e-02
4.162373021245002747e-03 9.368469007313251495e-03 1.018794719129800797e-03 -7.310155779123306274e-04 -3.846491128206253052e-02
2.069317176938056946e-02 8.468382060527801514e-03 7.247612345963716507e-03 -1.874274387955665588e-02 -6.666232831776142120e-03
2.159679541364312172e-03 1.530899107456207275e-02 -9.467421099543571472e-03 6.927221082150936127e-03 7.577817421406507492e-03
1.839822530746459961e-02 1.951840589754283428e-03 -3.223631531000137329e-03 9.383032098412513733e-03 -4.222591873258352280e-03
2.250432223081588745e-02 2.061033621430397034e-03 -1.027119066566228867e-02 -1.999482885003089905e-02 1.148573402315378189e-02
-1.644971407949924469e-02 2.000317163765430450e-02 -1.057415455579757690e-02 1.617838069796562195e-02 1.560700125992298126e-02
-2.505900105461478233e-03 3.309896588325500488e-02 2.179910894483327866e-03 1.500530727207660675e-02 -8.947584778070449829e-03
1.502975239418447018e-03 2.423305530101060867e-03 1.004741247743368149e-02 2.012917771935462952e-02 -2.515355823561549187e-03
2.260607481002807617e-02 -1.689709536731243134e-02 4.424197599291801453e-03 -4.184368066489696503e-03 -2.940211445093154907e-02
-1.409727707505226135e-02 9.464851580560207367e-03 -4.097838420420885086e-03 1.436756830662488937e-02 -6.393773946911096573e-03
-8.319208282046020031e-04 8.782755583524703979e-03 2.610599854961037636e-03 -1.131450408138334751e-03 -1.899052062071859837e-03
-1.001121476292610168e-02 1.163012348115444183e-02 -1.950551173649728298e-03 1.930205710232257843e-02 6.386485882103443146e-03
4.140497185289859772e-03 -1.668459177017211914e-02 3.333315486088395119e-03 5.498921032994985580e-03 -1.651590131223201752e-02
3.286598017439246178e-03 9.644448757171630859e-03 -1.696503907442092896e-02 1.105566415935754776e-02 -3.870143555104732513e-03
1.048137433826923370e-02 -5.595210939645767212e-03 3.944561351090669632e-03 -6.826658267527818680e-03 1.375736296176910400e-02
6.071174982935190201e-03 -2.605979098007082939e-03 4.096842021681368351e-04 9.899553842842578888e-03 1.287683192640542984e-02
2.157901041209697723e-02 -7.526651490479707718e-03 -2.109467750415205956e-03 -1.874946430325508118e-02 -1.873633824288845062e-02
7.855522446334362030e-03 -7.649044273421168327e-04 -1.282634586095809937e-02 -1.604722253978252411e-02 5.177921615540981293e-03
-7.138259708881378174e-03 -2.242999710142612457e-02 -4.342139232903718948e-03 -1.632732455618679523e-03 2.300674095749855042e-02
-3.239249065518379211e-02 7.288524648174643517e-04 -1.331417355686426163e-02 8.428891189396381378e-03 -5.109489895403385162e-03
1.301794685423374176e-02 -1.319089345633983612e-02 -9.927108883857727051e-03 -2.273111045360565186e-02 3.895733878016471863e-02
1.831710711121559143e-02 -1.742435805499553680e-02 1.103559602051973343e-02 1.026556268334388733e-02 5.914563313126564026e-03
-1.277444325387477875e-02 -1.141379401087760925e-02 -1.720289699733257294e-03 2.406099252402782440e-02 -8.425715379416942596e-03
-1.511411089450120926e-02 3.755934536457061768e-03 -1.259449031203985214e-02 -1.198402978479862213e-02 -5.002435762435197830e-03
1.754174008965492249e-02 -9.012517519295215607e-03 -2.439064159989356995e-02 9.895048569887876511e-04 6.485687103122472763e-03
6.884397473186254501e-03 -1.474520750343799591e-02 -2.101831510663032532e-02 -5.621690303087234497e-03 -2.520994981750845909e-03
1.877016201615333557e-02 1.036586519330739975e-02 -1.024343445897102356e-02 -6.639023777097463608e-03 -1.591062406077980995e-03
-5.198902450501918793e-03 9.722577407956123352e-03 -2.236137911677360535e-02 1.126469019800424576e-02 1.158488541841506958e-02
1.171370502561330795e-02 -4.575873725116252899e-03 -4.888146650046110153e-03 1.370245032012462616e-02 -2.876694314181804657e-02
-2.286760136485099792e-02 1.927818544209003448e-02 -8.784176781773567200e-03 1.058800704777240753e-02 3.566821804270148277e-03
1.575150061398744583e-03 1.566129550337791443e-02 -7.247802335768938065e-03 -2.660850295796990395e-03 -3.018446033820509911e-03
-5.795233882963657379e-04 -1.388572528958320618e-02 -1.830776408314704895e-02 -1.488986983895301819e-02 9.644308127462863922e-03
-4.245458636432886124e-03 2.636596933007240295e-02 -1.628424786031246185e-02 -4.698703065514564514e-03 -1.921244151890277863e-02
-9.928862564265727997e-03 1.106841769069433212e-02 -1.250546611845493317e-02 -2.268301323056221008e-02 -1.065550372004508972e-03
-1.436983235180377960e-03 1.630435325205326080e-02 -1.159874722361564636e-02 -2.107620239257812500e-02 9.405644610524177551e-03
1.601092284545302391e-03 9.303891099989414215e-03 -9.468356147408485413e-03 -1.416581589728593826e-02 8.904441259801387787e-03
-1.037878799252212048e-03 1.311438996344804764e-02 7.116740103811025620e-03 1.257087476551532745e-02 1.211472507566213608e-02
8.613240788690745831e-04 2.287309151142835617e-03 -7.996840286068618298e-04 -2.684111939743161201e-03 -9.078118950128555298e-03
3.520402684807777405e-02 -9.277671575546264648e-03 5.010343156754970551e-03 3.009486477822065353e-03 9.209802374243736267e-03
-3.428938798606395721e-03 -5.505275912582874298e-03 -2.649556379765272141e-03 3.743127454072237015e-03 -1.054754364304244518e-03
-1.104863826185464859e-03 9.452376514673233032e-03 -7.930391468107700348e-03 -9.358350187540054321e-03 7.171181496232748032e-03
7.289394270628690720e-03 -1.998341083526611328e-02 -5.576753988862037659e-03 6.592101883143186569e-03 -2.816006541252136230e-02
1.256552245467901230e-02 -6.490380968898534775e-03 -4.885081201791763306e-03 -1.007448695600032806e-02 5.966899916529655457e-03
-1.122891157865524292e-02 9.585097432136535645e-03 -1.234933361411094666e-02 1.511487737298011780e-02 1.762375608086585999e-02
-2.194076078012585640e-03 8.185286074876785278e-03 -8.707843720912933350e-03 5.348277743905782700e-03 1.063780859112739563e-02
-6.433762609958648682e-03 -1.908613927662372589e-02 7.610220927745103836e-03 2.263901382684707642e-02 -1.872336375527083874e-03
-2.225853689014911652e-02 1.469827629625797272e-02 -9.468622505664825439e-03 -6.487959064543247223e-03 1.887323707342147827e-02
1.431359909474849701e-02 3.239264478906989098e-03 -2.151323854923248291e-02 -1.693759858608245850e-02 -3.216068819165229797e-02
9.436609223484992981e-03 1.892302185297012329e-02 -8.027285337448120117e-03 -1.995883695781230927e-02 -2.804666291922330856e-03
2.867105044424533844e-02 -1.525199692696332932e-02 4.245375748723745346e-03 3.322777338325977325e-03 1.205103285610675812e-02
2.497916109859943390e-02 6.818496156483888626e-03 2.783539239317178726e-03 5.775295430794358253e-04 6.372853647917509079e-03
-1.644785143435001373e-02 -7.094267755746841431e-03 3.094706451520323753e-03 1.647289656102657318e-02 8.165313629433512688e-04
5.249658599495887756e-03 -3.367733675986528397e-03 -8.564791642129421234e-03 8.454567752778530121e-03 1.465168222784996033e-02
-1.842140033841133118e-02 1.517849415540695190e-02 -1.369327213615179062e-02 5.249349866062402725e-03 -1.591446995735168457e-02
1.867840066552162170e-02 -4.078442230820655823e-03 -1.272698957473039627e-02 -1.768874190747737885e-02 1.614617882296442986e-03
6.367334164679050446e-03 -3.381960559636354446e-03 -4.666220862418413162e-03 -5.343996919691562653e-03 -1.531617902219295502e-02
1.150863245129585266e-02 -8.724263869225978851e-03 -1.311347447335720062e-02 3.681538254022598267e-02 -1.920771226286888123e-02
4.055697470903396606e-02 -4.487609490752220154e-03 -3.506240900605916977e-03 2.744934754446148872e-04 -2.412854693830013275e-02
1.340787764638662338e-02 -1.678266562521457672e-02 -9.770872071385383606e-03 1.872103475034236908e-02 -1.478763017803430557e-02
-3.319498850032687187e-03 1.445373613387346268e-02 -1.346743106842041016e-02 -2.394956536591053009e-02 -9.518783190287649632e-04
-2.184021659195423126e-02 7.988829165697097778e-03 -1.176745630800724030e-02 1.510733645409345627e-02 2.007137797772884369e-02
9.096417576074600220e-03 9.857847355306148529e-03 -1.622090302407741547e-02 -5.548491608351469040e-03 -2.055889368057250977e-02
5.754298399551771581e-05 -1.800336502492427826e-02 -1.401995774358510971e-02 -1.795922871679067612e-03 3.842330537736415863e-03
-8.012361824512481689e-03 4.912341944873332977e-03 5.570317618548870087e-03 1.984714297577738762e-03 1.676291786134243011e-02
-1.441943459212779999e-02 1.643524132668972015e-02 8.292485726997256279e-04 -2.849375596269965172e-03 1.797104813158512115e-02
4.542184527963399887e-03 1.898653432726860046e-02 -1.198895554989576340e-02 -1.502187643200159073e-02 -1.795482821762561798e-02
1.369542907923460007e-02 4.453314468264579773e-03 -1.417348720133304596e-02 1.057169493287801743e-02 1.080816425383090973e-02
-3.995826933532953262e-03 1.930704340338706970e-02 -4.160320386290550232e-03 -7.235314697027206421e-03 -2.516233734786510468e-02
-5.698706023395061493e-03 3.860424971207976341e-03 -9.498859755694866180e-03 8.683795109391212463e-03 -7.943101227283477783e-04
2.510380465537309647e-03 1.671588607132434845e-02 -1.032977085560560226e-02 4.472491797059774399e-03 1.032391935586929321e-02
8.012029342353343964e-03 -2.867448329925537109e-02 -9.075230918824672699e-03 -2.897531911730766296e-02 -1.909695938229560852e-02
7.850427180528640747e-03 9.324023500084877014e-03 -4.632736090570688248e-03 3.454823978245258331e-03 -2.375792339444160461e-02
-2.170481532812118530e-02 1.862407103180885315e-02 -1.538154669106006622e-02 -4.775205627083778381e-02 1.085197832435369492e-02
-2.218454610556364059e-03 9.940777905285358429e-03 -1.381751894950866699e-02 1.369075104594230652e-02 1.636896841228008270e-02
3.734130179509520531e-03 1.591817475855350494e-02 -1.957408618181943893e-03 1.874429406598210335e-03 -8.456235751509666443e-03
-1.507042720913887024e-02 -4.493613727390766144e-03 -9.411940351128578186e-03 -3.087795339524745941e-02 1.280319131910800934e-02
2.435168426018208265e-05 -1.502521522343158722e-02 -3.151022829115390778e-03 1.911109313368797302e-02 1.793408580124378204e-02
1.335768308490514755e-02 -6.987669505178928375e-03 -2.254839520901441574e-03 -1.247789431363344193e-02 3.568034386262297630e-03
1.274491078220307827e-03 2.508330531418323517e-02 -2.446793764829635620e-02 -1.082389988005161285e-02 -2.671557106077671051e-02
-1.658685132861137390e-02 1.475977711379528046e-02 -2.456188946962356567e-02 -9.426529519259929657e-03 -2.899438142776489258e-02
-1.238196855410933495e-03 2.347523532807826996e-02 -2.274563722312450409e-02 3.664743155241012573e-03 2.351380884647369385e-02
-3.813413437455892563e-03 8.838245645165443420e-03 -7.617803756147623062e-03 7.966741919517517090e-03 2.001276612281799316e-02
2.412260696291923523e-02 2.485392848029732704e-03 -1.879251189529895782e-02 -1.860982365906238556e-02 6.820411887019872665e-03
-2.857882529497146606e-03 1.135144289582967758e-02 -1.682640612125396729e-02 2.320114336907863617e-02 -1.024324167519807816e-02
6.865620962344110012e-04 9.196118451654911041e-03 -1.492955908179283142e-02 1.339091826230287552e-02 2.158997766673564911e-02
-1.268546620849519968e-04 -1.229456509463489056e-03 -7.951423525810241699e-03 1.262871455401182175e-02 -5.495291668921709061e-03
5.080803297460079193e-03 1.634476007893681526e-03 -1.886689476668834686e-02 -1.397648919373750687e-02 -1.218577660620212555e-02
-3.921471908688545227e-02 2.718062326312065125e-02 -5.864385166205465794e-04 1.084463857114315033e-02 -2.138829790055751801e-03
-4.806153941899538040e-03 1.183046866208314896e-02 -7.861999794840812683e-03 9.627405554056167603e-03 -9.255385026335716248e-03
-7.848924025893211365e-03 5.941018462181091309e-03 -2.009996213018894196e-02 2.029746770858764648e-02 -1.723852939903736115e-02
2.616007626056671143e-02 -3.356584534049034119e-02 6.739877630025148392e-03 1.617350429296493530e-02 -1.558232959359884262e-02
-1.167478971183300018e-02 2.348334714770317078e-02 -1.259126607328653336e-02 -1.211459096521139145e-02 -1.848459430038928986e-02
-6.821511778980493546e-03 2.326150052249431610e-02 -1.145239267498254776e-02 1.903563737869262695e-02 -2.276977710425853729e-02
-2.231327071785926819e-02 7.723810616880655289e-03 6.999538745731115341e-03 -1.112398877739906311e-02 8.318479172885417938e-03
1.399153005331754684e-02 -2.734570764005184174e-03 -1.805231207981705666e-03 -3.179015964269638062e-02 2.628395520150661469e-02
8.970226161181926727e-03 2.640765905380249023e-02 4.251773469150066376e-03 -1.989764906466007233e-02 3.327801125124096870e-03
1.114792469888925552e-02 9.191549383103847504e-03 -3.839848504867404699e-04 -1.253659464418888092e-02 -5.975303240120410919e-03
9.543441236019134521e-03 -8.106417953968048096e-03 -6.705555599182844162e-03 9.017033502459526062e-03 -8.359644562005996704e-03
-2.680063620209693909e-02 3.492914838716387749e-03 -7.244375301524996758e-04 -4.199356306344270706e-03 2.322024479508399963e-02
-1.347893849015235901e-02 1.979485899209976196e-02 -2.332972129806876183e-03 -2.977122180163860321e-02 1.373639144003391266e-02
3.210187423974275589e-03 -3.514741314575076103e-03 5.884949932806193829e-04 -8.118923753499984741e-03 -6.385167129337787628e-03
4.961881786584854126e-03 5.606680642813444138e-03 -7.021459285169839859e-03 -1.166183780878782272e-02 1.047387067228555679e-02
3.695465857163071632e-03 -1.947909966111183167e-02 -2.441440895199775696e-02 2.684867754578590393e-02 -2.768486179411411285e-02
-2.194626070559024811e-02 7.543063722550868988e-03 -1.789785921573638916e-02 2.623019739985466003e-03 -1.995723322033882141e-02
1.379859261214733124e-02 4.623851273208856583e-03 6.064620334655046463e-03 1.631302572786808014e-02 -4.276958480477333069e-02
2.518850844353437424e-03 1.936097070574760437e-02 -9.014552924782037735e-04 6.907192524522542953e-03 -2.655978081747889519e-03
8.524877950549125671e-03 1.947587355971336365e-03 -1.466404367238283157e-02 -3.133633732795715332e-02 1.683838665485382080e-02
4.769863095134496689e-03 -1.941211521625518799e-02 1.948133576661348343e-04 -3.134717931970953941e-03 7.986607030034065247e-03
-4.895596299320459366e-03 2.285295538604259491e-02 -7.210930809378623962e-03 5.360538139939308167e-03 6.103892344981431961e-03
5.992377176880836487e-03 -6.058003753423690796e-03 8.600244298577308655e-03 5.318424664437770844e-03 -1.950778998434543610e-02
6.073348689824342728e-03 -1.985522545874118805e-02 -1.231757644563913345e-02 -2.935590408742427826e-02 -8.155930787324905396e-03
-1.847404427826404572e-02 1.802341639995574951e-02 -1.861859112977981567e-03 1.237958786077797413e-03 -1.612208597362041473e-02
-1.256080344319343567e-02 1.308898162096738815e-02 -1.506425533443689346e-02 6.698400713503360748e-03 -5.120474845170974731e-03
-2.377722179517149925e-03 2.586979046463966370e-02 -2.689392119646072388e-02 1.005059573799371719e-03 1.287282258272171021e-02
5.521235987544059753e-03 2.072555758059024811e-02 -2.023167908191680908e-03 2.392508322373032570e-03 2.028434770181775093e-03
5.292496643960475922e-03 5.296705756336450577e-03 -8.180095814168453217e-03 2.842527814209461212e-03 2.025180263444781303e-03
-8.934520184993743896e-03 1.074296887964010239e-02 1.704660709947347641e-03 1.031482312828302383e-02 1.358205918222665787e-02
-1.464086957275867462e-02 -1.541382167488336563e-03 -1.702738553285598755e-02 1.027701981365680695e-02 1.371572446078062057e-02
3.552523255348205566e-02 -7.491927593946456909e-03 -1.489342190325260162e-02 -2.204224839806556702e-02 1.886001788079738617e-02
1.746346987783908844e-02 -1.732518896460533142e-02 -4.451250133570283651e-04 1.784505508840084076e-02 -9.446924552321434021e-03
-2.985379251185804605e-04 1.102526765316724777e-02 1.507261302322149277e-03 -7.108427584171295166e-03 -1.723518711514770985e-03
-1.468364987522363663e-02 1.858172565698623657e-02 -7.952445186674594879e-03 -2.848374424502253532e-03 -9.092460386455059052e-03
2.547960029914975166e-03 9.621918201446533203e-03 3.532907925546169281e-03 2.455680165439844131e-03 1.693919184617698193e-03
-1.101311855018138885e-02 1.789877424016594887e-03 -1.135455816984176636e-02 -5.301224300637841225e-04 -1.552808564156293869e-03
1.793012768030166626e-02 1.995931565761566162e-02 -1.464184932410717010e-02 -1.689357310533523560e-02 -2.055253461003303528e-02
8.913322351872920990e-03 -8.722201921045780182e-03 1.991702010855078697e-03 -2.833371609449386597e-02 1.350801158696413040e-02
3.251010179519653320e-02 -6.069467402994632721e-03 9.532604017294943333e-04 -3.478355705738067627e-02 9.238094091415405273e-03
2.958033233880996704e-02 -2.538409642875194550e-02 5.893850699067115784e-03 -3.154385462403297424e-02 9.456138126552104950e-03
9.684711694717407227e-03 1.375351380556821823e-02 -1.798070222139358521e-02 -1.865272223949432373e-02 -1.519894693046808243e-02
-1.312540192157030106e-02 -1.469717733561992645e-02 -9.295757045038044453e-04 1.695933751761913300e-03 2.177323028445243835e-02
2.714256569743156433e-02 -9.675740264356136322e-03 -3.208266571164131165e-03 -2.427309378981590271e-02 8.160178549587726593e-03
-3.397595509886741638e-02 1.935294643044471741e-02 -1.572924479842185974e-02 -8.790614083409309387e-03 9.981694631278514862e-03
-1.785219460725784302e-02 -2.235352061688899994e-02 -6.476809736341238022e-03 1.575335301458835602e-02 -1.753164827823638916e-02
-1.644080504775047302e-03 -2.176425233483314514e-02 7.939036004245281219e-03 -6.931553129106760025e-03 1.068986579775810242e-02
9.823688305914402008e-03 -3.134995000436902046e-03 -1.437933463603258133e-02 -1.473558973520994186e-02 -4.307728726416826248e-03
2.446546778082847595e-02 5.674427375197410583e-03 -3.317977767437696457e-03 9.135844884440302849e-04 -1.107217743992805481e-02
-1.860857126303017139e-03 7.612166926264762878e-03 2.058980986475944519e-03 -5.272359121590852737e-03 1.565517298877239227e-02
1.372016500681638718e-02 -6.416408345103263855e-03 -1.682326011359691620e-02 2.424401027383282781e-04 7.749410346150398254e-03
-1.115568820387125015e-02 1.124492846429347992e-02 -1.109821535646915436e-02 6.337949540466070175e-03 -2.061236836016178131e-02
1.900053024291992188e-02 -2.566107548773288727e-02 -9.679696522653102875e-03 4.218180663883686066e-03 1.380985719151794910e-03
1.223908620886504650e-03 1.674534380435943604e-02 -4.999955184757709503e-03 1.719147711992263794e-02 -1.559252291917800903e-02
-9.054733673110604286e-04 2.914534136652946472e-02 -6.705927080474793911e-04 -4.082623496651649475e-02 -2.060643956065177917e-02
1.415159832686185837e-02 -1.433155220001935959e-02 1.785107888281345367e-03 -1.020790310576558113e-03 -3.262093290686607361e-02
-3.496621921658515930e-02 9.732168167829513550e-03 5.247602239251136780e-03 -8.180521428585052490e-03 1.065161451697349548e-02
6.556864362210035324e-03 4.521321505308151245e-03 -1.207307446748018265e-03 3.098587272688746452e-03 -5.137555301189422607e-02
1.247285516001284122e-03 7.999472320079803467e-03 2.087246859446167946e-03 1.030754018574953079e-02 -8.746553212404251099e-03
1.631109416484832764e-02 -2.745695225894451141e-02 -4.352701827883720398e-03 3.708733129315078259e-04 -9.968971833586692810e-03
1.499268808402121067e-03 -2.332407981157302856e-02 -5.726687144488096237e-03 3.610753268003463745e-02 -2.044049650430679321e-02
-1.514569111168384552e-02 3.685323754325509071e-03 -1.259599719196557999e-02 5.382848903536796570e-03 -1.536743366159498692e-03
8.677938021719455719e-03 -1.045720838010311127e-02 -8.366667665541172028e-03 3.041818737983703613e-03 1.008587889373302460e-02
-2.024348080158233643e-02 -4.781250609084963799e-04 -7.973092142492532730e-04 2.083872817456722260e-02 6.745383609086275101e-03
-6.577509455382823944e-03 1.153227780014276505e-02 -9.544963948428630829e-03 -2.823509857989847660e-04 -2.573013678193092346e-02
3.001158591359853745e-03 -1.319284737110137939e-02 -1.148853683844208717e-03 1.351604238152503967e-02 -1.032365392893552780e-02
1.973144710063934326e-02 -5.121420603245496750e-03 -1.529710367321968079e-03 7.001908030360937119e-03 -2.021380141377449036e-02
2.160581201314926147e-02 1.385688409209251404e-02 -1.675198040902614594e-02 -2.255339175462722778e-02 4.158797860145568848e-02
7.696664426475763321e-03 1.020586583763360977e-02 -1.303469669073820114e-02 -2.045217668637633324e-03 1.046535745263099670e-02
2.403475344181060791e-02 -7.238167803734540939e-03 -4.650648683309555054e-03 6.953740492463111877e-03 9.468211792409420013e-03
-3.031289903447031975e-03 -1.227466017007827759e-02 3.111536498181521893e-04 1.183461584150791168e-02 1.492803264409303665e-02
-3.453291486948728561e-03 -6.394907832145690918e-04 4.919412080198526382e-03 8.746643550693988800e-03 -2.316131722182035446e-03
-6.474074907600879669e-03 6.163782090879976749e-04 -1.315893419086933136e-02 2.381592802703380585e-02 -8.120787329971790314e-03
1.431253366172313690e-02 -2.432971261441707611e-02 -1.025987509638071060e-02 1.308407448232173920e-02 1.956202276051044464e-02
-1.744053699076175690e-02 1.076088380068540573e-02 -9.599257260560989380e-03 2.459607785567641258e-03 2.191447839140892029e-02
1.378439273685216904e-02 -1.569851301610469818e-02 -1.678838953375816345e-02 2.091346541419625282e-04 3.586067818105220795e-03
4.147639498114585876e-03 9.759622626006603241e-03 -2.320295758545398712e-02 3.288717940449714661e-03 -4.086617380380630493e-03
-5.620790645480155945e-03 6.740871816873550415e-03 -3.476655401755124331e-04 1.521266717463731766e-02 -9.912732988595962524e-03
-1.725879125297069550e-02 -1.823554933071136475e-02 -8.380650542676448822e-03 9.894473478198051453e-03 6.182880140841007233e-03
-1.468795631080865860e-02 7.480549626052379608e-03 1.047600526362657547e-02 5.643066018819808960e-03 -3.594960435293614864e-05
-1.159949973225593567e-02 2.193446736782789230e-03 -1.998501643538475037e-02 -2.832049503922462463e-03 1.385216042399406433e-02
-2.506805397570133209e-02 1.092599332332611084e-02 3.825191175565123558e-03 -1.170377014204859734e-03 -5.015486478805541992e-02
-2.183571225032210350e-03 1.070787757635116577e-02 -5.357380490750074387e-03 -1.604680344462394714e-02 1.447965577244758606e-02
-1.775775663554668427e-02 -9.576442651450634003e-03 -3.374251769855618477e-03 2.226285636425018311e-02 4.186187870800495148e-03
1.183657255023717880e-02 8.481720462441444397e-03 -1.444298401474952698e-02 6.031027995049953461e-03 9.704219177365303040e-03
8.508319035172462463e-03 9.400536306202411652e-03 -1.811274886131286621e-02 -1.380963996052742004e-02 -6.668500602245330811e-03
1.472450420260429382e-02 -1.041441224515438080e-03 -9.429235011339187622e-03 -1.353648584336042404e-02 -1.375149004161357880e-04
1.135580427944660187e-02 5.453262012451887131e-03 1.059166621416807175e-03 9.045381098985671997e-03 -1.301247905939817429e-02
-4.279963206499814987e-03 1.082318928092718124e-02 -1.506588794291019440e-02 -3.122687339782714844e-02 1.171360537409782410e-02
3.777553327381610870e-03 -4.617139697074890137e-03 -2.417994663119316101e-02 -1.365099567919969559e-02 -8.210119791328907013e-03
-8.289211429655551910e-03 8.368973503820598125e-04 1.866831094957888126e-03 -2.238236926496028900e-02 9.794615209102630615e-03
7.133438717573881149e-03 1.232734881341457367e-02 3.283784957602620125e-03 -3.125035390257835388e-02 8.379576727747917175e-03
1.535835862159729004e-02 -1.910157315433025360e-02 -1.469702087342739105e-02 -1.440357737010344863e-04 -3.067010780796408653e-03
-1.542481314390897751e-02 2.884043939411640167e-02 -6.610693526454269886e-05 -1.334510184824466705e-02 -1.803599414415657520e-03
2.742447145283222198e-02 -4.279624670743942261e-02 -2.337154466658830643e-03 6.386935245245695114e-03 1.435223687440156937e-02
-1.040181517601013184e-02 5.132986116223037243e-04 -3.835195209830999374e-03 1.171530596911907196e-02 8.583609596826136112e-04
-1.492285449057817459e-02 1.985686598345637321e-03 -1.054211705923080444e-02 2.175624249503016472e-03 -1.239449530839920044e-02
1.769221038557589054e-03 8.303106762468814850e-03 -7.808686234056949615e-03 -1.852109096944332123e-02 1.587543822824954987e-02
3.180214762687683105e-02 -5.855970084667205811e-03 -4.766880534589290619e-03 -1.067872531712055206e-02 -2.955338731408119202e-02
-5.169712938368320465e-03 -2.787297358736395836e-03 -2.251262543722987175e-03 1.108625903725624084e-02 1.527702622115612030e-02
2.011022996157407761e-03 1.698986440896987915e-02 -1.393110863864421844e-02 -7.068987470120191574e-03 1.018823310732841492e-02
1.799798919819295406e-03 5.257133860141038895e-03 -1.100441627204418182e-02 -1.039855368435382843e-02 1.986606791615486145e-02
1.925373636186122894e-02 -1.555994804948568344e-02 -9.347345679998397827e-03 1.755744032561779022e-02 -3.114400198683142662e-03
1.368489116430282593e-02 1.324487850069999695e-02 -2.400287427008152008e-02 4.007538780570030212e-03 1.659285090863704681e-02
-7.181359920650720596e-03 1.925677992403507233e-02 -1.479016151279211044e-02 -6.727097090333700180e-03 -2.611728757619857788e-02
2.265640720725059509e-02 -1.151470467448234558e-02 -2.120816707611083984e-02 -3.625475073931738734e-05 -1.892492407932877541e-03
7.129340898245573044e-03 2.268644422292709351e-02 -1.398188614984974265e-04 8.923724293708801270e-03 -9.004430845379829407e-03
-4.158795636612921953e-04 9.891611523926258087e-03 7.685622200369834900e-03 8.190346881747245789e-03 8.602168411016464233e-03
6.790258456021547318e-03 1.581303216516971588e-02 -8.865841664373874664e-03 -6.910697557032108307e-03 -1.180739235132932663e-02
1.321646198630332947e-02 -7.875517942011356354e-03 -1.719963364303112030e-02 6.144577171653509140e-03 -2.060170983895659447e-03
2.257223939523100853e-03 -6.582777015864849091e-03 -5.330708343535661697e-03 1.335847657173871994e-02 -9.711079299449920654e-03
1.371497660875320435e-02 2.097103372216224670e-02 -1.662836223840713501e-02 -4.353406839072704315e-03 1.585124433040618896e-02
-1.590125495567917824e-03 1.888051442801952362e-02 4.064880311489105225e-03 1.469183061271905899e-02 -7.363068405538797379e-03
1.849846914410591125e-02 -1.253448426723480225e-02 -1.262377575039863586e-02 -1.650044135749340057e-02 1.464487332850694656e-02
-1.938577555119991302e-02 1.824830396799370646e-04 -5.940650124102830887e-03 2.295136451721191406e-02 1.576398685574531555e-02
9.055988863110542297e-03 9.179942309856414795e-03 4.460829310119152069e-03 3.231170121580362320e-03 -2.615405805408954620e-02
1.329809660091996193e-03 1.810012012720108032e-02 -1.159694977104663849e-02 2.841686597093939781e-03 -1.980959204956889153e-03
1.304968539625406265e-02 -7.064902223646640778e-03 -8.292749524116516113e-03 4.043265245854854584e-03 -1.625077240169048309e-02
-4.133260995149612427e-02 5.616036243736743927e-03 -1.410254836082458496e-02 4.150575771927833557e-02 2.246861532330513000e-02
-1.344318268820643425e-03 2.944208309054374695e-02 1.451040618121623993e-03 -1.947819441556930542e-02 1.030921121127903461e-04
2.614073222503066063e-03 -3.870895877480506897e-02 6.406037602573633194e-03 4.288408160209655762e-02 -1.528956368565559387e-02
8.369173854589462280e-03 -1.823460124433040619e-02 -1.211250759661197662e-02 9.439437650144100189e-03 1.356791425496339798e-02
-9.966794401407241821e-03 8.051497861742973328e-03 -1.354181952774524689e-02 -2.412026980891823769e-03 2.152116224169731140e-02
-1.134574227035045624e-02 2.688518166542053223e-02 -1.707140915095806122e-02 -2.361909486353397369e-02 8.093391661532223225e-04
7.909128442406654358e-03 -1.705775037407875061e-02 -1.929178275167942047e-02 2.821748889982700348e-02 -1.918785157613456249e-03
-1.187315955758094788e-02 2.154377102851867676e-02 -1.056146528571844101e-02 -2.149472944438457489e-02 1.696453429758548737e-02
-1.983055099844932556e-02 -6.649748422205448151e-03 -1.358508970588445663e-02 1.294145453721284866e-02 -2.633292786777019501e-02
-3.302159253507852554e-03 -4.648211877793073654e-03 1.249179616570472717e-02 -7.916457019746303558e-03 9.820516221225261688e-03
-3.054172266274690628e-03 -1.966563612222671509e-02 -4.714526236057281494e-03 1.484305970370769501e-02 -1.277771312743425369e-02
2.302231825888156891e-02 -4.880398139357566833e-02 -1.388056948781013489e-02 7.229471113532781601e-03 -2.050809562206268311e-03
-4.665434826165437698e-03 2.360526472330093384e-02 -9.993346408009529114e-03 -2.384257502853870392e-02 -1.707845740020275116e-02
-2.168405801057815552e-03 6.261242087930440903e-03 -1.579555869102478027e-02 2.574811456725001335e-03 1.337390486150979996e-02
1.063282042741775513e-02 -1.044293120503425598e-02 -2.968006534501910210e-03 -5.888814106583595276e-03 -2.893385826610028744e-04
1.455443166196346283e-02 -2.783001400530338287e-02 -7.657592650502920151e-03 1.511905621737241745e-02 -3.911503031849861145e-02
-4.202291835099458694e-03 9.278417564928531647e-04 1.072116312570869923e-03 1.110133156180381775e-02 -8.887835778295993805e-03
-1.219771709293127060e-02 2.721498720347881317e-02 4.776972811669111252e-03 -1.821955665946006775e-02 -1.057480834424495697e-02
3.069520695134997368e-03 2.480970229953527451e-03 -1.682793721556663513e-02 -1.685723662376403809e-02 8.282002992928028107e-03
2.300854958593845367e-02 -1.429764088243246078e-03 -2.307754755020141602e-02 -6.901578977704048157e-03 -1.919119036756455898e-03
-2.108893170952796936e-02 4.939921665936708450e-03 -1.646494865417480469e-02 1.300428993999958038e-02 1.027722097933292389e-02
1.008155103772878647e-02 -1.622048579156398773e-02 -8.025991846807301044e-04 -1.317944936454296112e-02 1.078228466212749481e-02
-1.036179065704345703e-02 6.484917830675840378e-03 -4.518056754022836685e-03 4.210533224977552891e-04 -9.402714669704437256e-03
-1.516624540090560913e-02 -1.171708945184946060e-02 -2.200439572334289551e-03 2.162443660199642181e-02 2.913734642788767815e-03
2.175662852823734283e-02 -9.973552078008651733e-03 1.189736532978713512e-03 3.197823092341423035e-02 -8.393279276788234711e-03
-1.668714918196201324e-02 -1.459431077819317579e-04 -4.583945032209157944e-03 8.543027564883232117e-03 -1.731658354401588440e-02
-3.461734857410192490e-03 1.485953852534294128e-02 9.258364327251911163e-03 2.856158418580889702e-03 -8.983661420643329620e-03
-1.759318821132183075e-02 4.703280050307512283e-03 -5.700048059225082397e-03 1.474832650274038315e-02 -1.729703508317470551e-02
-2.414715103805065155e-02 3.643617406487464905e-02 -1.015849411487579346e-03 6.617136299610137939e-03 7.796590682119131088e-03
7.049590349197387695e-03 -1.899288035929203033e-02 -1.263105194084346294e-03 -1.666237972676753998e-02 7.558893412351608276e-03
-3.770364215597510338e-03 4.548452794551849365e-03 4.120461642742156982e-03 1.746207661926746368e-02 5.767971277236938477e-03
-4.616999533027410507e-03 -5.685301031917333603e-03 1.030869898386299610e-03 1.783466525375843048e-02 7.532055489718914032e-03
-2.867817692458629608e-02 -4.045678768306970596e-03 -2.336053439648821950e-04 -1.340107526630163193e-02 1.351629383862018585e-02
-1.015596557408571243e-02 -9.664227254688739777e-03 7.088475860655307770e-03 -9.994325228035449982e-03 -6.585287628695368767e-04
5.800595972687005997e-03 -1.623585447669029236e-02 3.912457264959812164e-03 5.184982437640428543e-03 3.168189432471990585e-03
-2.262888010591268539e-03 -1.344681601040065289e-03 2.724066376686096191e-03 6.487276870757341385e-03 -7.970299571752548218e-03
-1.265028677880764008e-02 -1.417629048228263855e-02 -9.689739905297756195e-03 2.008188166655600071e-04 -7.094433531165122986e-03
-1.251556444913148880e-02 1.888713985681533813e-02 -2.845802111551165581e-03 -1.380968187004327774e-02 8.649798110127449036e-03
-5.284538026899099350e-03 2.708559157326817513e-03 1.388740027323365211e-03 2.450433792546391487e-03 -1.070379093289375305e-02
8.343951776623725891e-03 -3.099882416427135468e-02 -1.223492249846458435e-02 2.613441832363605499e-02 -1.619974523782730103e-02
1.178373768925666809e-02 -1.583949849009513855e-02 -2.771389205008745193e-03 1.064365729689598083e-02 -8.616223349235951900e-04
6.443155929446220398e-03 -2.918884856626391411e-03 4.276805091649293900e-03 -1.141149783506989479e-03 1.784586347639560699e-02
1.203349418938159943e-02 -4.610326141119003296e-03 -3.297313814982771873e-03 -2.817278169095516205e-02 -2.494542486965656281e-02
-3.431406570598483086e-03 2.073945291340351105e-02 -2.532365731894969940e-03 1.846825703978538513e-02 -3.878772491589188576e-03
5.481644184328615665e-04 6.957613397389650345e-03 -7.140431087464094162e-03 2.200708724558353424e-02 -3.860322758555412292e-03
2.003466710448265076e-02 1.583459554240107536e-03 -1.433675456792116165e-02 -2.794021973386406898e-03 7.700092624872922897e-03
2.016595751047134399e-02 1.435608789324760437e-02 -1.842509955167770386e-02 -5.135796964168548584e-03 -1.323602441698312759e-02
-3.447525436058640480e-03 -9.448676370084285736e-03 -2.776857232674956322e-03 -4.406373947858810425e-03 -1.492340117692947388e-02
1.194361131638288498e-02 -1.399207860231399536e-02 2.875115489587187767e-03 -4.561436653602868319e-04 -5.970892962068319321e-03
2.992353774607181549e-02 -4.591126739978790283e-02 2.737773174885660410e-04 1.065795402973890305e-02 7.993873208761215210e-03
9.945781901478767395e-03 1.731903292238712311e-02 -2.328475192189216614e-02 -1.464167423546314240e-02 1.131614483892917633e-02
9.648652747273445129e-03 -2.062393538653850555e-02 -2.001867070794105530e-02 1.467648427933454514e-02 1.305918581783771515e-02
2.621679333969950676e-03 -2.760582370683550835e-03 -4.759319708682596684e-04 2.839813567698001862e-02 -5.106477765366435051e-04
-9.344199672341346741e-03 9.401773102581501007e-03 -9.250338189303874969e-04 2.573689445853233337e-03 -3.945475909858942032e-03
-6.518683396279811859e-03 9.306380525231361389e-03 -5.982353817671537399e-03 8.335835300385951996e-03 -8.932819589972496033e-03
1.306353416293859482e-02 -1.129636075347661972e-02 -1.065759453922510147e-02 -7.220658008009195328e-04 -1.072983164340257645e-02
-1.361686922609806061e-02 6.396178621798753738e-03 -1.985847949981689453e-02 3.249520901590585709e-03 6.001366302371025085e-03
-2.844424545764923096e-02 1.651655882596969604e-02 2.219838090240955353e-03 9.285472333431243896e-03 1.891066506505012512e-02
-7.078748662024736404e-03 2.043311670422554016e-02 -1.193743944168090820e-02 3.646314609795808792e-03 -1.756066456437110901e-02
1.922602951526641846e-02 -1.553107611835002899e-02 -7.843995466828346252e-03 -9.370206855237483978e-03 1.823106221854686737e-02
-2.546417526900768280e-03 -1.269889879040420055e-03 -1.763903768733143806e-03 1.769028976559638977e-02 -2.954378724098205566e-03
9.325989522039890289e-03 -1.569347456097602844e-02 -2.377147041261196136e-02 1.675459742546081543e-02 -4.571521654725074768e-03
2.597148716449737549e-02 1.856950577348470688e-03 -1.526409666985273361e-02 -1.541105005890130997e-02 -1.787035726010799408e-02
-3.898764774203300476e-02 8.312487974762916565e-03 -1.169102545827627182e-02 7.990750484168529510e-03 -2.161430194973945618e-02
2.244171686470508575e-02 -1.219930499792098999e-02 -5.367002449929714203e-03 1.100085768848657608e-02 -1.320491079241037369e-02
1.861238037236034870e-03 -4.444848746061325073e-03 -5.785888526588678360e-03 -8.920088410377502441e-03 -1.833333953982219100e-04
1.268083322793245316e-02 1.837044954299926758e-03 -3.782118204981088638e-03 1.661512302234768867e-03 -9.205644950270652771e-03
-3.113562474027276039e-03 2.830595895648002625e-02 2.266227267682552338e-03 -3.385990858078002930e-02 7.892366498708724976e-03
-1.180731784552335739e-02 2.008455060422420502e-02 -1.207817718386650085e-02 5.345556885004043579e-03 1.682204427197575569e-03
1.885144598782062531e-02 -5.609386600553989410e-03 -1.238109916448593140e-02 -1.054001972079277039e-02 -2.047566883265972137e-02
-2.856274880468845367e-02 1.437164004892110825e-02 -1.378623489290475845e-02 -1.770130917429924011e-02 2.724933810532093048e-02
1.086842827498912811e-02 1.953788101673126221e-02 5.868473555892705917e-03 -5.340364878065884113e-04 -1.018877979367971420e-02
2.739772200584411621e-02 3.620587987825274467e-03 -7.340439595282077789e-03 -1.096162572503089905e-02 -1.129982047132216394e-05
1.046358793973922729e-02 1.170915551483631134e-02 -2.490819804370403290e-02 -1.499026257079094648e-04 3.864848287776112556e-03
1.209282409399747849e-02 -2.880805730819702148e-02 -7.353233173489570618e-03 3.087105229496955872e-02 -3.873230516910552979e-02
-2.597488649189472198e-02 1.146147307008504868e-02 -1.101612951606512070e-02 -1.625806093215942383e-02 2.198284864425659180e-02
-8.333487436175346375e-03 2.097704261541366577e-02 -1.371476799249649048e-02 -2.031529322266578674e-02 8.847546763718128204e-03
-1.038946211338043213e-02 -1.856479421257972717e-02 -3.729415824636816978e-03 2.580626867711544037e-02 4.004469956271350384e-04
-2.996574039570987225e-04 -1.375719625502824783e-02 -8.552127517759799957e-03 4.736270289868116379e-03 1.082363771274685860e-03
-2.242556586861610413e-02 1.072921324521303177e-02 6.863912101835012436e-03 2.266945503652095795e-02 7.173047401010990143e-03
2.505845203995704651e-02 2.079023746773600578e-03 -1.456080656498670578e-02 -1.689466414973139763e-03 9.312337264418601990e-03
-2.902379957959055901e-03 -1.082715205848217010e-02 -1.972220651805400848e-02 5.525717511773109436e-03 -4.424535855650901794e-02
2.282146364450454712e-03 -1.415683142840862274e-02 -1.959069445729255676e-02 2.040379913523793221e-03 6.397692952305078506e-03
-2.634658105671405792e-02 1.368446275591850281e-02 7.455001119524240494e-03 8.736818097531795502e-03 4.017194267362356186e-03
-3.573497058823704720e-03 4.466200713068246841e-03 -8.179556578397750854e-03 -8.244873955845832825e-03 1.406059949658811092e-03
-8.733193972148001194e-04 -6.761625409126281738e-03 -8.731835521757602692e-03 1.441422104835510254e-02 2.332177711650729179e-03
-1.646368578076362610e-02 1.388813741505146027e-02 -1.946135796606540680e-02 -5.555503536015748978e-03 2.642644196748733521e-02
5.423594731837511063e-03 7.966852746903896332e-03 -1.409445516765117645e-02 -4.088052548468112946e-03 1.528330903965979815e-04
1.092617120593786240e-02 7.535915356129407883e-04 -1.112299133092164993e-02 2.222743630409240723e-02 -1.457126531749963760e-02
-3.083032555878162384e-03 7.809168193489313126e-03 -1.448262017220258713e-02 1.053605601191520691e-02 4.901077132672071457e-03
-1.229011453688144684e-02 1.304612867534160614e-02 -3.251219633966684341e-03 -1.840800279751420021e-03 -6.731459870934486389e-03
-5.766891408711671829e-03 -5.251418333500623703e-03 -1.244516856968402863e-02 2.181675098836421967e-02 7.358051836490631104e-03
-5.815481767058372498e-03 -3.227183595299720764e-03 -4.775169305503368378e-03 1.941143721342086792e-02 1.583680626936256886e-03
4.218989517539739609e-03 1.751386187970638275e-02 -1.440063770860433578e-02 7.174976170063018799e-03 4.066028166562318802e-03
5.993808619678020477e-03 -9.661825606599450111e-04 -1.019279845058917999e-02 3.242139937356114388e-03 -1.718592713586986065e-03
-1.689554750919342041e-02 3.129118680953979492e-02 -7.348385639488697052e-03 -1.872533746063709259e-02 -1.548816915601491928e-02
8.031114935874938965e-03 1.459612883627414703e-02 -2.762310020625591278e-02 -6.380864884704351425e-03 -5.600041896104812622e-02
1.440448407083749771e-02 -3.947374410927295685e-03 -1.859221607446670532e-02 3.405165625736117363e-03 -2.676137723028659821e-03
2.667758427560329437e-02 -3.189483191817998886e-03 -1.309529971331357956e-02 -1.042608264833688736e-02 1.653951406478881836e-02
-2.808108739554882050e-02 2.172056026756763458e-02 1.068882364779710770e-02 -5.938831251114606857e-03 1.865180768072605133e-02
4.567398224025964737e-03 -2.614928409457206726e-03 -1.437441073358058929e-02 1.299958582967519760e-02 6.404194980859756470e-03
1.415198016911745071e-02 -2.304252848261967301e-04 -4.904807545244693756e-03 -6.275187712162733078e-03 -9.872154332697391510e-04
-3.595925169065594673e-03 1.422477071173489094e-04 1.214457023888826370e-02 2.113873697817325592e-02 -2.627330459654331207e-02
-3.516898676753044128e-02 9.969158098101615906e-03 -5.679852794855833054e-03 -4.315317142754793167e-03 -5.040395073592662811e-03
1.224395725876092911e-02 -2.158826030790805817e-02 -1.404814049601554871e-02 2.330690622329711914e-02 -5.471938755363225937e-03
1.416359841823577881e-02 1.114816218614578247e-02 -4.798625595867633820e-03 -2.899732254445552826e-02 8.455095812678337097e-03
-1.583281904458999634e-02 3.086780942976474762e-02 -8.592905476689338684e-03 -1.076943241059780121e-02 -3.189105773344635963e-03
4.918877966701984406e-03 2.549333265051245689e-03 8.470917120575904846e-03 6.635939236730337143e-03 -2.010689117014408112e-02
-1.344280317425727844e-03 1.098335720598697662e-02 -3.314844332635402679e-03 1.910693943500518799e-02 3.871292807161808014e-03
-6.547720986418426037e-04 3.096557920798659325e-03 -4.504955839365720749e-03 1.910959742963314056e-02 8.772021159529685974e-03
1.058291643857955933e-02 7.090036524459719658e-04 -3.925807308405637741e-03 -3.865951672196388245e-02 3.864149097353219986e-03
5.961677059531211853e-03 -1.383433555020019412e-04 -1.044219359755516052e-02 -2.632110379636287689e-03 -3.442462300881743431e-03
7.517152000218629837e-03 3.132537007331848145e-03 -6.086003500968217850e-03 -2.364660613238811493e-02 4.185706202406436205e-04
-3.363222256302833557e-02 1.875389949418604374e-03 -1.891875872388482094e-03 -1.290222164243459702e-02 8.114174706861376762e-04
2.714833244681358337e-02 -1.094539929181337357e-02 -2.352079376578330994e-02 -1.906517148017883301e-02 -3.915853798389434814e-03
-1.436215639114379883e-02 1.906565204262733459e-02 -1.499491650611162186e-02 8.435794152319431305e-03 4.820881877094507217e-03
3.555887611582875252e-03 -1.353827188722789288e-03 -3.471355652436614037e-03 2.536461455747485161e-03 -8.977183140814304352e-03
-2.425093762576580048e-02 1.555662974715232849e-02 -2.092881873250007629e-02 4.021979402750730515e-03 -1.008388586342334747e-02
1.331263780593872070e-02 -2.624256070703268051e-03 -2.690173499286174774e-02 -1.716507971286773682e-02 -6.260608788579702377e-03
3.089265432208776474e-03 1.876651222119107842e-04 3.838874632492661476e-03 -3.701945533975958824e-03 -3.380556358024477959e-03
6.032584235072135925e-03 2.176993992179632187e-03 -9.217648766934871674e-03 -1.012459956109523773e-02 -3.655365481972694397e-02
4.539925139397382736e-03 -1.555197779089212418e-02 -2.463749237358570099e-02 2.669505588710308075e-02 -2.461737766861915588e-02
-1.604562997817993164e-02 7.940650917589664459e-03 -4.276949912309646606e-04 2.438153699040412903e-02 -1.789336837828159332e-02
6.134435534477233887e-03 5.786772351711988449e-03 -9.547985158860683441e-03 1.174170989543199539e-02 -1.324343774467706680e-02
-2.397988736629486084e-02 2.438574098050594330e-02 -4.744400735944509506e-03 6.029615178704261780e-03 -4.122082516551017761e-02
-1.452006865292787552e-02 9.216287173330783844e-03 -1.963170059025287628e-02 1.732960902154445648e-02 1.331613864749670029e-02
2.526570484042167664e-02 7.704960880801081657e-04 -2.377195470035076141e-02 -1.566976308822631836e-02 -2.925960533320903778e-02
9.090279228985309601e-03 2.125345403328537941e-03 4.764125216752290726e-03 -2.815450169146060944e-02 6.838588509708642960e-03
-1.045269076712429523e-03 -2.623861422762274742e-03 -5.385787691920995712e-03 1.718580164015293121e-02 1.897688582539558411e-02
6.391700822860002518e-03 -1.761903055012226105e-02 -1.495964010246098042e-03 -2.050942741334438324e-02 7.122089155018329620e-03
-1.102135144174098969e-02 2.456330880522727966e-02 -1.228871569037437439e-02 2.805627882480621338e-03 -2.160394378006458282e-02
2.178152464330196381e-02 -1.343175768852233887e-02 -8.974120020866394043e-03 1.263124495744705200e-02 -1.501136645674705505e-02
2.917574951425194740e-03 -3.364342032000422478e-03 -1.062439847737550735e-02 -2.090052329003810883e-02 -2.073124982416629791e-02
5.517221987247467041e-03 5.175122991204261780e-03 -2.044731192290782928e-02 -9.722821414470672607e-03 -1.093160547316074371e-02
-2.713947556912899017e-02 2.730597369372844696e-02 -1.411527767777442932e-02 1.018188428133726120e-02 1.620143465697765350e-02
1.726281596347689629e-03 -2.747632749378681183e-02 -8.093898184597492218e-03 2.701804786920547485e-02 5.629450548440217972e-03
2.326466608792543411e-03 3.035617247223854065e-02 -3.901018993929028511e-03 -3.256286028772592545e-03 -1.296262908726930618e-02
8.427954278886318207e-03 -3.001265460625290871e-03 -1.429581549018621445e-02 5.022712051868438721e-03 -2.794009633362293243e-03
6.598348729312419891e-03 9.657555259764194489e-03 -1.401507854461669922e-02 -1.313171442598104477e-02 1.813206821680068970e-02
-3.647328412625938654e-05 -2.238618209958076477e-03 -4.672607406973838806e-03 8.941573090851306915e-03 1.316046342253684998e-02
-1.250416040420532227e-03 8.812428452074527740e-03 -1.871267159003764391e-05 -4.270135890692472458e-03 -1.064695767126977444e-03
-8.708514273166656494e-03 2.559512667357921600e-02 2.928216475993394852e-03 1.663457415997982025e-02 -2.886631758883595467e-03
1.140912249684333801e-02 -9.812187403440475464e-03 -5.138699998497031629e-05 -1.387854851782321930e-02 8.416380733251571655e-03
7.701751310378313065e-03 1.578047871589660645e-02 6.778030656278133392e-03 -1.873124763369560242e-02 4.642287269234657288e-03
-4.971353802829980850e-03 1.201124023646116257e-02 -1.770814694464206696e-02 -8.148855529725551605e-03 -4.682155791670084000e-03
-3.728477982804179192e-03 2.605584450066089630e-02 1.025118120014667511e-02 -6.573329679667949677e-03 -4.293036647140979767e-03
-1.141884550452232361e-02 9.562367573380470276e-03 -1.731240306980907917e-03 3.043217025697231293e-02 1.111803483217954636e-02
-6.746531464159488678e-03 -1.276787463575601578e-02 -2.282871399074792862e-03 4.347751382738351822e-03 7.213076576590538025e-03
-5.448833107948303223e-03 -1.465445384383201599e-02 -2.108688279986381531e-02 1.683813869021832943e-03 8.416581898927688599e-03
-5.756503669545054436e-04 1.968594640493392944e-02 -2.554859779775142670e-02 -1.707785762846469879e-02 -1.504812669008970261e-02
-6.753476336598396301e-03 1.891042478382587433e-02 5.711510893888771534e-04 -2.122229337692260742e-02 2.197447605431079865e-02
-1.171602215617895126e-02 5.151437129825353622e-03 -4.619922488927841187e-03 -8.374684490263462067e-03 1.085059903562068939e-02
8.368492126464843750e-03 2.278313040733337402e-02 -5.190900992602109909e-03 -3.482764586806297302e-02 1.246919482946395874e-02
1.626343093812465668e-02 -7.473133038729429245e-03 -1.367739588022232056e-02 -1.487460336647927761e-03 1.221841666847467422e-02
9.350010193884372711e-03 -1.379943825304508209e-02 -1.338588260114192963e-02 3.122273832559585571e-02 1.879945956170558929e-02
-1.405825279653072357e-02 3.771741408854722977e-03 -4.407777916640043259e-03 2.191440947353839874e-02 -1.445308700203895569e-02
-1.741085760295391083e-02 -1.507860235869884491e-02 1.029980555176734924e-02 1.836370304226875305e-02 -2.404931187629699707e-02
4.877794068306684494e-03 1.430160179734230042e-02 -2.291438169777393341e-02 3.465552814304828644e-03 4.389462061226367950e-03
-9.749845601618289948e-03 1.038010604679584503e-02 -2.514637447893619537e-02 -2.155572548508644104e-02 -1.647821255028247833e-02
1.906558312475681305e-02 -1.578590460121631622e-02 -4.925484769046306610e-03 -6.570244207978248596e-03 -3.918978571891784668e-02
1.107113063335418701e-02 -7.211300078779459000e-03 -1.709705032408237457e-02 2.017946681007742882e-03 1.241414621472358704e-02
3.504574066027998924e-03 1.296965032815933228e-02 -1.699007465504109859e-03 1.416633836925029755e-02 -1.286288164556026459e-02
1.601545885205268860e-02 -9.231068193912506104e-03 8.040359243750572205e-03 -6.867151241749525070e-03 -1.634400710463523865e-02
3.109115362167358398e-02 -1.929881982505321503e-02 2.433651970932260156e-04 -2.707649720832705498e-03 -2.040618844330310822e-02
2.342654857784509659e-03 -4.301901790313422680e-04 -2.085454948246479034e-02 6.729715503752231598e-03 -2.610247582197189331e-03
-5.949266254901885986e-03 -8.538143709301948547e-03 -1.602339930832386017e-02 1.486066635698080063e-02 -4.811978433281183243e-03
3.422702196985483170e-03 1.857176073826849461e-03 -1.208818610757589340e-02 -1.753539219498634338e-02 1.066492032259702682e-02
1.149126514792442322e-02 -1.837116293609142303e-02 -1.554740592837333679e-02 2.425196208059787750e-02 -4.129538312554359436e-03
2.594762481749057770e-02 -2.835080400109291077e-02 -6.686085369437932968e-03 1.520556211471557617e-02 -3.362319990992546082e-02
-2.357158996164798737e-02 1.953166536986827850e-02 -5.944362375885248184e-03 4.119249992072582245e-03 -9.197009727358818054e-03
-2.069284766912460327e-02 3.398351604118943214e-03 -2.386207488598302007e-04 2.865053946152329445e-03 5.011993460357189178e-03
1.876287162303924561e-03 4.767974023707211018e-04 -2.763182111084461212e-02 -4.312386736273765564e-02 -3.953906148672103882e-02
1.482925470918416977e-02 1.857988303527235985e-03 -3.952965606003999710e-03 7.126714102923870087e-03 7.872091606259346008e-03
2.906539291143417358e-02 -1.928428886458277702e-03 -2.055671066045761108e-03 -1.716958358883857727e-02 1.955923251807689667e-02
-5.567075684666633606e-03 3.200811566784977913e-03 -1.927791349589824677e-02 1.991236954927444458e-02 -6.864256225526332855e-03
-2.901390567421913147e-02 2.073334343731403351e-02 -1.481941249221563339e-02 -2.036086283624172211e-02 1.742848195135593414e-02
-9.589289315044879913e-03 8.665848523378372192e-03 -6.307495757937431335e-03 1.974495872855186462e-02 1.263113925233483315e-03
1.328428462147712708e-02 -9.151846752502024174e-04 -1.327088940888643265e-02 7.075619883835315704e-03 8.147464250214397907e-04
1.150784920901060104e-02 -1.790228113532066345e-02 -1.917388988658785820e-03 1.787035912275314331e-02 -7.792337331920862198e-03
1.101322192698717117e-02 4.768824204802513123e-03 -9.875614196062088013e-03 -5.228730733506381512e-04 -1.802053861320018768e-02
-8.636702783405780792e-03 9.513609111309051514e-04 1.326940022408962250e-03 1.305318204686045647e-03 -8.431937894783914089e-04
-2.397720515727996826e-02 -1.397753041237592697e-02 5.463986191898584366e-03 2.423061989247798920e-03 9.514249861240386963e-03
1.169990934431552887e-02 7.455963641405105591e-03 -8.562603034079074860e-03 -9.526155772618949413e-04 -4.014303442090749741e-03
-4.703443031758069992e-03 1.999196596443653107e-02 4.173068795353174210e-03 1.633583009243011475e-02 -2.359958365559577942e-02
8.468461222946643829e-03 6.851939950138330460e-03 -1.813265308737754822e-02 -1.138700731098651886e-02 1.339094340801239014e-02
1.554865483194589615e-02 -2.297095209360122681e-02 7.597248186357319355e-04 -1.364627573639154434e-02 9.905684273689985275e-04
-5.623501259833574295e-03 -5.591570865362882614e-03 -8.108805865049362183e-03 1.198684982955455780e-02 7.261397782713174820e-03
-2.043118141591548920e-02 1.086509320884943008e-02 -1.812534034252166748e-02 1.853618770837783813e-02 -4.653735668398439884e-04
3.335770219564437866e-03 -6.408035289496183395e-03 -5.530084017664194107e-03 4.732639063149690628e-03 1.010047737509012222e-02
-8.112650364637374878e-03 1.232998818159103394e-02 6.274637416936457157e-04 6.008903495967388153e-03 -3.190631745383143425e-03
2.322944439947605133e-02 1.753863319754600525e-02 -1.200721878558397293e-02 9.036145173013210297e-03 4.339333623647689819e-03
2.818196266889572144e-02 -2.495331875979900360e-02 -5.409981124103069305e-03 1.309952232986688614e-02 4.901720210909843445e-03
3.728893818333745003e-03 2.634072490036487579e-02 -4.089332185685634613e-03 6.828058976680040359e-03 -6.545471493154764175e-03
2.302300883457064629e-03 9.325980208814144135e-03 5.950525403022766113e-03 -4.619679413735866547e-03 -4.307407420128583908e-03
5.188932176679372787e-03 7.257353281602263451e-04 3.075764281675219536e-03 -8.372547104954719543e-03 4.938945639878511429e-03
6.166098173707723618e-03 -1.377650443464517593e-02 1.110737910494208336e-03 7.062891498208045959e-03 -1.053445693105459213e-02
2.102947980165481567e-02 -1.276381965726613998e-02 7.639653515070676804e-03 -1.128433365374803543e-02 7.186191156506538391e-03
2.833345532417297363e-02 -8.877364918589591980e-03 4.243412986397743225e-03 2.694012038409709930e-02 -2.583349356427788734e-03
8.194644935429096222e-03 1.375118084251880646e-02 -6.372083444148302078e-03 1.338724605739116669e-02 -7.183869369328022003e-03
-1.670375349931418896e-03 2.228574082255363464e-02 -5.439511500298976898e-03 8.063022978603839874e-03 -3.370398655533790588e-03
-7.635334623046219349e-04 -1.635265350341796875e-02 3.321495139971375465e-03 9.256307035684585571e-03 -1.969536580145359039e-02
-1.258126739412546158e-02 -1.199284102767705917e-02 -1.297266129404306412e-02 -1.776158809661865234e-02 2.364252507686614990e-02
-8.809738792479038239e-03 -1.518159545958042145e-02 -2.243201620876789093e-02 7.592584937810897827e-03 -4.200858995318412781e-03
1.113274600356817245e-02 -9.281927719712257385e-03 -2.184700593352317810e-02 2.769001573324203491e-02 2.161399897886440158e-04
-1.967713423073291779e-02 1.701734401285648346e-02 4.170791711658239365e-03 2.293417975306510925e-02 -3.607124788686633110e-03
-1.471750292694196105e-04 1.639145426452159882e-02 3.703941823914647102e-03 1.686989096924662590e-03 -1.979192160069942474e-02
-8.819528855383396149e-03 1.703952066600322723e-02 -1.642042025923728943e-02 4.620760679244995117e-03 -2.647481858730316162e-02
-1.886403560638427734e-02 1.736301579512655735e-03 -8.909958414733409882e-03 1.469529233872890472e-02 1.309780683368444443e-02
-8.551824837923049927e-03 7.624602876603603363e-03 -9.489159099757671356e-03 -4.672444891184568405e-03 -2.555039012804627419e-03
-1.112673245370388031e-02 1.065589301288127899e-02 -1.123014185577630997e-02 6.817366462200880051e-03 2.771488763391971588e-02
-1.758391223847866058e-02 -5.115211009979248047e-03 -3.210142487660050392e-03 -3.488018410280346870e-03 2.169496146962046623e-03
-2.318497933447360992e-02 4.143240395933389664e-03 6.143869832158088684e-03 -1.291025057435035706e-02 3.013890702277421951e-03
5.802264902740716934e-03 4.796279594302177429e-03 -9.068761020898818970e-03 1.127356756478548050e-02 -1.740194740705192089e-03
1.227162778377532959e-02 1.334777800366282463e-03 -3.999152686446905136e-03 -1.184276584535837173e-02 1.493643410503864288e-02
-2.065549604594707489e-02 -3.475998295471072197e-03 7.318952120840549469e-03 2.249619574286043644e-04 9.404473006725311279e-03
1.798176020383834839e-02 7.050580345094203949e-03 -3.485429333522915840e-03 4.441152326762676239e-03 -2.584721520543098450e-02
6.571130827069282532e-03 -1.727453805506229401e-02 -2.034110017120838165e-02 1.704494282603263855e-02 -6.438167765736579895e-03
-1.143760513514280319e-03 -5.307544488459825516e-03 -2.228333987295627594e-02 3.208130225539207458e-02 -2.076502144336700439e-02
1.445176266133785248e-02 -3.575627878308296204e-02 -1.969538815319538116e-02 2.093621529638767242e-02 9.295799769461154938e-03
-1.203071884810924530e-02 2.284233085811138153e-02 -1.127759367227554321e-02 -1.350466441363096237e-02 3.943917807191610336e-03
-1.534543093293905258e-02 2.774358354508876801e-02 -1.109073311090469360e-02 8.574265986680984497e-03 -1.559113431721925735e-02
-3.001852147281169891e-02 1.443034317344427109e-02 -7.315003313124179840e-03 1.548910792917013168e-02 1.374289393424987793e-02
1.198153384029865265e-02 -1.164618134498596191e-02 -4.398256074637174606e-03 1.094789337366819382e-02 -3.067522542551159859e-03
9.492067620158195496e-03 -1.958101801574230194e-02 -1.438900362700223923e-02 -1.001168973743915558e-02 1.320849265903234482e-02
-6.431883666664361954e-03 1.400117948651313782e-02 -5.303496029227972031e-03 -5.672815721482038498e-03 -3.471060842275619507e-02
2.735415659844875336e-02 -1.312981639057397842e-02 -9.586866013705730438e-03 -1.117772888392210007e-02 6.522800540551543236e-04
-1.715846545994281769e-02 -1.521299593150615692e-02 -2.303795423358678818e-03 1.795064844191074371e-02 -2.947825379669666290e-02
1.856929436326026917e-02 -3.454012563452124596e-03 -1.208991464227437973e-02 -1.355305220931768417e-02 7.550170179456472397e-03
1.881545782089233398e-02 -2.727746777236461639e-02 -6.372211035341024399e-03 -4.073757212609052658e-03 2.201692666858434677e-03
1.590557768940925598e-02 -2.208551950752735138e-02 -1.006150804460048676e-02 1.910393871366977692e-02 -4.019775427877902985e-03
2.904562279582023621e-03 3.468533977866172791e-02 -4.482685122638940811e-03 -3.407438751310110092e-03 1.254247408360242844e-02
4.456705413758754730e-03 1.026732847094535828e-02 -1.456315536051988602e-02 -4.702179133892059326e-02 -1.242628134787082672e-02
-8.071945048868656158e-04 9.368240833282470703e-03 -3.300524782389402390e-03 -1.826413162052631378e-02 1.013191789388656616e-02
-1.462966483086347580e-02 9.406287572346627712e-04 -9.951674379408359528e-03 8.098150603473186493e-03 1.270037796348333359e-02
-7.530647795647382736e-03 2.549974992871284485e-02 -9.967162273824214935e-03 -3.371609374880790710e-03 -4.734131041914224625e-03
1.917906478047370911e-02 -1.240171585232019424e-02 -5.697546526789665222e-03 -8.737775497138500214e-03 9.633693844079971313e-03
3.960353322327136993e-03 -2.855820581316947937e-03 -1.582982577383518219e-02 -9.142357739619910717e-04 -1.962957158684730530e-02
8.160759694874286652e-03 7.288170047104358673e-03 -1.531732548028230667e-02 -3.816879540681838989e-02 1.940994523465633392e-02
2.511766366660594940e-02 -4.805515985935926437e-03 -2.199135161936283112e-02 7.717474945820868015e-04 2.735035307705402374e-02
-1.156413089483976364e-02 -1.401927787810564041e-02 -1.174972043372690678e-03 1.735573634505271912e-02 1.097919326275587082e-02
-1.741460338234901428e-02 9.876450523734092712e-03 2.667987020686268806e-03 7.185484748333692551e-03 9.688787162303924561e-03
8.717715740203857422e-03 -8.399686776101589203e-03 -2.078861743211746216e-02 1.174948085099458694e-02 -4.060705751180648804e-02
1.232806872576475143e-02 -5.363058298826217651e-03 -9.752269834280014038e-03 1.167787145823240280e-02 1.495588454417884350e-03
8.183132857084274292e-03 -2.142234705388545990e-02 5.587121006101369858e-03 1.634651608765125275e-02 -1.694216765463352203e-02
1.223365403711795807e-02 2.458088332787156105e-03 2.093131886795163155e-03 -1.690609939396381378e-02 -5.657654721289873123e-03
1.616941578686237335e-02 -3.337849397212266922e-03 -9.585765190422534943e-03 -4.903520457446575165e-03 4.867702722549438477e-03
6.453684531152248383e-03 -4.020750056952238083e-03 -1.233036629855632782e-02 7.343301549553871155e-03 1.208188850432634354e-02
1.674750261008739471e-02 8.776875212788581848e-03 6.438878481276333332e-04 1.374107133597135544e-02 -5.610757507383823395e-03
-3.333663195371627808e-02 1.895207352936267853e-02 -8.446292020380496979e-03 3.122998401522636414e-02 1.390841230750083923e-02
-1.184160728007555008e-02 1.410443242639303207e-02 -1.271724700927734375e-03 1.054385770112276077e-02 -1.275972556322813034e-02
-1.635842840187251568e-03 2.710753493010997772e-02 -1.365972775965929031e-02 -3.688130527734756470e-02 -2.488642744719982147e-02
1.168757025152444839e-02 1.598269119858741760e-02 -6.010404322296380997e-03 -3.164588473737239838e-03 2.828413154929876328e-03
1.694812253117561340e-02 7.856303825974464417e-03 3.504946362227201462e-03 -9.341615252196788788e-03 -1.407341379672288895e-02
1.817306503653526306e-03 -3.517874516546726227e-03 -1.787061104550957680e-03 -5.171976052224636078e-03 1.123273186385631561e-02
7.581249345093965530e-03 -5.707820877432823181e-03 4.848685115575790405e-03 1.836663298308849335e-02 -1.322879106737673283e-03
-3.150105243548750877e-03 -7.218950893729925156e-03 3.638964146375656128e-03 -2.046695211902260780e-03 -1.012110523879528046e-02
1.515491679310798645e-02 -2.958712168037891388e-03 -6.189601030200719833e-03 -1.499798148870468140e-02 -2.134007401764392853e-02
-5.922632291913032532e-03 1.242152694612741470e-02 -6.905833724886178970e-03 4.306464106775820255e-04 1.054355222731828690e-02
2.925978973507881165e-02 -2.082338184118270874e-02 6.882217247039079666e-03 1.892944052815437317e-02 1.239420659840106964e-02
-4.577069543302059174e-03 -3.367837518453598022e-02 -7.638947106897830963e-03 1.269969716668128967e-02 2.006854675710201263e-02
-8.616408333182334900e-03 1.306257210671901703e-02 -5.604027304798364639e-03 1.273646135814487934e-03 -2.171688713133335114e-02
1.352779101580381393e-03 -9.175279177725315094e-03 -7.156706880778074265e-03 2.006114833056926727e-02 -3.964651003479957581e-02
2.441015094518661499e-03 -8.934046491049230099e-04 -4.403602797538042068e-03 1.806626841425895691e-02 -1.374606229364871979e-02
9.182395413517951965e-03 -3.925641067326068878e-03 -1.053386647254228592e-02 -1.225255243480205536e-02 -2.104300772771239281e-03
-2.554248785600066185e-04 8.672681637108325958e-03 -7.668952923268079758e-03 4.541052039712667465e-03 -1.970640197396278381e-02
-1.257638633251190186e-02 2.719419775530695915e-03 -3.236792283132672310e-03 4.033308941870927811e-03 5.949191981926560402e-04
-1.185153960250318050e-03 -1.274572685360908508e-02 -2.427441440522670746e-02 2.535338886082172394e-02 -3.906576335430145264e-02
1.919605024158954620e-02 -5.715962033718824387e-03 -7.556321565061807632e-03 -2.015706337988376617e-02 7.380163879133760929e-04
1.178440731018781662e-02 5.532434210181236267e-03 -1.131711807101964951e-02 1.147731486707925797e-02 6.662131752818822861e-03
-1.607157848775386810e-02 2.320677414536476135e-02 -1.758166961371898651e-02 -2.382498001679778099e-03 2.550085540860891342e-03
2.357383072376251221e-02 -1.132923923432826996e-02 -7.775567471981048584e-03 -1.460262294858694077e-02 -4.822106100618839264e-03
1.440926454961299896e-02 3.179686609655618668e-03 2.171315252780914307e-03 5.805221153423190117e-04 -1.289202738553285599e-02
1.190047990530729294e-02 -1.837867312133312225e-02 -3.037193091586232185e-03 -2.104148641228675842e-02 -1.188497245311737061e-02
-1.984209194779396057e-02 9.049384854733943939e-03 -9.865860454738140106e-03 1.966433599591255188e-02 -1.128790713846683502e-02
3.066687611863017082e-03 2.084315987303853035e-03 -1.662973128259181976e-02 1.175651326775550842e-02 -4.419584199786186218e-02
8.828770369291305542e-03 1.055239234119653702e-02 -2.320645377039909363e-03 1.660631597042083740e-02 -2.427799860015511513e-03
-4.137595649808645248e-03 3.155512362718582153e-02 -1.256494689732789993e-02 2.876758575439453125e-03 -2.629627846181392670e-02
5.153467413038015366e-03 1.110350806266069412e-02 -1.363433152437210083e-02 -2.849398739635944366e-02 -2.081014774739742279e-02
9.440646506845951080e-03 1.678538322448730469e-02 5.545143503695726395e-03 -2.879193797707557678e-02 -1.588681153953075409e-02
2.862859284505248070e-03 -7.652036845684051514e-03 -5.646477919071912766e-03 5.552654154598712921e-03 6.448355969041585922e-03
2.045147307217121124e-02 3.462965833023190498e-03 -1.844476349651813507e-02 -1.089298631995916367e-02 -2.951946668326854706e-02
1.797294802963733673e-02 -1.586323045194149017e-02 -1.537112891674041748e-02 -5.128669552505016327e-03 1.190702896565198898e-03
1.160206925123929977e-02 -1.639716140925884247e-02 -1.874839328229427338e-02 2.215592935681343079e-02 -2.488019235897809267e-04
2.392125083133578300e-03 9.448573924601078033e-03 1.417054445482790470e-03 -2.396040363237261772e-03 3.206528257578611374e-03
3.653580788522958755e-03 6.342932116240262985e-03 -2.274052053689956665e-02 6.728301290422677994e-03 1.147312019020318985e-02
1.188368443399667740e-02 -2.402415964752435684e-03 -6.892090663313865662e-03 -1.480685081332921982e-02 -1.129661127924919128e-02
-7.287268992513418198e-03 -8.023448754101991653e-04 -3.699900698848068714e-04 1.545699033886194229e-02 -2.458150684833526611e-02
2.101057581603527069e-02 -2.290963754057884216e-02 -1.438795775175094604e-02 -3.024078719317913055e-02 -7.686173194088041782e-04
5.741027183830738068e-03 -9.795032441616058350e-03 -3.270359477028250694e-03 -1.542211510241031647e-02 -1.819016784429550171e-02
-6.594763137400150299e-03 -8.984684012830257416e-03 -1.035952009260654449e-02 -1.391279231756925583e-02 -8.327204734086990356e-03
1.943071186542510986e-02 1.791691780090332031e-02 -1.517805154435336590e-03 -7.317307870835065842e-03 4.684478044509887695e-03
1.562267635017633438e-02 -1.302207726985216141e-02 2.494245927664451301e-05 4.570574034005403519e-03 -1.973949559032917023e-02
-6.371597293764352798e-03 -1.276505179703235626e-02 -1.187495305202901363e-03 1.808428205549716949e-02 -7.562668062746524811e-03
-5.138352513313293457e-03 4.217126872390508652e-03 1.439167303033173084e-03 2.032140037044882774e-03 -1.594975776970386505e-02
1.101714652031660080e-02 -1.398954074829816818e-02 2.655757358297705650e-03 2.341826446354389191e-02 7.291536312550306320e-03
7.441563066095113754e-03 -2.711980603635311127e-03 4.824298433959484100e-03 -8.210815489292144775e-03 6.600962020456790924e-03
-2.405068650841712952e-02 -8.092522621154785156e-03 -3.158720443025231361e-03 2.225988730788230896e-02 -2.490300871431827545e-02
3.455345705151557922e-02 3.288301173597574234e-03 -2.417227486148476601e-03 -2.968743816018104553e-02 1.700189337134361267e-02
2.238147146999835968e-02 5.670920480042695999e-03 6.879913620650768280e-03 1.932568103075027466e-02 -2.359561808407306671e-02
6.687330082058906555e-03 -1.278554461896419525e-02 5.176957231014966965e-03 -1.593571715056896210e-02 -1.743206381797790527e-02
7.383759133517742157e-03 6.703921128064393997e-03 -9.767482057213783264e-03 -1.796723902225494385e-02 6.155663635581731796e-03
-1.238532643765211105e-02 -1.093321200460195541e-02 -2.309992536902427673e-02 2.279881201684474945e-02 1.759261265397071838e-02
-1.334045920521020889e-02 2.912128111347556114e-04 -1.249871589243412018e-02 5.585814360529184341e-03 -1.646840013563632965e-03
-1.656118221580982208e-02 -1.662893220782279968e-02 -2.797826193273067474e-03 2.513186819851398468e-02 1.622642576694488525e-02
-1.176450029015541077e-02 -2.244583703577518463e-02 -1.036047562956809998e-02 1.726755686104297638e-02 -3.810444613918662071e-04
2.677064575254917145e-02 -1.559646520763635635e-02 -5.463643465191125870e-03 -1.192134059965610504e-02 8.096551522612571716e-03
1.593649573624134064e-02 6.081680767238140106e-03 -7.716609165072441101e-03 -2.545998618006706238e-02 6.332241930067539215e-03
-3.741129999980330467e-03 3.213820606470108032e-02 -4.596795421093702316e-03 -8.394282311201095581e-03 -8.032393525354564190e-04
9.438575245440006256e-03 -7.498942781239748001e-03 -9.052343666553497314e-03 -6.129430141299962997e-03 -1.836253888905048370e-02
4.246579774189740419e-04 -1.718228682875633240e-02 5.351701984182000160e-04 -8.207779377698898315e-03 8.676449768245220184e-03
-1.126370951533317566e-02 -8.585946634411811829e-03 -8.214094676077365875e-03 1.942847296595573425e-02 7.830737158656120300e-03
1.694102026522159576e-02 -4.168587271124124527e-03 -6.658636964857578278e-03 1.277196779847145081e-02 1.931200549006462097e-02
1.109782140702009201e-02 -2.201094292104244232e-03 -1.266826689243316650e-02 4.798875655978918076e-03 1.601970754563808441e-03
-1.068581454455852509e-02 5.480202380567789078e-03 -5.706055555492639542e-03 -7.847610861063003540e-03 1.406272780150175095e-02
-7.066573016345500946e-04 1.479406841099262238e-02 -1.144172716885805130e-02 1.045298296958208084e-02 -3.001162037253379822e-02
-7.635463960468769073e-03 1.836484298110008240e-02 -6.239981856197118759e-03 4.838109016418457031e-04 -1.200233772397041321e-02
1.878027804195880890e-02 -7.919519208371639252e-03 -1.508582755923271179e-02 -1.923497952520847321e-02 -3.001521341502666473e-02
9.241215884685516357e-03 -6.096334662288427353e-03 -1.870804652571678162e-02 2.696065604686737061e-02 -2.163642458617687225e-02
-3.270696848630905151e-02 3.336115926504135132e-02 -8.853980340063571930e-03 -4.117486532777547836e-03 -1.728473696857690811e-03
5.613932386040687561e-03 5.266726948320865631e-03 -6.219107657670974731e-03 8.682736195623874664e-03 5.679652560502290726e-03
1.127150002866983414e-02 -1.795373298227787018e-02 5.709706805646419525e-03 -1.662016846239566803e-02 1.730956509709358215e-02
1.548395864665508270e-02 1.077187829650938511e-03 -7.313095498830080032e-03 7.702739909291267395e-03 -2.346725203096866608e-02
-5.602752789855003357e-03 -1.414206228218972683e-03 -7.297987584024667740e-03 -2.301776595413684845e-02 -2.279852284118533134e-03
1.050923857837915421e-02 -2.632192568853497505e-03 -6.403198465704917908e-03 1.043435465544462204e-02 7.348683197051286697e-03
-8.316641673445701599e-03 -7.170073688030242920e-03 4.705301020294427872e-03 2.129311673343181610e-02 1.502943225204944611e-03
2.167152240872383118e-03 1.397474901750683784e-03 -1.329831685870885849e-02 1.006717607378959656e-02 -1.990761049091815948e-02
