4.344538226723670959e-02 -3.320362791419029236e-02 -5.198372527956962585e-03 -2.293790876865386963e-02 4.042094515170902014e-04
-9.445942938327789307e-03 2.505390159785747528e-02 -2.048208750784397125e-02 -1.263003796339035034e-02 -1.730176433920860291e-02
5.817914381623268127e-03 -1.509804092347621918e-02 -1.463785395026206970e-02 -1.061612367630004883e-02 -7.149651180952787399e-03
7.722566369920969009e-03 -4.761290270835161209e-03 1.248030806891620159e-03 -1.700134202837944031e-02 -1.044688513502478600e-03
-1.618202216923236847e-02 1.407413650304079056e-02 -8.113778196275234222e-03 6.065286695957183838e-03 1.423302199691534042e-02
1.432738360017538071e-02 -5.015782080590724945e-04 -6.599894259124994278e-03 6.749557796865701675e-03 1.468228176236152649e-02
1.127766445279121399e-02 -9.169838449452072382e-05 -9.785732254385948181e-03 -1.599630340933799744e-02 7.272781338542699814e-03
1.054782886058092117e-02 6.686124834232032299e-05 -1.828922517597675323e-02 2.358802827075123787e-03 -1.482007559388875961e-02
-1.195937767624855042e-02 2.090987935662269592e-02 -9.454196318984031677e-03 -9.031289257109165192e-03 4.312282428145408630e-03
-1.580617018043994904e-02 1.815933175384998322e-02 -1.448908075690269470e-02 2.641090191900730133e-03 -1.050615217536687851e-02
9.829979389905929565e-03 -3.997519239783287048e-02 -1.410766784101724625e-02 1.675198040902614594e-02 -2.910623559728264809e-03
-9.355928050354123116e-04 -4.875818733125925064e-03 -6.307660602033138275e-03 2.076187357306480408e-02 8.094209246337413788e-03
3.157311305403709412e-02 -3.091969154775142670e-02 -2.801851369440555573e-03 2.410467527806758881e-02 1.378949638456106186e-02
-7.118094072211533785e-05 2.196444757282733917e-02 -3.108376869931817055e-03 -3.566804528236389160e-02 -1.861602254211902618e-02
-4.633022937923669815e-03 1.765730045735836029e-02 -1.696805283427238464e-02 4.352719523012638092e-03 -2.709347568452358246e-02
-1.263190153986215591e-02 1.480797771364450455e-02 -1.316159218549728394e-02 -1.248665712773799896e-02 -1.534264301881194115e-03
-1.566690765321254730e-02 5.740151740610599518e-03 -7.395659573376178741e-03 -2.577188797295093536e-02 2.970974147319793701e-02
3.587499959394335747e-04 -8.148777298629283905e-03 -4.275442101061344147e-03 3.367679426446557045e-03 -1.601378992199897766e-02
-3.551631420850753784e-02 2.939347550272941589e-02 -1.622176729142665863e-02 -7.284889928996562958e-03 -8.963836356997489929e-03
8.504851721227169037e-03 8.303542621433734894e-03 3.308354411274194717e-03 3.004971891641616821e-03 4.435747861862182617e-03
-2.667570719495415688e-03 2.437729202210903168e-02 -8.527982980012893677e-03 -2.195116691291332245e-02 -3.002938441932201385e-02
-7.778502069413661957e-03 8.182990364730358124e-03 -2.332563512027263641e-03 6.730884779244661331e-03 -2.694319933652877808e-02
-1.691738516092300415e-02 1.527033280581235886e-03 -6.533917970955371857e-03 1.764613389968872070e-02 1.389237772673368454e-02
-8.712810464203357697e-03 2.470329590141773224e-02 -9.904715232551097870e-03 -2.176989056169986725e-02 5.075441207736730576e-03
-3.792509669438004494e-03 9.671662934124469757e-03 -9.356741793453693390e-03 2.236642502248287201e-02 -9.538787417113780975e-03
2.533844672143459320e-03 5.485816393047571182e-03 6.769645959138870239e-03 1.340157818049192429e-02 3.939568530768156052e-03
-1.184280402958393097e-02 5.963465198874473572e-03 -1.133657246828079224e-02 -6.029499694705009460e-03 1.393249537795782089e-02
-4.347756505012512207e-03 5.209560971707105637e-03 4.302085377275943756e-03 4.519664682447910309e-03 -3.115577250719070435e-02
-7.965044118463993073e-03 -1.422054506838321686e-02 -9.343337267637252808e-03 2.959050796926021576e-02 -7.481705863028764725e-03
6.877120584249496460e-03 -7.719990331679582596e-03 -1.597201800905168056e-03 -1.920593716204166412e-02 2.554469276219606400e-03
1.586612872779369354e-02 -2.868165029212832451e-04 -6.682445295155048370e-03 -1.539263059385120869e-03 -1.732741668820381165e-02
-1.697370968759059906e-02 2.082660421729087830e-02 -2.061848994344472885e-03 3.980727400630712509e-03 3.754072822630405426e-03
1.584025449119508266e-03 -1.285074371844530106e-02 -5.859780590981245041e-03 -2.269875985803082585e-04 -8.448320440948009491e-03
-2.610837481915950775e-02 1.236522942781448364e-02 1.091984845697879791e-02 -9.866135194897651672e-03 -9.052816778421401978e-03
2.135853841900825500e-02 -2.939868345856666565e-02 -4.950940608978271484e-03 9.957985021173954010e-04 -2.370149269700050354e-02
-1.824667095206677914e-03 -6.814008578658103943e-03 1.139969797804951668e-03 1.024243887513875961e-02 3.352071507833898067e-05
-6.286274641752243042e-03 -4.880961496382951736e-04 -1.583845727145671844e-02 1.632513361983001232e-03 6.940025370568037033e-03
1.310749677941203117e-03 1.523035485297441483e-02 -1.205244660377502441e-02 -1.157178543508052826e-02 -1.287572551518678665e-02
1.208308618515729904e-02 4.385580774396657944e-03 -1.569862291216850281e-02 -1.397194992750883102e-02 -1.360165420919656754e-02
1.587397046387195587e-02 9.018887067213654518e-04 7.595676579512655735e-04 1.291186083108186722e-02 9.815593948587775230e-04
-9.290756657719612122e-03 -2.130377106368541718e-03 8.822279050946235657e-03 -2.385381795465946198e-02 -6.828741636127233505e-03
2.715830691158771515e-03 5.720511544495820999e-04 -6.395827047526836395e-03 -2.001564763486385345e-02 -6.557145155966281891e-03
-2.161120809614658356e-02 6.925753317773342133e-03 -8.036863058805465698e-03 2.755718491971492767e-02 6.787338294088840485e-03
5.823775194585323334e-03 -3.013840643689036369e-03 -2.201467985287308693e-03 -3.505097236484289169e-03 -5.705686286091804504e-03
6.158509291708469391e-03 1.117047481238842010e-02 -1.650205254554748535e-02 1.153993140906095505e-02 -1.545760221779346466e-02
-2.231636270880699158e-02 3.010137937963008881e-03 -1.509186346083879471e-02 -8.129136636853218079e-03 -2.267391979694366455e-02
-3.149864450097084045e-02 2.716474235057830811e-02 2.465671394020318985e-03 2.101466991007328033e-03 -8.330645039677619934e-03
-1.150684989988803864e-02 1.056240778416395187e-02 5.684562027454376221e-03 1.434678118675947189e-02 -1.305259764194488525e-02
2.387748827459290624e-05 -1.401174068450927734e-02 -8.321178145706653595e-03 1.783061586320400238e-02 3.382359631359577179e-03
2.378313802182674408e-03 1.452666055411100388e-02 -5.109556950628757477e-03 7.336948066949844360e-03 -5.453346529975533485e-04
8.422048762440681458e-03 2.836819738149642944e-03 7.870495319366455078e-03 4.752086009830236435e-03 4.770664032548666000e-03
3.555613011121749878e-02 -2.400873042643070221e-02 -6.716802250593900681e-03 -2.525968849658966064e-02 -1.095321727916598320e-03
5.586234852671623230e-03 2.472558408044278622e-04 -5.034900736063718796e-03 3.027853742241859436e-02 -2.474705688655376434e-03
1.813035830855369568e-02 6.445226259529590607e-03 -3.346710931509733200e-03 -1.098902663215994835e-03 1.330059953033924103e-02
3.035480342805385590e-02 -4.369903821498155594e-03 -2.410226734355092049e-03 3.101755864918231964e-03 -1.152523979544639587e-02
7.123998831957578659e-03 1.868587918579578400e-02 -1.408713520504534245e-03 -1.114771515130996704e-02 -1.183600630611181259e-02
3.113839216530323029e-02 -2.702550496906042099e-03 -1.074695866554975510e-02 -2.457010373473167419e-02 -9.908461011946201324e-03
4.379095509648323059e-03 -1.605039648711681366e-02 -1.950308680534362793e-02 8.329900912940502167e-03 9.212117292918264866e-04
-1.009052153676748276e-02 1.241583726368844509e-03 -1.567251794040203094e-02 -8.388170041143894196e-03 1.569411903619766235e-02
2.868597023189067841e-02 -5.068070255219936371e-03 -1.892031729221343994e-02 -5.631820764392614365e-03 -8.577592670917510986e-03
-6.231050938367843628e-03 1.502119097858667374e-02 -2.977092051878571510e-03 1.875353744253516197e-03 -2.171430387534201145e-04
1.904248818755149841e-02 -5.244713742285966873e-03 -1.476242486387491226e-02 -4.016506019979715347e-03 -1.651085447520017624e-03
-1.546145416796207428e-02 1.440860051661729813e-02 2.533814171329140663e-03 -1.785700209438800812e-02 -5.632191896438598633e-03
-3.068703808821737766e-04 -1.404119934886693954e-02 -2.670564875006675720e-02 1.859880238771438599e-02 5.738971754908561707e-03
1.456983573734760284e-02 -2.001880854368209839e-02 -5.276929121464490891e-03 3.067175485193729401e-02 1.945990137755870819e-03
7.501578424125909805e-03 -2.117533236742019653e-03 -1.063632778823375702e-02 9.211773984134197235e-03 7.500862702727317810e-03
1.245120726525783539e-02 1.166930701401724946e-06 -1.050837803632020950e-02 8.264418691396713257e-03 1.118455361574888229e-02
1.040836051106452942e-02 5.589437205344438553e-04 -1.215038262307643890e-02 -4.615996032953262329e-03 -7.003581151366233826e-03
8.200179436244070530e-04 2.258235402405261993e-02 -2.549603814259171486e-03 -3.781703300774097443e-03 7.593469228595495224e-03
-6.696597672998905182e-03 -1.144220586866140366e-02 1.378192217089235783e-03 4.100705310702323914e-02 -1.484898198395967484e-02
2.967223711311817169e-02 3.926842473447322845e-04 -1.548200286924839020e-02 -6.345912814140319824e-03 -1.180803868919610977e-03
7.436397019773721695e-03 2.300178259611129761e-02 8.391620591282844543e-03 -6.529992446303367615e-03 -2.434386312961578369e-02
-1.067005004733800888e-02 -1.210057456046342850e-02 6.447235355153679848e-04 4.099125042557716370e-03 -1.115191262215375900e-02
1.700585521757602692e-02 -1.575089804828166962e-02 -7.109357044100761414e-03 2.650808775797486305e-03 -1.250191312283277512e-02
6.190082058310508728e-05 1.513796113431453705e-02 9.697207249701023102e-03 -6.275497842580080032e-03 -1.212386600673198700e-02
6.358927115797996521e-03 1.386138144880533218e-03 -2.599005401134490967e-02 -7.074759807437658310e-03 -2.391177415847778320e-02
-2.652410231530666351e-02 2.452997490763664246e-02 5.224510096013545990e-04 3.310292586684226990e-02 -3.444224596023559570e-02
-1.661406084895133972e-02 1.068251952528953552e-02 2.203159267082810402e-03 1.003803778439760208e-02 -1.073652971535921097e-02
3.428148850798606873e-02 2.208228968083858490e-02 -2.128720842301845551e-02 -4.004680737853050232e-02 -4.798590205609798431e-03
1.429405994713306427e-02 -7.394488435238599777e-03 -5.461995024234056473e-04 -1.122075831517577171e-03 9.206472896039485931e-03
4.188168793916702271e-02 -2.406384330242872238e-03 -1.530606206506490707e-02 -1.346710510551929474e-02 -1.516668032854795456e-02
1.705285720527172089e-02 1.959281228482723236e-02 -2.374949119985103607e-02 -1.614756137132644653e-02 -2.893812721595168114e-03
-9.149422985501587391e-04 -1.019379962235689163e-02 -1.126157864928245544e-02 1.812255568802356720e-02 5.806225817650556564e-03
-2.162573672831058502e-02 1.040022913366556168e-02 -7.822901941835880280e-03 -1.204135734587907791e-02 -1.986865140497684479e-02
4.016268067061901093e-03 -5.403278861194849014e-03 -1.414148509502410889e-02 8.195078931748867035e-03 3.091927384957671165e-03
1.792854070663452148e-02 -1.832129247486591339e-02 2.237528562545776367e-03 7.202994311228394508e-05 1.236100681126117706e-02
1.530422829091548920e-02 -5.872438661754131317e-03 -1.328162197023630142e-02 -1.134558115154504776e-03 6.164577323943376541e-03
-1.064022164791822433e-02 2.404223568737506866e-02 1.036995835602283478e-02 1.571067236363887787e-02 8.029717020690441132e-03
-3.656156361103057861e-02 3.161232918500900269e-02 -6.887347262818366289e-05 -2.420328184962272644e-02 3.346578450873494148e-03
5.848119501024484634e-03 -2.614585915580391884e-03 -2.652165712788701057e-03 -1.080681383609771729e-02 2.299840562045574188e-02
-2.451747097074985504e-02 1.316535845398902893e-02 8.540893904864788055e-03 -4.267935641109943390e-03 3.184027271345257759e-03
1.810652948915958405e-02 1.480769738554954529e-02 -1.296938490122556686e-02 -2.136915177106857300e-02 -2.089302288368344307e-03
8.326414972543716431e-03 -5.910697858780622482e-03 -4.209959879517555237e-03 -3.789443289861083031e-03 -6.865812465548515320e-03
2.284727431833744049e-02 -2.660509431734681129e-03 -2.420622622594237328e-03 7.232018746435642242e-03 -2.895162673667073250e-03
-2.173158572986721992e-03 7.734858081676065922e-04 6.398175843060016632e-03 7.111064624041318893e-03 1.280564907938241959e-02
-5.629024002701044083e-03 3.176806261762976646e-03 -1.217292714864015579e-02 1.513772830367088318e-02 -1.566567830741405487e-02
-7.741912268102169037e-03 2.109295316040515900e-02 -2.543191611766815186e-02 8.209526538848876953e-03 -6.635560654103755951e-03
-2.125835604965686798e-02 9.972252883017063141e-03 -5.210758186876773834e-03 3.278566990047693253e-03 -4.739793483167886734e-03
-1.652604714035987854e-02 2.241501584649085999e-02 -2.232219092547893524e-03 4.824425559490919113e-03 -1.241801958531141281e-02
2.409206144511699677e-02 7.770826574414968491e-03 -9.211539290845394135e-03 -6.996117997914552689e-03 2.475195564329624176e-03
-3.381647868081927299e-03 -1.950182579457759857e-02 -8.022627793252468109e-03 1.014424487948417664e-02 -2.820626366883516312e-03
3.220710530877113342e-02 -7.219194900244474411e-03 7.076331414282321930e-03 -2.514037862420082092e-02 5.790867377072572708e-03
2.094665914773941040e-02 2.090967609547078609e-04 -1.881519332528114319e-02 -8.653791621327400208e-03 -1.440487708896398544e-02
-3.612191230058670044e-02 2.345697022974491119e-02 5.386196076869964600e-03 8.733896538615226746e-03 -1.086259027943015099e-03
-1.654108613729476929e-02 1.992685534060001373e-02 -1.000292692333459854e-02 3.337439382448792458e-03 9.187586605548858643e-03
-1.876586675643920898e-02 1.357315853238105774e-02 -2.122342027723789215e-02 -5.756704136729240417e-03 -1.847723871469497681e-02
-1.480874884873628616e-02 -3.129810793325304985e-03 5.504120141267776489e-03 1.553459186106920242e-02 -5.412135273218154907e-03
9.828479960560798645e-03 1.915436005219817162e-03 -8.063461631536483765e-03 -6.814949214458465576e-03 6.407311186194419861e-03
-1.139020454138517380e-02 -8.009852841496467590e-03 -9.793017990887165070e-03 1.172464434057474136e-02 2.758704870939254761e-02
8.220887742936611176e-03 -7.571452762931585312e-03 -1.570158079266548157e-02 -3.981505520641803741e-03 -1.415719743818044662e-02
5.827680695801973343e-03 3.911417908966541290e-03 -7.602563593536615372e-03 -2.861476317048072815e-02 -1.935265399515628815e-02
7.073797169141471386e-04 1.839421875774860382e-02 -1.667686924338340759e-02 5.880280397832393646e-03 1.058265008032321930e-02
8.992498740553855896e-03 1.801761426031589508e-02 4.297132603824138641e-03 -1.082911901175975800e-02 -1.961167715489864349e-02
7.685625925660133362e-03 2.579316496849060059e-03 -1.109696831554174423e-02 1.594547880813479424e-03 5.175201222300529480e-04
1.230690628290176392e-02 -1.560056209564208984e-02 -1.505545922555029392e-03 3.120729699730873108e-02 -5.552379414439201355e-03
3.913911990821361542e-03 1.489677000790834427e-02 7.646010722965002060e-03 1.156304613687098026e-03 -1.039566751569509506e-02
3.718794882297515869e-02 -1.791734620928764343e-02 8.657122962176799774e-03 -2.233241870999336243e-02 -2.371921204030513763e-03
-1.759474165737628937e-02 -6.239332258701324463e-03 1.101507572457194328e-03 2.183431945741176605e-02 -2.656448632478713989e-02
1.065205130726099014e-02 -8.487662300467491150e-03 -1.263281423598527908e-02 -1.028670114465057850e-03 -2.912037447094917297e-02
-1.156988739967346191e-02 8.447422645986080170e-03 -4.470244050025939941e-03 -1.141541823744773865e-02 6.152919493615627289e-03
1.372415013611316681e-02 1.148582622408866882e-02 2.307888353243470192e-03 -4.799221176654100418e-03 -8.682937361299991608e-03
-5.740836262702941895e-03 2.194188907742500305e-02 -5.325909703969955444e-03 -2.031230134889483452e-03 1.435235980898141861e-02
1.403054501861333847e-02 -1.087560504674911499e-02 -4.523202078416943550e-04 -9.492906741797924042e-03 1.711075007915496826e-02
-1.599688641726970673e-02 4.540594294667243958e-03 -2.263778820633888245e-02 4.866400267928838730e-03 2.270653285086154938e-02
-1.766234077513217926e-02 1.836527138948440552e-02 -8.001502137631177902e-04 1.408025622367858887e-02 -2.090146392583847046e-02
2.678297273814678192e-02 -3.843356622382998466e-03 -1.096276845782995224e-02 -2.952724462375044823e-03 1.543244253844022751e-02
-1.334123127162456512e-02 2.617522142827510834e-02 -1.672850549221038818e-02 -2.555441670119762421e-02 2.255639806389808655e-02
7.684916723519563675e-03 -2.551284385845065117e-03 -8.534304215572774410e-04 1.045290380716323853e-02 -3.055215999484062195e-02
-8.474724367260932922e-03 -1.479085651226341724e-03 1.026205252856016159e-02 -3.587882034480571747e-03 -1.486299559473991394e-02
1.185176242142915726e-02 4.033158533275127411e-03 -2.267044968903064728e-02 2.755800727754831314e-03 4.171797540038824081e-03
9.745245799422264099e-03 -5.234405770897865295e-02 -2.467029355466365814e-02 3.656041622161865234e-02 1.821052655577659607e-02
-5.959985312074422836e-03 -2.293763449415564537e-03 -1.313303038477897644e-02 -4.553341772407293320e-03 -8.543507196009159088e-03
-3.053023293614387512e-02 2.374953217804431915e-02 -1.267769467085599899e-02 -1.691210269927978516e-02 9.684073738753795624e-03
5.711222067475318909e-03 1.014828775078058243e-02 -1.471424940973520279e-03 4.920347128063440323e-03 9.644972160458564758e-03
4.578858613967895508e-03 -1.154423225671052933e-03 -1.274676341563463211e-02 1.344460528343915939e-02 -2.103153802454471588e-02
-1.440662983804941177e-02 -1.266089174896478653e-02 -2.204181393608450890e-03 1.638742722570896149e-02 -1.787191443145275116e-02
-2.068141847848892212e-02 9.763816371560096741e-03 -1.209731027483940125e-02 1.825632352847605944e-06 -1.767740584909915924e-02
2.779165096580982208e-02 -1.659267209470272064e-02 -7.266761735081672668e-03 -4.214533139020204544e-03 -1.903296448290348053e-02
2.503235358744859695e-03 -2.085565589368343353e-02 -2.056759223341941833e-02 4.923526197671890259e-03 -2.465997636318206787e-02
5.231692921370267868e-03 2.486048825085163116e-02 -1.414496358484029770e-02 -1.936507411301136017e-02 -3.191548166796565056e-03
-8.953489363193511963e-03 1.664477214217185974e-02 -9.233778342604637146e-03 2.586789242923259735e-02 1.862611155956983566e-03
1.220504660159349442e-02 -2.201279439032077789e-02 -1.271941326558589935e-02 -2.688954211771488190e-02 -2.244719117879867554e-02
-3.934579144697636366e-04 2.389210276305675507e-02 -1.397810224443674088e-02 8.329239790327847004e-05 -4.950707312673330307e-03
8.162222802639007568e-03 -1.848015747964382172e-02 -4.568443633615970612e-03 1.121217664331197739e-02 1.962547888979315758e-03
-1.043762546032667160e-02 2.665342763066291809e-03 -2.242026664316654205e-02 -7.640566036570817232e-05 -1.089822500944137573e-02
8.552972227334976196e-03 1.272704638540744781e-02 5.668201018124818802e-03 -2.421629615128040314e-02 7.262547966092824936e-03
4.742125049233436584e-03 3.797772107645869255e-03 -2.553925104439258575e-02 -7.364274468272924423e-03 2.598021645098924637e-03
7.005203049629926682e-03 -9.986911900341510773e-03 -1.353283319622278214e-02 1.690974645316600800e-02 -5.203136708587408066e-03
-1.529090944677591324e-02 -2.865983638912439346e-03 -2.591682365164160728e-03 2.985556423664093018e-02 -9.409722872078418732e-03
-2.805867232382297516e-02 2.762471698224544525e-02 -2.230979129672050476e-02 -3.788522910326719284e-03 -5.897542927414178848e-03
-1.017164997756481171e-02 2.564538642764091492e-02 -2.191368676722049713e-02 -1.266259048134088516e-02 -7.410568650811910629e-03
-4.854215076193213463e-04 -4.674389958381652832e-02 -1.842592097818851471e-02 9.754846803843975067e-03 8.779794909060001373e-03
1.088996045291423798e-02 1.792151108384132385e-02 -2.409126609563827515e-02 -2.701038308441638947e-02 -1.615589112043380737e-02
7.417098619043827057e-03 -1.239969395101070404e-02 -7.372500840574502945e-03 1.790927024558186531e-03 -1.357185002416372299e-02
-1.109512615948915482e-02 7.279860787093639374e-03 4.928181879222393036e-03 1.979045011103153229e-02 -1.225509913638234138e-03
2.028299262747168541e-03 -2.768355235457420349e-02 -5.245637148618698120e-03 5.575366318225860596e-03 4.045818466693162918e-03
-9.725729003548622131e-03 -6.685565691441297531e-03 2.292521065101027489e-03 4.719031509011983871e-03 -1.601570658385753632e-02
-3.491197014227509499e-03 -2.388381958007812500e-02 -1.127833407372236252e-02 -7.423213100992143154e-04 6.016835104674100876e-03
-3.157256543636322021e-02 1.512538176029920578e-02 -2.800886053591966629e-03 6.518469192087650299e-03 -9.502455592155456543e-03
-7.643858902156352997e-03 1.328137982636690140e-02 -1.030658464878797531e-02 -1.858140155673027039e-02 1.867780275642871857e-02
3.337070718407630920e-02 -2.911573648452758789e-02 -3.221767721697688103e-03 -1.130937598645687103e-02 8.481389842927455902e-03
-1.629437174415215850e-04 -1.683980226516723633e-02 -1.112874876707792282e-02 1.246551796793937683e-02 8.444834500551223755e-03
3.515324322506785393e-03 3.426871029660105705e-03 -1.260337978601455688e-02 3.730815835297107697e-03 3.785949200391769409e-03
1.508820429444313049e-02 3.201262326911091805e-03 -8.973220363259315491e-03 6.220027338713407516e-03 3.732358803972601891e-03
1.280401367694139481e-02 -1.256200857460498810e-02 -1.219058525748550892e-03 3.220495767891407013e-03 8.570318110287189484e-03
1.243339502252638340e-03 -2.202221564948558807e-02 -1.342622283846139908e-02 2.531090751290321350e-03 2.349973097443580627e-02
6.974911782890558243e-03 1.294712303206324577e-03 -5.668247118592262268e-03 3.362973919138312340e-03 7.008850108832120895e-03
-9.417083114385604858e-03 1.085046585649251938e-02 -8.739689365029335022e-03 6.533666513860225677e-03 -1.538697071373462677e-02
1.373235601931810379e-02 -9.166511707007884979e-03 -1.160985883325338364e-02 1.400595810264348984e-02 -3.195541910827159882e-03
1.157898548990488052e-02 -1.591984927654266357e-02 -5.990147590637207031e-03 9.038708172738552094e-03 -1.190593745559453964e-02
-1.831447146832942963e-02 2.839510887861251831e-02 1.207637600600719452e-02 -9.499438107013702393e-03 4.877389874309301376e-03
7.672129664570093155e-03 -2.649300545454025269e-02 -1.126001402735710144e-02 1.549821905791759491e-02 -1.386665273457765579e-03
-3.498202189803123474e-02 2.306978218257427216e-02 -2.318527176976203918e-02 -1.520599052309989929e-02 3.923441283404827118e-03
-1.045080646872520447e-02 1.104789227247238159e-02 -1.094102021306753159e-02 -3.351863240823149681e-03 2.744725346565246582e-02
2.532770484685897827e-02 1.421772874891757965e-02 6.996758282184600830e-03 -2.291847020387649536e-02 1.403902564197778702e-02
1.222465420141816139e-03 -1.758033223450183868e-02 -8.579102344810962677e-03 -7.001094636507332325e-04 -2.434138208627700806e-02
3.312314860522747040e-03 2.179113030433654785e-02 -7.471640128642320633e-04 -1.672035828232765198e-02 -2.741349115967750549e-02
-2.674444764852523804e-02 2.582670003175735474e-02 -6.475289352238178253e-03 1.230089808814227581e-03 9.799591265618801117e-03
1.217882800847291946e-02 -2.142519457265734673e-03 -1.626106910407543182e-02 9.946288773790001869e-04 1.834783516824245453e-02
-1.320103369653224945e-02 -1.558372285217046738e-02 -1.542242988944053650e-02 4.408327490091323853e-02 -2.204399742186069489e-02
1.957490667700767517e-02 5.460138781927525997e-04 -4.542326554656028748e-03 -1.346877310425043106e-02 5.836746189743280411e-03
-1.037895679473876953e-02 -3.178775543347001076e-03 -6.392250303179025650e-03 2.864577807486057281e-02 -5.708005744963884354e-03
4.640060476958751678e-03 3.936572466045618057e-03 -5.738052539527416229e-03 -3.852671477943658829e-03 1.183934044092893600e-02
2.870369702577590942e-02 -2.257582033053040504e-03 -1.769272610545158386e-03 -3.497341275215148926e-02 -5.779007449746131897e-03
3.556158393621444702e-02 -2.170105290133506060e-04 2.940142294391989708e-03 -2.310626953840255737e-02 -5.514793097972869873e-03
2.941884100437164307e-02 1.634831132832914591e-04 -1.420376356691122055e-02 -3.567937389016151428e-02 -1.503324322402477264e-02
3.480085870251059532e-03 7.866506348364055157e-04 -1.141668763011693954e-03 2.321269735693931580e-02 4.446217790246009827e-03
-1.393933873623609543e-02 -1.593419536948204041e-02 -9.108657017350196838e-03 1.197553332895040512e-02 1.322648953646421432e-02
1.491658668965101242e-02 -1.523694489151239395e-02 8.671241084812209010e-05 2.932510571554303169e-03 -1.332269422709941864e-02
-9.665283374488353729e-03 1.283374708145856857e-02 -1.655822247266769409e-02 2.843810990452766418e-02 -2.029621228575706482e-02
-1.400100719183683395e-02 7.209249306470155716e-04 -5.694734863936901093e-03 1.434143539518117905e-02 2.035363949835300446e-02
2.112464047968387604e-02 -1.295008230954408646e-02 -1.847930066287517548e-02 -8.330094628036022186e-03 -2.312640473246574402e-02
9.720774367451667786e-03 7.798942970111966133e-04 -5.763562861829996109e-03 1.045661419630050659e-02 1.404069596901535988e-03
-7.325553335249423981e-03 -1.786643825471401215e-02 4.190211766399443150e-04 9.903707541525363922e-03 -3.233876544982194901e-03
-3.567316802218556404e-03 -1.597787253558635712e-02 -7.175229489803314209e-03 9.584235958755016327e-03 -2.763849217444658279e-03
2.590237883850932121e-03 4.712824244052171707e-03 -7.813087664544582367e-03 2.549335593357682228e-03 -8.788227103650569916e-03
6.266923737712204456e-04 9.985899552702903748e-03 -1.230104267597198486e-02 6.516921333968639374e-03 -3.517004847526550293e-02
8.056925609707832336e-03 -2.051650732755661011e-02 -1.516379509121179581e-02 2.192006818950176239e-02 -1.631988026201725006e-02
8.129861089400947094e-04 2.241051383316516876e-02 -9.713614359498023987e-03 -1.950300531461834908e-03 -1.511169411242008209e-02
-3.035305812954902649e-02 1.418323628604412079e-02 9.465320967137813568e-03 2.691878937184810638e-02 -2.871340839192271233e-03
4.666919354349374771e-03 -1.975818723440170288e-02 -7.427067961543798447e-03 1.850959099829196930e-02 1.523214206099510193e-02
8.957103826105594635e-03 -1.816800609230995178e-02 -2.196290297433733940e-03 3.337484784424304962e-03 -4.406794440001249313e-03
7.082288153469562531e-03 -4.224228858947753906e-02 1.084428373724222183e-02 2.470905333757400513e-02 2.306101284921169281e-02
-2.103813551366329193e-02 -1.631183549761772156e-02 -7.324273698031902313e-03 2.126118354499340057e-02 -3.978777676820755005e-03
3.014762187376618385e-03 4.399085883051156998e-03 -1.877597765997052193e-03 2.739494666457176208e-03 1.748166978359222412e-02
5.950263235718011856e-03 -1.851280033588409424e-02 -1.384755689650774002e-02 1.092225685715675354e-02 1.934681087732315063e-03
1.772320456802845001e-02 6.941528525203466415e-03 -1.484006643295288086e-02 5.263417493551969528e-03 -5.606217775493860245e-03
-1.121739950031042099e-02 -1.428148429840803146e-02 -6.999358534812927246e-03 7.580253761261701584e-03 8.690007030963897705e-03
5.839548073709011078e-03 1.768725179135799408e-02 -1.802253350615501404e-02 -2.112812828272581100e-03 -1.130948308855295181e-02
1.832175650633871555e-03 2.482326515018939972e-02 -2.267098054289817810e-02 -8.343725465238094330e-03 1.777654280886054039e-03
1.160555798560380936e-02 8.881482295691967010e-03 3.807830507867038250e-04 -1.304605230689048767e-02 -1.000868063420057297e-02
1.122108008712530136e-02 3.777517238631844521e-03 -6.155928596854209900e-03 -5.783564120065420866e-06 -8.593398146331310272e-03
-2.411171235144138336e-02 1.297939009964466095e-02 -1.349769905209541321e-02 3.285081824287772179e-03 -9.660263312980532646e-04
-9.045703336596488953e-04 5.664007738232612610e-03 -1.038824766874313354e-02 5.287103354930877686e-03 -4.414098337292671204e-02
-6.552833598107099533e-03 1.436657621525228024e-03 -1.683103293180465698e-02 4.464077763259410858e-03 2.522162627428770065e-03
1.141826622188091278e-02 -4.060728009790182114e-03 -3.624434117227792740e-03 1.215638685971498489e-02 -1.480048522353172302e-02
1.025616377592086792e-02 -2.101205289363861084e-03 2.220790367573499680e-03 -3.941197320818901062e-02 -2.030547149479389191e-02
-2.189273945987224579e-03 8.668887428939342499e-03 -1.279646810144186020e-02 -2.507022395730018616e-02 1.652016653679311275e-04
1.469754055142402649e-02 5.468771792948246002e-03 -1.405124738812446594e-02 5.636731628328561783e-03 7.334219291806221008e-03
8.517196401953697205e-04 -2.075758820865303278e-04 -1.235282421112060547e-02 2.799116261303424835e-02 -2.597864251583814621e-03
-6.318308878690004349e-03 3.446191083639860153e-03 -2.816139487549662590e-03 2.045077458024024963e-02 9.087817743420600891e-03
9.534691460430622101e-03 5.253043025732040405e-03 -1.739007607102394104e-02 9.972591884434223175e-03 -1.820263266563415527e-02
-2.628692192956805229e-03 2.367889741435647011e-03 2.604830777272582054e-03 1.378473639488220215e-02 -7.760059554129838943e-03
8.879654109477996826e-03 -3.809626679867506027e-03 -3.040865762159228325e-03 -1.413860172033309937e-02 -6.377915851771831512e-03
1.509928703308105469e-02 1.104696746915578842e-02 -6.264259107410907745e-03 8.336280006915330887e-04 -1.400769129395484924e-02
-1.447351928800344467e-02 -3.142447210848331451e-03 -2.121974015608429909e-03 1.942918752320110798e-03 7.814962416887283325e-03
1.248267292976379395e-02 4.243398085236549377e-03 -2.081796154379844666e-02 -2.715747803449630737e-03 -1.672394573688507080e-02
1.279594749212265015e-02 -3.623220254667103291e-04 6.824806798249483109e-03 1.324158255010843277e-02 3.003756515681743622e-03
-3.061913885176181793e-02 1.131405308842658997e-02 -2.042506821453571320e-02 1.511705294251441956e-02 3.920599352568387985e-03
-4.290894605219364166e-03 1.535291690379381180e-02 -9.501971304416656494e-03 5.981868132948875427e-03 5.245678476057946682e-04
4.634533543139696121e-03 -1.240593567490577698e-02 -2.383953146636486053e-02 2.474204450845718384e-02 -1.393412519246339798e-02
-4.644826520234346390e-03 1.915563712827861309e-03 -2.161029912531375885e-02 9.102563373744487762e-03 9.503108449280261993e-03
-1.181904505938291550e-02 -1.341996947303414345e-03 1.235949993133544922e-02 2.539764530956745148e-02 1.820929348468780518e-03
-3.115096688270568848e-02 9.346689097583293915e-03 2.966020954772830009e-03 9.855757467448711395e-03 6.819543428719043732e-03
5.595699418336153030e-03 -1.377684157341718674e-02 -1.445945724844932556e-02 5.270885303616523743e-03 -2.124676248058676720e-03
-6.431775167584419250e-03 4.722820594906806946e-04 -1.158181112259626389e-02 1.606220752000808716e-02 -4.602259956300258636e-03
-4.506745841354131699e-03 -3.922613803297281265e-03 1.861840719357132912e-03 2.521663438528776169e-03 -1.028942596167325974e-02
7.085957564413547516e-03 -5.858335178345441818e-03 -5.393668543547391891e-03 2.246789168566465378e-03 -2.642779611051082611e-02
2.141740405932068825e-03 9.525312110781669617e-03 1.038488917401991785e-04 4.632565192878246307e-03 4.692445043474435806e-03
3.613891312852501869e-03 4.931112751364707947e-03 -1.268402673304080963e-02 8.852288126945495605e-03 -1.480645872652530670e-02
1.494300179183483124e-02 1.206969027407467365e-03 -1.343002822250127792e-02 3.617862472310662270e-03 1.079751993529498577e-03
-1.283203891944140196e-05 -3.371728118509054184e-03 -1.598246768116950989e-02 4.703009966760873795e-03 8.798899361863732338e-04
4.016988386865705252e-04 2.938951598480343819e-03 4.513917490839958191e-03 1.275645103305578232e-02 -1.125368569046258926e-02
-5.753868608735501766e-04 -2.034302800893783569e-02 -2.298298478126525879e-02 2.409591712057590485e-02 -9.905255399644374847e-03
1.142969634383916855e-02 -4.072996787726879120e-03 3.804908134043216705e-03 4.915885627269744873e-03 6.053169723600149155e-03
-4.608143866062164307e-02 3.667797148227691650e-02 -1.689328998327255249e-02 -2.001920714974403381e-02 -7.715839892625808716e-03
-7.378894370049238205e-03 6.360314437188208103e-04 -1.365342643111944199e-02 8.793259039521217346e-03 -3.492194227874279022e-03
1.804142072796821594e-02 3.800503909587860107e-03 -1.127972616814076900e-03 4.539286252111196518e-03 -1.320598833262920380e-02
3.356781788170337677e-03 5.298316013067960739e-03 -3.926652017980813980e-03 -1.062509231269359589e-02 8.416013792157173157e-03
-5.195820704102516174e-03 -5.213391035795211792e-03 -3.351564751937985420e-03 3.169837640598416328e-03 -2.287200652062892914e-03
1.194761134684085846e-02 -4.042460117489099503e-03 -8.914602920413017273e-03 -1.917483098804950714e-02 -2.060961211100220680e-03
-6.236115004867315292e-03 1.081563904881477356e-02 -3.549400949850678444e-03 1.527891773730516434e-02 1.047683763317763805e-03
5.776203703135251999e-03 2.764615043997764587e-02 -1.112382113933563232e-02 8.720767684280872345e-03 -5.231488030403852463e-03
1.146511174738407135e-02 -4.322212189435958862e-04 -7.489701383747160435e-04 1.541565451771020889e-02 2.553099067881703377e-03
3.315893933176994324e-02 -4.645212087780237198e-03 6.176104303449392319e-03 -7.748484495095908642e-04 -3.700496628880500793e-02
-9.551288560032844543e-03 -9.648597915656864643e-04 -8.244567550718784332e-03 -1.333962939679622650e-02 1.553802005946636200e-02
6.870939861983060837e-03 -1.192905358038842678e-03 -2.464814856648445129e-02 -4.928340669721364975e-03 -8.137908764183521271e-03
-5.429992917925119400e-03 -8.302486385218799114e-04 -1.484084408730268478e-02 1.112670544534921646e-02 1.117129810154438019e-02
1.111640874296426773e-02 -1.182059757411479950e-03 2.002152177738025784e-04 -1.117609068751335144e-02 -5.783629603683948517e-03
-1.520297490060329437e-02 -5.327715538442134857e-03 6.808903999626636505e-03 -3.521867096424102783e-03 1.205732766538858414e-02
1.298141386359930038e-02 -7.625660393387079239e-03 -3.746516304090619087e-03 4.093550145626068115e-03 2.153746969997882843e-02
1.823687180876731873e-02 -8.768960833549499512e-03 -9.327746927738189697e-03 -1.323105394840240479e-02 -2.399120246991515160e-03
2.297221682965755463e-02 3.615208901464939117e-03 -1.809941790997982025e-02 1.268342719413340092e-03 -7.204565219581127167e-03
1.213558670133352280e-02 4.059753380715847015e-03 5.086543504148721695e-03 -2.720244042575359344e-02 -1.256936462596058846e-03
1.532717328518629074e-02 -2.658163721207529306e-04 -6.584805436432361603e-03 5.866105202585458755e-03 1.927383826114237309e-03
-1.727632433176040649e-02 -5.669035483151674271e-03 -1.791994832456111908e-02 2.041095122694969177e-02 1.168704777956008911e-02
2.684987848624587059e-03 -9.930378291755914688e-04 -1.021124143153429031e-02 -2.713857591152191162e-02 3.825777769088745117e-02
2.592273242771625519e-02 -2.107317931950092316e-02 -1.158333662897348404e-02 -7.686309400014579296e-04 -7.016392424702644348e-03
-2.095482870936393738e-02 5.810850299894809723e-03 -3.074446925893425941e-03 3.502234816551208496e-02 -7.176564540714025497e-03
-4.318856634199619293e-03 1.535948179662227631e-02 1.060606632381677628e-02 -1.452856510877609253e-02 1.422833092510700226e-02
2.191263809800148010e-02 -1.574433408677577972e-03 -2.460411982610821724e-03 8.296541869640350342e-03 -1.104234624654054642e-02
2.223055623471736908e-02 -2.173664420843124390e-02 -9.461460285820066929e-04 -7.180683896876871586e-04 1.804780773818492889e-02
2.192042581737041473e-02 -2.333795465528964996e-02 -2.208277874160557985e-04 5.580036435276269913e-03 -3.681833622977137566e-03
-1.518583018332719803e-02 1.936848566401749849e-04 1.223454019054770470e-04 -7.463193032890558243e-03 3.579974407330155373e-03
2.735876850783824921e-02 -5.074167158454656601e-03 -4.181819967925548553e-03 2.894090255722403526e-03 -7.805568166077136993e-03
-4.495575558394193649e-03 5.194791126996278763e-03 -1.784662157297134399e-02 1.359508652240037918e-02 -9.283594787120819092e-03
5.384018644690513611e-03 1.241267099976539612e-02 5.996056366711854935e-03 -5.342289805412292480e-03 -4.999613389372825623e-03
3.548286855220794678e-03 1.641652733087539673e-02 -1.719469204545021057e-02 -1.287225447595119476e-02 -8.892162702977657318e-03
-5.090244114398956299e-03 1.441077515482902527e-02 -1.210039854049682617e-02 -1.618425734341144562e-02 -1.078656315803527832e-02
9.047297760844230652e-03 2.714452147483825684e-02 -5.094421561807394028e-03 -2.523500099778175354e-02 5.484575871378183365e-03
1.247957628220319748e-02 4.393450915813446045e-03 -7.748613134026527405e-03 -4.453965928405523300e-03 2.171717770397663116e-02
-2.056934870779514313e-03 -2.222471171990036964e-03 -1.214878819882869720e-02 7.757047191262245178e-03 -2.209021244198083878e-03
-1.437939610332250595e-02 -8.150161243975162506e-03 -3.819124773144721985e-03 1.124456431716680527e-02 6.749981082975864410e-03
2.311056107282638550e-02 2.212562039494514465e-02 -1.606343872845172882e-02 -1.145585998892784119e-02 -1.438233628869056702e-02
1.191449351608753204e-02 -2.184193767607212067e-02 8.643199544167146087e-05 -4.502430092543363571e-03 1.274950802326202393e-02
-8.221864700317382812e-03 1.114319637417793274e-02 2.900774823501706123e-03 1.199407503008842468e-02 9.244966320693492889e-03
6.085229106247425079e-03 1.532148290425539017e-02 -8.357441052794456482e-03 -1.885298267006874084e-02 2.771881036460399628e-02
9.785986505448818207e-03 -1.529966387897729874e-02 -1.675260812044143677e-02 -5.670728278346359730e-04 -1.636803336441516876e-02
1.673537120223045349e-02 7.214699871838092804e-03 1.144826970994472504e-02 -6.113144103437662125e-03 1.252169255167245865e-02
-1.309576258063316345e-02 6.219520233571529388e-03 5.539135963772423565e-05 1.092358212918043137e-02 4.842306487262248993e-03
-2.010357333347201347e-03 -1.227358821779489517e-02 -1.224294304847717285e-02 2.275528945028781891e-02 -8.668413385748863220e-03
-9.576823213137686253e-04 -2.806177362799644470e-02 -9.400592185556888580e-03 2.047160640358924866e-02 1.635971106588840485e-02
-3.303045779466629028e-02 2.538113668560981750e-02 -2.135458402335643768e-03 -1.237392053008079529e-02 2.070752345025539398e-02
2.830469794571399689e-02 8.460744284093379974e-03 1.072777807712554932e-02 -1.030686311423778534e-02 -2.244372852146625519e-02
1.622063852846622467e-02 2.198519557714462280e-02 -7.401823531836271286e-03 -6.987866014242172241e-03 -1.106750778853893280e-02
1.801833882927894592e-02 -2.120012044906616211e-02 -8.904005400836467743e-03 -1.089624874293804169e-02 -2.846743678674101830e-03
2.314367331564426422e-03 -1.002979185432195663e-02 1.500713551649823785e-04 -9.830762632191181183e-03 3.057650988921523094e-03
-1.695560477674007416e-02 5.241456907242536545e-03 -1.565267704427242279e-02 1.375161670148372650e-02 -4.593710764311254025e-04
2.508104965090751648e-02 1.125576440244913101e-02 1.303007127717137337e-03 -3.383813891559839249e-03 -5.132137797772884369e-03
-1.043464895337820053e-02 2.580717764794826508e-02 -1.954914443194866180e-02 1.434460002928972244e-02 -1.475610677152872086e-02
1.155774225480854511e-03 1.884535071440041065e-03 -1.326829474419355392e-02 -9.781812317669391632e-03 3.464057110249996185e-03
1.469445135444402695e-02 -2.674529328942298889e-02 -4.539461806416511536e-03 1.861771196126937866e-02 -1.304792053997516632e-02
1.568465679883956909e-02 -1.367849577218294144e-02 -8.841210976243019104e-03 1.774295233190059662e-02 -1.423862576484680176e-02
1.176198944449424744e-02 -5.208479706197977066e-03 -1.615987159311771393e-02 -7.896204479038715363e-04 -1.403913833200931549e-02
1.026112399995326996e-02 -5.101282615214586258e-03 -1.110540423542261124e-02 2.148897200822830200e-02 -6.556973792612552643e-03
-1.176873128861188889e-02 2.944167703390121460e-02 -1.708209142088890076e-02 -2.139519341289997101e-02 2.009458141401410103e-03
-2.432489022612571716e-02 2.751940302550792694e-02 -9.227218106389045715e-03 1.649929210543632507e-02 -3.532885108143091202e-03
-1.215250976383686066e-02 -1.143926405347883701e-03 -1.799846626818180084e-02 7.085408084094524384e-03 -1.340933330357074738e-02
8.973141200840473175e-03 -7.876501418650150299e-03 1.131966523826122284e-02 1.544433273375034332e-02 -6.692974129691720009e-04
-6.614891346544027328e-03 -1.244331826455891132e-03 -4.482667893171310425e-03 1.177534647285938263e-02 -2.487935591489076614e-03
1.366280950605869293e-03 2.197845838963985443e-02 -1.695255190134048462e-02 -7.211527321487665176e-03 2.140635624527931213e-02
1.096603274345397949e-02 1.289819832891225815e-02 -8.267490193247795105e-03 -1.696260995231568813e-03 -8.817596361041069031e-03
4.497500602155923843e-03 -1.336245052516460419e-02 1.582247088663280010e-03 1.161070633679628372e-02 -1.038373913615942001e-02
-1.202673767693340778e-03 1.840721443295478821e-02 1.216676644980907440e-02 7.638447452336549759e-03 -1.649395935237407684e-02
-6.822265218943357468e-03 1.253935741260647774e-03 -1.668034121394157410e-02 7.134234532713890076e-03 1.204899232834577560e-02
1.403622049838304520e-02 5.782989785075187683e-03 -7.039419841021299362e-03 6.003234535455703735e-03 1.386528485454618931e-03
3.226938098669052124e-02 4.510311875492334366e-03 -7.934697903692722321e-03 -1.352274697273969650e-02 8.171940571628510952e-04
1.368754636496305466e-02 -1.182622089982032776e-02 -1.002153658191673458e-04 -3.684583643916994333e-04 -1.810550875961780548e-02
-2.599062211811542511e-02 2.153607085347175598e-02 6.268324796110391617e-03 -3.690681979060173035e-02 1.003108220174908638e-03
1.511798473075032234e-05 -7.020190358161926270e-03 -2.190320566296577454e-02 6.159744225442409515e-03 1.766049489378929138e-02
9.674628265202045441e-03 1.012279931455850601e-02 -2.429220266640186310e-02 1.296886242926120758e-03 -6.354795768857002258e-03
1.514268107712268829e-02 1.015778747387230396e-03 -1.771656237542629242e-02 -2.973389625549316406e-02 5.939401220530271530e-03
1.034900918602943420e-02 4.959129262715578079e-03 6.681886035948991776e-03 -4.029208794236183167e-03 8.784796111285686493e-03
1.860531978309154510e-02 -3.003536025062203407e-03 -1.945232599973678589e-02 -7.748211733996868134e-03 5.809993599541485310e-04
-2.214024588465690613e-02 1.304755453020334244e-02 -4.820545203983783722e-03 -2.997349575161933899e-02 -3.630945459008216858e-03
-1.997340656816959381e-02 4.706887993961572647e-03 -2.696827799081802368e-02 -1.266075577586889267e-02 -2.744390442967414856e-02
-1.333132758736610413e-02 7.999153807759284973e-03 -1.353431679308414459e-02 7.957912981510162354e-03 1.837710291147232056e-02
-7.520413491874933243e-04 -2.146132523193955421e-03 -2.991657936945557594e-03 2.226941753178834915e-03 3.492288291454315186e-03
7.913142442703247070e-03 1.443216949701309204e-02 -2.168517000973224640e-02 -2.612303011119365692e-02 1.439012680202722549e-02
2.449455903843045235e-03 -3.158032894134521484e-03 6.204718258231878281e-03 7.612185087054967880e-03 -3.619897365570068359e-02
1.448329421691596508e-04 3.286610590294003487e-03 7.048043422400951385e-03 8.522786200046539307e-03 1.194596383720636368e-02
-4.901733715087175369e-03 -6.081664934754371643e-03 -6.423666141927242279e-03 3.797912970185279846e-03 -1.704641245305538177e-02
9.433672530576586723e-04 -9.684486314654350281e-03 4.425290506333112717e-03 -1.289996691048145294e-02 -4.301390144973993301e-03
-2.092031016945838928e-02 2.155185304582118988e-02 2.705636434257030487e-03 -1.560198701918125153e-02 -2.371950540691614151e-04
1.186950039118528366e-02 7.659606635570526123e-03 1.353038707748055458e-03 -1.273080520331859589e-02 -1.642691902816295624e-02
1.632013358175754547e-03 1.759346807375550270e-03 -1.197826210409402847e-02 1.074304990470409393e-02 -4.005075898021459579e-03
2.366269938647747040e-02 -8.306388743221759796e-03 -1.711577922105789185e-02 1.651875674724578857e-02 -1.109628472477197647e-02
-1.345334667712450027e-02 8.736688643693923950e-03 -5.708179902285337448e-03 -7.896611467003822327e-03 -3.257589880377054214e-03
-1.125264354050159454e-02 -6.188786937855184078e-04 -2.220692485570907593e-02 -1.105421036481857300e-02 -2.573707886040210724e-02
-1.550236437469720840e-02 1.520925201475620270e-02 -5.646182689815759659e-04 7.857256568968296051e-04 5.131538491696119308e-03
1.999657601118087769e-02 -9.817596524953842163e-03 -4.257649998180568218e-04 -1.718964613974094391e-02 1.824975013732910156e-02
-1.972648547962307930e-03 1.401730161160230637e-02 -1.701778359711170197e-02 -3.860740363597869873e-02 1.626193150877952576e-02
-1.650612242519855499e-02 4.395134281367063522e-03 -1.287919748574495316e-02 9.918793104588985443e-03 -4.209833219647407532e-03
1.610981859266757965e-02 -2.067243680357933044e-02 -2.145154587924480438e-02 6.493153050541877747e-03 -2.729771845042705536e-02
-1.815831102430820465e-02 2.158050611615180969e-02 -1.672561466693878174e-02 2.393250726163387299e-02 8.768962696194648743e-03
-3.474158700555562973e-03 2.973000332713127136e-02 -2.926032175309956074e-04 1.461848383769392967e-03 -2.008281880989670753e-03
1.381798926740884781e-02 2.020089188590645790e-03 -6.010676268488168716e-03 1.548168715089559555e-02 -1.570664811879396439e-03
-1.983162015676498413e-03 -5.279067903757095337e-03 -9.850293397903442383e-03 -1.268536411225795746e-02 9.016804397106170654e-03
-2.773549873381853104e-03 -3.840648336336016655e-03 -1.427302195224910975e-04 1.389633025974035263e-02 -2.025262638926506042e-02
-2.486462891101837158e-02 1.731900870800018311e-02 2.589961281046271324e-03 1.900547184050083160e-03 -5.855652038007974625e-03
2.010749420151114464e-03 1.383486576378345490e-02 -2.179373987019062042e-02 1.019535027444362640e-02 -2.330086193978786469e-02
-1.733599230647087097e-02 1.007827650755643845e-02 -2.273939922451972961e-02 -2.187845855951309204e-02 -1.086551137268543243e-02
2.767700701951980591e-02 2.345343382330611348e-04 -2.629553899168968201e-03 -2.512439526617527008e-02 1.782076619565486908e-02
4.859314300119876862e-03 -7.807443384081125259e-03 -2.141993725672364235e-03 8.524784818291664124e-03 7.365584373474121094e-03
-6.928163929842412472e-05 4.187386017292737961e-03 3.188859904184937477e-03 -1.495737861841917038e-02 4.187486600130796432e-03
2.371416985988616943e-02 4.709656350314617157e-03 -4.825185518711805344e-03 1.402214076370000839e-02 -1.677930541336536407e-02
2.045837789773941040e-02 -3.732934361323714256e-03 -1.304437965154647827e-02 -1.104432623833417892e-02 -1.519130659289658070e-03
-1.365754380822181702e-02 8.473373018205165863e-03 -4.737415816634893417e-03 2.093943953514099121e-02 7.610492757521569729e-04
5.706878378987312317e-03 1.800095848739147186e-02 4.524165764451026917e-03 2.355659380555152893e-02 3.960009198635816574e-03
-3.806853434070944786e-03 7.248736917972564697e-03 -2.450532466173171997e-02 -2.997088804841041565e-02 4.394118208438158035e-03
-2.239128947257995605e-02 2.309706527739763260e-03 -1.434993930160999298e-02 1.674157800152897835e-03 1.820852234959602356e-02
1.325788791291415691e-03 -9.678981266915798187e-03 -1.379321143031120300e-02 7.924194447696208954e-03 7.463956717401742935e-03
-1.071239914745092392e-02 -5.529918125830590725e-04 -1.547181629575788975e-03 1.817726530134677887e-02 1.220401655882596970e-02
7.338847033679485321e-03 -8.228420279920101166e-03 2.120854565873742104e-03 7.448502816259860992e-03 3.951329563278704882e-05
1.990447193384170532e-02 -3.023017570376396179e-02 2.120208460837602615e-03 -3.861087188124656677e-02 1.286517456173896790e-02
1.137883868068456650e-02 -1.317232195287942886e-02 -6.348047405481338501e-03 1.336779911071062088e-02 -2.257542312145233154e-02
7.746194489300251007e-03 1.083439798094332218e-03 -5.699842004105448723e-04 -4.946798086166381836e-03 1.534217502921819687e-03
1.111129298806190491e-02 2.104181982576847076e-02 1.732517965137958527e-03 2.402578946202993393e-03 -1.482538413256406784e-02
-6.526251323521137238e-03 1.763523556292057037e-02 -2.340639941394329071e-02 -7.469732663594186306e-04 -7.257488556206226349e-03
1.122914068400859833e-02 6.279225461184978485e-03 -8.516477420926094055e-03 9.518328122794628143e-03 1.253076922148466110e-02
3.017981164157390594e-02 -7.794966455549001694e-03 3.081599250435829163e-03 -1.105556916445493698e-02 -1.094310451298952103e-02
4.926889669150114059e-03 9.039062075316905975e-03 -8.433047682046890259e-03 -2.195747382938861847e-02 2.638084068894386292e-02
1.581334322690963745e-02 -8.823867887258529663e-03 6.652360782027244568e-03 -2.868048846721649170e-02 4.240998066961765289e-03
2.561459690332412720e-02 -1.983077451586723328e-02 -1.036374829709529877e-02 -3.222497552633285522e-02 1.271982304751873016e-02
1.687022484838962555e-02 -1.360819209367036819e-03 1.478936523199081421e-03 -2.890508063137531281e-02 -7.516405545175075531e-03
-2.083774656057357788e-02 -8.071757853031158447e-03 -1.205208711326122284e-02 1.010426413267850876e-02 1.589492335915565491e-02
2.291051298379898071e-02 -1.659969799220561981e-02 3.909849561750888824e-03 -3.586648032069206238e-02 1.644462160766124725e-02
-1.496341917663812637e-02 1.243586279451847076e-02 -6.450984627008438110e-03 -9.919036179780960083e-03 1.597739197313785553e-02
-2.908452041447162628e-02 -1.162683358415961266e-03 -6.032433826476335526e-03 2.758978679776191711e-02 -1.274838298559188843e-02
3.702549031004309654e-03 -1.179818902164697647e-02 -1.293151266872882843e-02 2.086423896253108978e-02 -9.317649528384208679e-03
6.080864463001489639e-03 1.445251516997814178e-02 9.201471693813800812e-04 -1.514206174761056900e-03 2.337680198252201080e-03
8.298068423755466938e-04 5.213872995227575302e-03 -1.671264506876468658e-02 6.999826058745384216e-03 1.143660675734281540e-02
1.342026423662900925e-02 1.302655437029898167e-04 -7.662306074053049088e-03 -1.133622508496046066e-02 1.781460084021091461e-02
2.881076000630855560e-02 -2.547820098698139191e-03 -1.344603393226861954e-02 3.212032839655876160e-03 1.227695122361183167e-02
-1.095968205481767654e-02 9.107394726015627384e-04 -2.015946991741657257e-02 1.024627359583973885e-03 -7.335511967539787292e-03
1.058360189199447632e-02 -2.515530912205576897e-03 -1.929271779954433441e-02 -2.068629255518317223e-03 9.643735364079475403e-03
-7.881217636168003082e-03 -2.569675212725996971e-03 -5.216681864112615585e-03 1.539231464266777039e-02 -4.524039104580879211e-03
9.066497907042503357e-03 2.580986358225345612e-02 -9.926646016538143158e-03 -3.461120650172233582e-02 -2.243985608220100403e-02
7.376856170594692230e-03 -2.016947604715824127e-03 -1.591467298567295074e-02 1.767555600963532925e-03 -2.162224613130092621e-03
-2.633468993008136749e-02 1.587207615375518799e-02 -2.333623589947819710e-03 -1.134944893419742584e-02 1.218515634536743164e-02
2.900030696764588356e-03 -1.452960167080163956e-02 -4.071739967912435532e-03 4.765067249536514282e-03 -3.829044103622436523e-02
-6.192200351506471634e-03 1.724988222122192383e-03 4.498444031924009323e-03 -1.382951438426971436e-02 -1.255075726658105850e-02
-5.569958128035068512e-03 -2.151522785425186157e-02 -4.504776559770107269e-03 -3.171940101310610771e-03 -2.523162215948104858e-02
1.323685422539710999e-02 6.885635084472596645e-04 -5.622426979243755341e-04 2.181700058281421661e-02 -3.631612635217607021e-04
6.613653618842363358e-03 1.271697226911783218e-02 -1.438046712428331375e-02 8.337753824889659882e-03 1.603184454143047333e-02
2.152191475033760071e-02 6.750192027539014816e-03 -1.265106257051229477e-04 -7.852054201066493988e-03 1.783228851854801178e-02
-1.464820094406604767e-02 1.552240829914808273e-02 -1.147236861288547516e-02 3.395570674911141396e-04 -6.243869196623563766e-03
-2.119405008852481842e-02 9.903466328978538513e-03 -1.400445029139518738e-02 1.216456945985555649e-02 2.464736113324761391e-03
8.324902504682540894e-03 -4.989938344806432724e-03 -7.804614026099443436e-03 1.332662533968687057e-02 -1.868148706853389740e-02
1.128779724240303040e-02 6.729868240654468536e-03 -6.078415084630250931e-03 -1.355460099875926971e-02 -1.567884907126426697e-02
-5.888225976377725601e-03 -5.493895150721073151e-03 -1.381122856400907040e-03 -2.252825535833835602e-02 2.055569738149642944e-02
-1.057370007038116455e-02 1.561650168150663376e-02 1.122162118554115295e-02 -1.003616582602262497e-02 -6.455473136156797409e-03
1.252502389252185822e-02 -1.592831127345561981e-02 -1.679706620052456856e-03 2.404744178056716919e-02 1.483743079006671906e-02
6.442192010581493378e-03 -1.185816340148448944e-02 1.098511056625284255e-04 1.032984163612127304e-02 2.991053834557533264e-02
-1.148867607116699219e-02 -8.820285089313983917e-03 2.214038278907537460e-03 2.683665975928306580e-02 -1.099750213325023651e-02
1.087648607790470123e-02 -8.172490634024143219e-03 -1.684256643056869507e-02 1.809018105268478394e-02 4.416338168084621429e-03
2.102997899055480957e-02 -3.420737385749816895e-02 -5.794523749500513077e-03 6.661475636065006256e-03 1.795926317572593689e-02
1.038580760359764099e-02 -1.056287728715687990e-04 1.958691049367189407e-03 -1.288676261901855469e-02 1.595170237123966217e-02
2.196283452212810516e-02 -1.956335268914699554e-03 -6.523305084556341171e-03 1.445728354156017303e-03 1.805182918906211853e-02
6.622018292546272278e-03 7.897732779383659363e-03 -1.325595006346702576e-02 -3.218812635168433189e-03 -1.902919448912143707e-02
-1.736668124794960022e-02 7.852736860513687134e-03 -1.130556408315896988e-02 1.902615651488304138e-02 -1.518105901777744293e-02
2.420679898932576180e-03 -1.135161239653825760e-02 -5.070686340332031250e-03 3.959274385124444962e-03 -6.403836887329816818e-03
-3.544052015058696270e-04 1.032498478889465332e-02 -1.775303110480308533e-02 -1.242824550718069077e-02 1.550200302153825760e-02
-1.397199556231498718e-02 1.142106764018535614e-02 -8.596324361860752106e-03 -4.383040126413106918e-03 -9.754173457622528076e-03
-1.353385858237743378e-02 4.100715275853872299e-03 -2.388373762369155884e-02 -9.147958480753004551e-04 -1.664744131267070770e-02
-1.282167248427867889e-02 1.528515852987766266e-02 6.390739232301712036e-03 5.305245518684387207e-03 1.647349074482917786e-02
2.141721080988645554e-03 -1.439470611512660980e-02 -2.392615750432014465e-02 9.768346324563026428e-03 -8.230948820710182190e-03
6.783076096326112747e-03 2.970374189317226410e-03 -7.559686433523893356e-03 8.305438794195652008e-03 -9.746746160089969635e-03
1.351976022124290466e-02 -1.450209040194749832e-02 -6.325069116428494453e-04 -2.413180889561772346e-03 1.070309057831764221e-02
6.757349183317273855e-05 1.373459864407777786e-02 -2.490508370101451874e-03 2.392711758147925138e-05 1.094363909214735031e-02
8.389975875616073608e-03 5.617637652903795242e-03 2.078042598441243172e-03 -3.539782715961337090e-03 -2.626311779022216797e-02
-5.734518636018037796e-03 2.347503975033760071e-02 -7.993577979505062103e-03 -5.272733792662620544e-02 5.491858813911676407e-03
1.492589060217142105e-02 -4.742635414004325867e-03 -1.627556607127189636e-02 -1.565580442547798157e-02 4.303140100091695786e-03
-2.567879855632781982e-03 2.279453678056597710e-03 2.406709361821413040e-03 3.582344856113195419e-03 8.747681975364685059e-03
5.503747612237930298e-03 6.478152703493833542e-03 -2.224172279238700867e-02 -2.623442746698856354e-02 -4.803527612239122391e-03
2.562933601438999176e-02 -1.502093300223350525e-02 -1.532848086208105087e-02 1.636113622225821018e-03 -1.984249241650104523e-02
-1.969478838145732880e-02 3.097262792289257050e-02 -1.836112886667251587e-02 1.294154208153486252e-02 -1.296566147357225418e-02
2.721594274044036865e-02 -3.202495351433753967e-02 -7.769479881972074509e-03 -7.201692555099725723e-03 1.458051521331071854e-02
-9.010837413370609283e-03 3.301600227132439613e-03 -1.383495144546031952e-02 1.231319177895784378e-02 -8.562882430851459503e-03
-2.389071159996092319e-04 4.765739664435386658e-03 -2.985224826261401176e-03 -2.988727530464529991e-03 -1.294263266026973724e-02
-4.984174855053424835e-03 2.970132790505886078e-02 -3.838461358100175858e-03 -1.131416857242584229e-02 1.225736830383539200e-02
2.221036702394485474e-02 -1.118800323456525803e-02 -9.297362412326037884e-04 -9.300713427364826202e-03 -2.236577868461608887e-02
-1.497726608067750931e-02 1.403962960466742516e-03 -9.579495526850223541e-03 2.063913270831108093e-02 1.046674791723489761e-02
5.923273507505655289e-03 2.754791872575879097e-03 -1.831039786338806152e-03 -1.922784373164176941e-02 -7.729090866632759571e-04
9.858796373009681702e-03 4.643757361918687820e-03 -3.749262075871229172e-03 -2.717302180826663971e-02 1.066138595342636108e-02
2.224091626703739166e-02 -2.201892435550689697e-02 -2.175697125494480133e-02 2.552117593586444855e-02 -2.606084104627370834e-03
-9.983916766941547394e-03 2.404238097369670868e-02 -1.184369809925556183e-02 1.014473475515842438e-02 3.919885028153657913e-03
1.393472310155630112e-03 2.000831626355648041e-02 -6.385471671819686890e-03 -1.381689961999654770e-02 -1.189060043543577194e-03
2.747034840285778046e-02 1.451551914215087891e-02 -1.006173435598611832e-02 -3.598650684580206871e-03 -9.902424179017543793e-03
-1.254736259579658508e-02 3.041656222194433212e-03 -6.324672140181064606e-03 1.252191979438066483e-02 -1.092834398150444031e-03
-1.188400760293006897e-02 -2.826417563483119011e-03 -9.626065730117261410e-04 1.743341214023530483e-03 9.486737661063671112e-03
2.726474544033408165e-03 -8.798921480774879456e-04 -1.460155285894870758e-02 -8.656163699924945831e-03 4.188017919659614563e-03
8.796751499176025391e-04 -7.102052215486764908e-03 -6.842226255685091019e-03 -2.111610211431980133e-02 7.808966096490621567e-03
-3.282943507656455040e-04 -1.282991096377372742e-02 -1.599213480949401855e-02 2.405035076662898064e-03 -3.215038450434803963e-03
1.302011683583259583e-02 -9.042197838425636292e-03 -2.633446361869573593e-03 -1.752780750393867493e-02 1.009279303252696991e-02
1.257202355191111565e-03 -5.050224717706441879e-03 -2.187097445130348206e-02 4.483617376536130905e-03 -3.516986593604087830e-02
2.737747877836227417e-02 -1.561021711677312851e-02 2.013719407841563225e-03 2.333629643544554710e-03 1.162018347531557083e-02
-1.601382344961166382e-02 6.515303626656532288e-03 1.057846285402774811e-02 3.214836493134498596e-02 3.308209031820297241e-02
1.056422106921672821e-02 -3.563632955774664879e-03 -2.529562264680862427e-02 1.884700357913970947e-02 -4.380525276064872742e-02
-1.618659496307373047e-02 1.489400025457143784e-02 1.173593290150165558e-02 -1.055343914777040482e-02 -1.375501509755849838e-02
1.838657632470130920e-02 -1.898686750791966915e-03 -1.826724410057067871e-02 2.362108789384365082e-02 -9.910059161484241486e-03
-3.295424953103065491e-02 -8.870459278114140034e-04 2.182359312428161502e-04 2.981191314756870270e-02 -6.623985245823860168e-04
-6.727362517267465591e-03 2.278129942715167999e-02 6.026078481227159500e-03 -3.176682814955711365e-02 5.166191142052412033e-03
4.198816604912281036e-03 -2.921615540981292725e-02 -1.955891959369182587e-02 4.589529335498809814e-02 1.828815205954015255e-03
9.764616377651691437e-03 -9.841953404247760773e-03 -7.723128888756036758e-03 1.032525766640901566e-02 -5.530612543225288391e-03
-1.568268612027168274e-02 3.082654811441898346e-02 2.040288178250193596e-03 -1.358396559953689575e-02 1.854515448212623596e-02
-2.172854915261268616e-02 1.318245753645896912e-02 -2.250921679660677910e-03 -1.313049905002117157e-02 1.375592127442359924e-02
2.280766889452934265e-02 -2.041078358888626099e-02 -2.467141486704349518e-02 2.929910086095333099e-02 -3.511167829856276512e-03
-5.919182207435369492e-03 1.895483396947383881e-02 1.240982790477573872e-03 -9.486805647611618042e-03 1.996616274118423462e-02
-2.548687532544136047e-02 3.376747295260429382e-02 -2.031261567026376724e-03 2.070606686174869537e-02 -2.170710451900959015e-02
-1.018577837385237217e-03 -8.750323206186294556e-03 -1.040885597467422485e-02 -8.656738325953483582e-03 1.159018557518720627e-02
-2.366885310038924217e-04 -1.675314269959926605e-02 -1.499089691787958145e-02 2.026057988405227661e-02 4.570598714053630829e-03
1.690238714218139648e-02 -4.510275274515151978e-02 8.535474189557135105e-04 1.945209107361733913e-03 -9.691481478512287140e-03
1.322476193308830261e-02 1.447824016213417053e-02 -1.793945766985416412e-02 -8.094505406916141510e-03 -1.439642719924449921e-02
-1.360313617624342442e-03 3.963984083384275436e-03 -1.018928270787000656e-02 -7.591138710267841816e-04 3.751747310161590576e-03
9.041131474077701569e-03 9.246994741261005402e-03 -1.996283885091543198e-03 -1.026491075754165649e-02 1.647071354091167450e-02
1.167894573882222176e-03 -2.477007173001766205e-02 -1.399895921349525452e-02 2.326996065676212311e-02 -2.645887248218059540e-02
7.091118022799491882e-03 2.408113563433289528e-03 -1.343248412013053894e-02 1.629769988358020782e-02 -1.476478390395641327e-02
-2.159367315471172333e-02 3.514413489028811455e-03 -9.308259934186935425e-03 6.774635985493659973e-03 1.892204023897647858e-02
-5.482830572873353958e-03 7.968377321958541870e-03 -1.752058975398540497e-02 -8.655443787574768066e-03 2.134834043681621552e-02
4.168258048593997955e-03 4.326371941715478897e-03 1.128550339490175247e-02 -4.025950096547603607e-03 -6.256302818655967712e-03
-2.794026629999279976e-03 2.380705904215574265e-03 -2.392232045531272888e-02 1.735715009272098541e-02 -7.362375617958605289e-04
2.357730641961097717e-02 -9.350787848234176636e-03 -6.809503305703401566e-03 -3.759196551982313395e-04 1.985801383852958679e-03
2.060135360807180405e-03 6.588756106793880463e-03 -7.676419336348772049e-03 -2.219431567937135696e-03 -1.718523725867271423e-02
3.951586782932281494e-03 1.052996143698692322e-03 -1.356734894216060638e-03 1.234644674696028233e-03 -1.066801138222217560e-02
-1.792500726878643036e-02 -6.330931093543767929e-03 -1.183740608394145966e-02 2.730820700526237488e-02 -1.609487272799015045e-02
-7.676054257899522781e-03 -9.451491758227348328e-03 -1.297785621136426926e-02 1.380103267729282379e-02 -5.527280271053314209e-03
-2.086538262665271759e-02 2.181286923587322235e-02 -3.862672019749879837e-04 -1.078960672020912170e-02 1.647160388529300690e-03
-3.381465375423431396e-02 -1.334668602794408798e-02 -1.089505199342966080e-02 1.241157203912734985e-02 -1.407992094755172729e-02
-2.022963948547840118e-02 2.162909694015979767e-02 -8.696477860212326050e-03 -8.929811418056488037e-03 1.318874675780534744e-02
1.543073728680610657e-02 -2.251495979726314545e-02 -6.013435311615467072e-03 -8.649236522614955902e-03 1.112013851525261998e-04
-1.542776450514793396e-02 -5.758515093475580215e-03 -7.699477020651102066e-03 1.380043290555477142e-02 4.890202078968286514e-03
-1.648936234414577484e-02 1.602603681385517120e-02 9.744527749717235565e-03 9.719706140458583832e-03 3.235411597415804863e-03
-1.794240623712539673e-02 -7.654089480638504028e-03 -1.304512098431587219e-02 -3.855517599731683731e-03 1.455653086304664612e-02
-1.371513772755861282e-02 -1.415201555937528610e-02 -1.578747853636741638e-02 1.095342356711626053e-02 1.148900482803583145e-02
2.899357117712497711e-02 -5.156452767550945282e-03 1.325833378359675407e-03 -4.745201207697391510e-03 7.706331554800271988e-03
3.069030586630105972e-03 -1.322388555854558945e-02 -3.343052696436643600e-03 3.113369690254330635e-03 -1.477898750454187393e-02
3.846380626782774925e-03 4.425655642990022898e-04 -5.196377169340848923e-03 8.994232863187789917e-03 -2.442109398543834686e-03
-4.760579671710729599e-03 1.282701548188924789e-02 -1.292969845235347748e-02 -5.146675743162631989e-03 4.027462098747491837e-03
6.294060032814741135e-03 -8.801843039691448212e-03 -1.298422738909721375e-02 -6.437567993998527527e-03 -7.776900660246610641e-03
-6.706693675369024277e-03 -1.854128576815128326e-02 9.645231184549629688e-04 2.178437635302543640e-02 -1.717471331357955933e-02
1.603768439963459969e-03 -6.504877004772424698e-03 -5.754097830504179001e-03 -1.333741378039121628e-02 3.258659038692712784e-03
7.332985755056142807e-03 1.508831977844238281e-02 9.742651018314063549e-04 9.701278060674667358e-03 3.366722026839852333e-03
-3.790270537137985229e-03 2.015849109739065170e-03 -8.241638541221618652e-03 -5.729616153985261917e-03 -1.501055248081684113e-02
-2.874299138784408569e-02 2.504389174282550812e-02 -7.300640922039747238e-03 5.952865816652774811e-03 -7.093107793480157852e-03
-9.727508760988712311e-03 1.948439329862594604e-02 9.361096657812595367e-03 -7.318031275644898415e-04 -8.817965164780616760e-03
1.345211919397115707e-02 5.966479657217860222e-04 -1.960346475243568420e-02 -9.290054440498352051e-03 2.163167484104633331e-02
1.105576660484075546e-02 2.556801773607730865e-02 -1.057920884341001511e-02 -2.775929495692253113e-02 -1.078534964472055435e-02
-1.401543966494500637e-03 2.534501021727919579e-03 -1.467732246965169907e-03 1.237023156136274338e-02 -1.661470904946327209e-02
5.758127197623252869e-03 4.952683113515377045e-03 -5.433941725641489029e-03 9.966854006052017212e-03 6.094602402299642563e-03
2.378985658288002014e-02 -4.361325129866600037e-02 -1.125402376055717468e-02 2.334782294929027557e-02 8.057112805545330048e-03
-1.067061815410852432e-02 1.939219795167446136e-02 -1.923086494207382202e-02 -2.137291245162487030e-02 1.533923391252756119e-02
-1.018118392676115036e-02 -2.507918281480669975e-03 1.068341173231601715e-02 2.088957279920578003e-02 1.233057677745819092e-02
1.167891826480627060e-02 2.056493423879146576e-03 -1.794943027198314667e-02 2.117208670824766159e-03 5.456789396703243256e-03
-9.154716506600379944e-03 1.379039417952299118e-02 -4.591517150402069092e-03 -5.310467444360256195e-03 1.419773139059543610e-02
-4.997234791517257690e-03 3.164618089795112610e-02 -1.226474065333604813e-02 1.485567912459373474e-02 -2.533518895506858826e-02
-1.484960084781050682e-03 1.218636869452893734e-03 1.088677812367677689e-02 2.207762096077203751e-03 -2.452511573210358620e-03
1.148318289779126644e-03 3.731011180207133293e-03 3.299394855275750160e-03 1.073794718831777573e-02 4.014889243990182877e-03
-3.211887925863265991e-02 9.947361424565315247e-03 -4.988223779946565628e-03 2.348253503441810608e-02 2.270604483783245087e-03
-2.040237188339233398e-03 1.162325032055377960e-02 -2.992393216118216515e-03 1.094306819140911102e-03 -5.927642923779785633e-04
1.365195307880640030e-02 -9.592931717634201050e-03 -8.571680635213851929e-03 -2.656120108440518379e-03 1.495822332799434662e-02
-7.030479144304990768e-03 2.021371619775891304e-03 -2.239120937883853912e-02 5.135445389896631241e-03 -2.105915173888206482e-02
6.128298584371805191e-03 -5.786133930087089539e-03 -1.241785101592540741e-02 1.547121675685048103e-03 -5.070315673947334290e-03
9.598423726856708527e-03 -1.055195834487676620e-02 -9.978579357266426086e-03 -8.302461355924606323e-03 -4.453747998923063278e-03
-1.678952574729919434e-02 1.605700328946113586e-02 -9.559502825140953064e-03 1.214129477739334106e-02 -3.048098087310791016e-02
1.487130485475063324e-02 -1.432608813047409058e-02 2.329110167920589447e-03 -3.076874127145856619e-04 -1.074771769344806671e-02
2.258969284594058990e-02 1.221216656267642975e-02 -5.760286934673786163e-03 -1.385735627263784409e-02 -2.280645072460174561e-02
1.126870792359113693e-02 8.818229660391807556e-03 5.314706359058618546e-03 -4.022833891212940216e-03 6.773445289582014084e-03
-9.321519173681735992e-03 1.873976923525333405e-02 1.043885014951229095e-02 -2.752123586833477020e-02 -1.925648190081119537e-03
-1.123036537319421768e-02 1.863797940313816071e-02 -6.766299717128276825e-03 1.992741599678993225e-02 8.997080847620964050e-03
1.752781867980957031e-02 -1.802036655135452747e-03 -6.144965882413089275e-04 -8.855361491441726685e-03 9.543671272695064545e-03
-1.655180752277374268e-02 1.656750391703099012e-04 4.291969817131757736e-03 -1.218549627810716629e-02 1.917423680424690247e-02
3.304366488009691238e-03 2.677453868091106415e-02 -1.561519317328929901e-02 -1.296248100697994232e-02 -2.448360435664653778e-02
2.302512526512145996e-02 -2.093988470733165741e-03 6.092527415603399277e-03 -8.091674186289310455e-03 -7.149888668209314346e-03
-8.372830227017402649e-03 -2.987432293593883514e-03 -1.002349052578210831e-02 9.464873000979423523e-03 -1.051679602824151516e-03
1.473970338702201843e-02 -4.972996190190315247e-02 4.953860770910978317e-03 1.430592313408851624e-02 -1.610595174133777618e-02
-3.153515234589576721e-02 3.794399276375770569e-02 -2.098597586154937744e-03 4.904225934296846390e-03 2.165593951940536499e-02
-9.694550186395645142e-03 1.051708497107028961e-02 9.802294662222266197e-04 -2.758810669183731079e-02 -9.251689538359642029e-03
3.713883459568023682e-03 -3.195065632462501526e-02 -1.175322383642196655e-02 1.907408796250820160e-02 -7.102778181433677673e-03
5.533745046705007553e-03 2.929454203695058823e-03 -7.549220696091651917e-03 -8.504189900122582912e-04 5.538777913898229599e-04
-9.826278313994407654e-03 2.177211456000804901e-02 -5.126413423568010330e-03 3.480038419365882874e-02 -1.027922611683607101e-02
6.496277637779712677e-03 -1.937058381736278534e-02 -2.050241688266396523e-03 7.191683165729045868e-03 -2.664252649992704391e-03
2.382289804518222809e-02 2.843543654307723045e-03 4.841117653995752335e-03 9.701723232865333557e-03 -1.358822360634803772e-02
1.007912680506706238e-02 1.479929196648299694e-03 -2.956077223643660545e-03 5.098802503198385239e-03 1.262843050062656403e-02
-1.497986074537038803e-02 3.060635738074779510e-02 -6.732416804879903793e-04 -9.709001460578292608e-05 -9.921337477862834930e-03
8.053607307374477386e-03 1.182049605995416641e-02 -4.168653860688209534e-03 -7.877127267420291901e-03 1.514399982988834381e-02
9.270183742046356201e-03 1.373268081806600094e-03 -1.689624041318893433e-02 6.076670717447996140e-03 -1.082940213382244110e-02
4.888975527137517929e-03 1.009508501738309860e-02 -1.475515658967196941e-03 1.179178245365619659e-02 9.056916460394859314e-03
-1.477097626775503159e-02 3.973376937210559845e-03 -2.448141202330589294e-02 -1.049969345331192017e-02 -3.517419099807739258e-02
2.023241296410560608e-02 -6.536215543746948242e-03 3.371109778527170420e-04 7.016205228865146637e-03 -4.953762982040643692e-03
6.320402026176452637e-03 8.193653076887130737e-03 -5.855138413608074188e-03 -1.111584831960499287e-03 1.147578377276659012e-02
-4.689144436269998550e-03 2.973275957629084587e-03 -6.517973728477954865e-03 -1.213952619582414627e-02 -3.293033689260482788e-03
-9.363074786961078644e-03 2.359961858019232750e-03 -1.432318240404129028e-02 7.901295088231563568e-03 -2.614841097965836525e-03
1.321883965283632278e-02 1.235988456755876541e-03 -1.384587865322828293e-02 -2.250902121886610985e-03 1.771307433955371380e-04
1.461099716834723949e-03 1.626534387469291687e-03 -1.608318462967872620e-02 -1.683847047388553619e-03 -7.683930452913045883e-03
1.003020722419023514e-02 -3.400464076548814774e-03 -1.171542983502149582e-02 -1.115399692207574844e-02 1.510902494192123413e-02
-1.925702393054962158e-02 3.338716551661491394e-02 -2.326010353863239288e-02 -3.399983793497085571e-02 -2.514273673295974731e-02
5.971569567918777466e-03 1.171516050817444921e-04 -5.245476495474576950e-03 -1.166941877454519272e-02 -3.152760118246078491e-02
2.440342307090759277e-02 -7.838159799575805664e-03 -9.823862463235855103e-03 2.976020565256476402e-03 -1.711104065179824829e-02
1.195864938199520111e-02 -2.535816095769405365e-02 -1.196007430553436279e-02 2.099053375422954559e-02 6.031133234500885010e-03
-1.875515840947628021e-02 2.653737552464008331e-02 -3.895951667800545692e-03 8.887467905879020691e-03 9.173595346510410309e-03
-2.300373744219541550e-03 1.849752152338624001e-04 -2.514941850677132607e-03 1.845414191484451294e-02 1.889223046600818634e-02
2.020241878926753998e-02 -9.233824908733367920e-03 -2.126072905957698822e-02 -1.819008775055408478e-02 3.331788815557956696e-03
5.819113925099372864e-03 -8.458982221782207489e-03 -1.763893663883209229e-02 2.362038241699337959e-03 -1.257603708654642105e-02
-2.845131978392601013e-02 2.807113528251647949e-02 -2.789036836475133896e-03 -6.798106245696544647e-03 2.354043163359165192e-02
1.039684470742940903e-02 2.022164501249790192e-02 -1.927233301103115082e-02 -1.657515647821128368e-03 -1.390683185309171677e-02
1.013589184731245041e-02 1.299455016851425171e-02 -2.030291035771369934e-02 -1.136180199682712555e-02 1.052844896912574768e-02
-2.217850415036082268e-03 1.668340712785720825e-02 -1.541719119995832443e-02 -2.598789334297180176e-02 -1.956517621874809265e-02
7.819522172212600708e-03 -3.745238762348890305e-03 -1.388382446020841599e-02 1.347958855330944061e-02 -4.195477813482284546e-03
-2.989073470234870911e-02 2.235443890094757080e-02 -3.373983083292841911e-03 6.700074300169944763e-03 1.217335462570190430e-03
1.265770569443702698e-02 -1.924393512308597565e-02 -1.673211157321929932e-02 2.336564287543296814e-02 1.905155600979924202e-03
1.689751259982585907e-02 6.899834144860506058e-03 4.133877810090780258e-03 -3.898038342595100403e-02 1.183339953422546387e-02
1.152024790644645691e-02 1.690313778817653656e-02 -9.282058104872703552e-03 -1.839271187782287598e-02 5.313804373145103455e-03
2.050654590129852295e-02 1.621714234352111816e-02 -1.134219393134117126e-02 -3.230853751301765442e-02 -1.465287525206804276e-02
-1.581950485706329346e-02 1.453768648207187653e-02 -1.285073440521955490e-02 -6.703821942210197449e-03 -4.373503383249044418e-03
7.848428562283515930e-03 5.628924351185560226e-03 -8.254959248006343842e-03 -9.502180851995944977e-03 -3.679475747048854828e-03
-2.579120174050331116e-02 1.364963967353105545e-02 -2.845433074980974197e-03 5.495425313711166382e-03 -1.129382662475109100e-02
-9.861166588962078094e-03 -1.847988809458911419e-03 3.043761709704995155e-03 1.006780937314033508e-02 1.298149768263101578e-02
-2.575360005721449852e-03 2.380124107003211975e-02 -2.939332742244005203e-03 -3.017298644408583641e-03 -3.346635960042476654e-03
3.597374306991696358e-03 8.408068679273128510e-03 -1.009710226207971573e-02 -5.591955501586198807e-03 -5.478686071000993252e-04
6.151487585157155991e-03 -5.464613903313875198e-03 -1.470876298844814301e-02 1.424525491893291473e-02 -5.682433256879448891e-04
-7.040668278932571411e-03 9.498587809503078461e-03 -7.830019108951091766e-03 -9.844450280070304871e-03 -3.376497328281402588e-02
9.888304397463798523e-03 -1.501302421092987061e-02 -1.965047232806682587e-02 1.867507956922054291e-02 -1.114392932504415512e-02
-2.995218522846698761e-02 1.651695556938648224e-02 -2.191072702407836914e-02 1.984621398150920868e-02 -3.035333752632141113e-02
-7.595516741275787354e-03 1.169361639767885208e-02 -9.685865603387355804e-03 4.628799855709075928e-03 8.618158288300037384e-03
-3.255382552742958069e-02 1.135250367224216461e-02 -1.904996111989021301e-02 4.185403231531381607e-03 -2.186571247875690460e-02
-1.082658581435680389e-02 2.367448247969150543e-02 -3.741643857210874557e-03 1.372425537556409836e-02 2.432168275117874146e-02
3.001827374100685120e-02 -8.948953822255134583e-03 1.221171766519546509e-02 -1.042427215725183487e-02 -1.785681955516338348e-02
-4.788293968886137009e-03 4.088154528290033340e-03 7.860978948883712292e-04 -1.569165289402008057e-02 2.918802574276924133e-02
4.097426775842905045e-03 -2.933981595560908318e-03 3.216901794075965881e-03 -6.638000253587961197e-03 7.795830024406313896e-04
7.020570803433656693e-03 -6.270758341997861862e-03 -5.634475965052843094e-03 -1.373781077563762665e-02 7.193560712039470673e-03
-1.675674319267272949e-02 6.326840724796056747e-03 -1.413960382342338562e-02 3.700089873746037483e-03 -1.762345246970653534e-02
1.146204769611358643e-02 -2.076669596135616302e-02 -8.117054589092731476e-03 1.356331910938024521e-02 -1.612456515431404114e-02
-6.799928378313779831e-03 -4.914295859634876251e-03 1.141701010055840015e-03 -2.214156463742256165e-02 7.430551573634147644e-03
1.963254809379577637e-02 2.907305955886840820e-03 -1.499455142766237259e-02 -8.498424664139747620e-03 5.300336051732301712e-03
-3.583076968789100647e-02 1.569937169551849365e-02 -1.125847082585096359e-02 2.220435068011283875e-02 1.603186316788196564e-02
8.987324312329292297e-03 -1.974970661103725433e-02 -2.024786919355392456e-02 2.799112163484096527e-02 -8.053889498114585876e-03
1.070382166653871536e-02 1.569771580398082733e-02 7.275642361491918564e-03 -1.779037527740001678e-02 -1.303668413311243057e-02
6.976664531975984573e-03 5.776065401732921600e-03 -1.606601290404796600e-02 3.807157510891556740e-03 5.632685963064432144e-03
-8.554216474294662476e-03 8.003810420632362366e-03 -1.724352128803730011e-02 -1.340752374380826950e-02 -3.719701198861002922e-03
-8.145456202328205109e-03 1.277355384081602097e-02 -5.782412365078926086e-03 1.028485348797403276e-04 9.516956284642219543e-03
5.243530962616205215e-03 1.685047149658203125e-02 -8.837355300784111023e-03 7.925160229206085205e-03 -4.599564708769321442e-03
-1.890807040035724640e-02 2.950719557702541351e-02 -1.398310251533985138e-02 1.609195582568645477e-02 1.964714936912059784e-02
3.850316628813743591e-03 -3.437085775658488274e-03 -6.387593224644660950e-03 -2.031862549483776093e-02 2.583151683211326599e-02
1.177064049988985062e-02 -1.467530033551156521e-03 -9.673050371930003166e-04 -7.127885706722736359e-03 -7.657713722437620163e-03
-3.600070718675851822e-03 6.224460434168577194e-03 1.169934053905308247e-03 2.319758932571858168e-04 1.489861030131578445e-02
-3.679995192214846611e-03 9.084596298635005951e-03 6.285325158387422562e-03 1.154861412942409515e-03 -1.702597364783287048e-02
-1.910435408353805542e-02 -8.101825602352619171e-03 -2.106065303087234497e-02 1.491895969957113266e-02 -4.958000499755144119e-03
4.713994450867176056e-03 -1.682114973664283752e-02 -1.510425936430692673e-02 1.172532606869935989e-02 1.290836092084646225e-02
-2.037295838817954063e-03 -9.971267543733119965e-03 -1.582041755318641663e-02 5.928956903517246246e-03 2.007629908621311188e-02
3.628573846071958542e-03 1.455401629209518433e-02 -2.429448999464511871e-02 -1.483492832630872726e-02 -2.619425766170024872e-02
1.288076117634773254e-02 1.879944838583469391e-02 -8.278284221887588501e-03 -5.901173222810029984e-03 1.801504287868738174e-03
-1.781028113327920437e-03 9.794324636459350586e-03 -1.757370121777057648e-02 -4.279906861484050751e-03 -8.306964300572872162e-03
1.267512515187263489e-02 1.533494517207145691e-02 -5.727929994463920593e-03 -2.320444770157337189e-02 3.860631491988897324e-03
1.491508260369300842e-02 -1.244563609361648560e-02 8.518957532942295074e-03 -5.858804564923048019e-03 -4.511501174420118332e-03
-6.062131840735673904e-03 -3.483895584940910339e-02 -5.884754937142133713e-03 6.351388990879058838e-03 6.059567444026470184e-03
-3.276100009679794312e-02 1.580459997057914734e-02 -7.857570424675941467e-03 2.195114269852638245e-03 -1.622903533279895782e-02
-2.181203337386250496e-03 -6.191425491124391556e-03 1.162265613675117493e-02 1.058304496109485626e-02 -2.148204296827316284e-02
-1.340348366647958755e-02 6.777389789931476116e-04 -2.082663122564554214e-03 8.164668455719947815e-03 -3.324378281831741333e-03
-8.917376399040222168e-03 1.708323322236537933e-02 6.831374485045671463e-03 -2.271642535924911499e-02 -2.383335866034030914e-02
1.560967788100242615e-02 7.846437394618988037e-03 -1.960285566747188568e-02 1.720771775580942631e-03 -2.172936871647834778e-02
1.311306003481149673e-02 1.224946044385433197e-02 9.018236771225929260e-03 1.647496037185192108e-02 9.298558346927165985e-03
-1.735144481062889099e-02 -7.828691042959690094e-03 -9.480200707912445068e-03 1.212696451693773270e-02 -4.653763957321643829e-03
2.978831902146339417e-02 9.388237260282039642e-03 -1.709245517849922180e-02 -1.897289603948593140e-02 -2.143747359514236450e-02
3.122931532561779022e-02 -1.399511750787496567e-02 -5.771149415522813797e-03 -6.552942097187042236e-03 -2.422489412128925323e-02
1.421585772186517715e-02 -2.234056824818253517e-03 -8.739558048546314240e-03 1.688855327665805817e-02 -4.190424922853708267e-03
-1.270192675292491913e-02 8.943133987486362457e-03 -1.610096357762813568e-02 -2.868835348635911942e-03 -1.461112033575773239e-02
4.940012469887733459e-03 -2.583270892500877380e-03 -1.027762555168010294e-04 -1.576744019985198975e-03 2.654153481125831604e-02
6.071652751415967941e-03 3.484730608761310577e-03 -2.674095332622528076e-03 3.466214286163449287e-03 -1.976574398577213287e-02
2.442751638591289520e-02 -1.649511978030204773e-02 -5.307130049914121628e-03 1.635698601603507996e-02 -9.065472520887851715e-03
-1.692504622042179108e-02 1.954784058034420013e-02 -1.386630814522504807e-02 -3.780177328735589981e-03 -1.849619671702384949e-02
-8.570996113121509552e-03 4.225819371640682220e-03 -1.033164467662572861e-02 6.112894043326377869e-03 1.358572300523519516e-02
4.759712610393762589e-04 6.574938306584954262e-04 2.492365194484591484e-03 -3.241598233580589294e-02 -1.709070801734924316e-02
2.024417370557785034e-02 1.115318620577454567e-03 8.599894121289253235e-03 7.880150340497493744e-03 8.162269368767738342e-03
7.294421084225177765e-03 -3.492284566164016724e-02 -1.272568944841623306e-02 -2.569128526374697685e-03 2.244862914085388184e-02
-4.761749878525733948e-03 4.774358589202165604e-03 -4.942560102790594101e-03 2.158437669277191162e-02 9.732939302921295166e-03
-3.225262276828289032e-03 2.133349142968654633e-02 -2.415807731449604034e-02 -1.924320310354232788e-02 -1.300073228776454926e-02
-2.088267169892787933e-02 -1.061154436320066452e-02 -1.026700716465711594e-02 8.182797464542090893e-04 1.821998879313468933e-02
2.300048246979713440e-02 -3.421525470912456512e-03 -1.168648246675729752e-02 9.792257100343704224e-03 -2.172752283513545990e-02
-3.276729490607976913e-03 -1.184390764683485031e-02 -8.834281004965305328e-03 2.419241517782211304e-02 -8.813913911581039429e-03
3.288230299949645996e-02 -8.149254717864096165e-04 -5.188053473830223083e-03 3.421028304728679359e-05 -3.081116825342178345e-02
-6.640799343585968018e-03 3.518595127388834953e-03 -1.327834650874137878e-02 3.625772660598158836e-03 1.025051809847354889e-02
-2.122218022122979164e-03 2.183442702516913414e-03 -1.770874857902526855e-02 2.679669763892889023e-03 -2.392333466559648514e-03
1.820511970436200500e-04 7.844015955924987793e-03 -2.257783897221088409e-03 2.286285161972045898e-02 -5.251116584986448288e-03
-1.039655646309256554e-03 2.591269277036190033e-02 -9.805858135223388672e-03 2.613057568669319153e-02 1.378940884023904800e-02
6.296697538346052170e-04 5.021890159696340561e-03 5.129226017743349075e-03 -1.764802448451519012e-02 1.062159519642591476e-02
3.682147338986396790e-02 -2.883159182965755463e-02 -6.051381118595600128e-03 2.000832371413707733e-02 -9.749943390488624573e-03
1.910290867090225220e-02 -1.089343335479497910e-03 6.027678493410348892e-03 2.192996814846992493e-02 -4.341602325439453125e-03
-1.760587468743324280e-02 5.761832930147647858e-03 -7.123946677893400192e-03 1.225886680185794830e-02 -1.054274383932352066e-02
-4.685147665441036224e-03 1.751017197966575623e-02 -1.776481047272682190e-03 7.612930610775947571e-03 7.097815629094839096e-03
-1.094161882065236568e-03 1.830255612730979919e-02 -1.477983593940734863e-02 -6.948472931981086731e-03 -2.368359826505184174e-02
1.198260113596916199e-02 4.911462310701608658e-03 -3.498896723613142967e-03 6.661106366664171219e-03 -1.669934950768947601e-02
1.636011153459548950e-02 -3.187498450279235840e-02 8.983929641544818878e-03 1.522148028016090393e-02 3.651840146631002426e-03
-1.351933740079402924e-02 1.784381456673145294e-02 -2.168888039886951447e-02 -1.360101159662008286e-02 -8.532076142728328705e-03
6.498710252344608307e-03 6.807862315326929092e-03 -1.324136857874691486e-03 -1.287357416003942490e-02 4.753833170980215073e-03
3.414663020521402359e-03 1.253953902050852776e-03 -5.025638267397880554e-03 5.498662125319242477e-03 6.833693012595176697e-03
1.385578326880931854e-02 -1.572039909660816193e-02 4.984474275261163712e-03 2.890083414968103170e-04 4.081632941961288452e-03
2.285364829003810883e-02 5.091314204037189484e-03 -1.019931584596633911e-02 -1.199008990079164505e-02 1.370620820671319962e-02
1.538505498319864273e-02 -1.571493595838546753e-02 -8.353818207979202271e-03 1.675566099584102631e-02 -1.735009066760540009e-02
-1.420088764280080795e-02 -1.074774097651243210e-02 4.979718010872602463e-03 1.211551949381828308e-02 -1.368739176541566849e-02
-1.518615637905895710e-03 1.344036869704723358e-02 -4.469877574592828751e-03 -7.387357763946056366e-03 6.382875144481658936e-04
-5.955456756055355072e-03 -1.928925700485706329e-02 -1.107972022145986557e-02 2.193593233823776245e-02 -2.417671866714954376e-02
1.990411989390850067e-02 3.071508253924548626e-04 8.893592283129692078e-03 -2.102854195982217789e-03 1.261502690613269806e-02
-1.148911472409963608e-02 -3.909989260137081146e-03 -3.587991697713732719e-03 1.317796856164932251e-02 1.370306313037872314e-02
1.554809696972370148e-02 -1.415137946605682373e-02 -1.699252426624298096e-02 2.019389532506465912e-02 -2.832903154194355011e-02
-2.536219172179698944e-02 5.523864179849624634e-03 -1.000031270086765289e-02 -9.301189566031098366e-04 2.104291925206780434e-03
2.071436028927564621e-06 -5.254053510725498199e-03 -3.697426291182637215e-03 -1.530267205089330673e-02 -1.734279096126556396e-02
-1.521061547100543976e-02 4.192593973129987717e-03 -7.210566662251949310e-03 -2.279755426570773125e-03 -3.080120310187339783e-02
-7.188335526734590530e-03 -9.557131677865982056e-03 -4.158818162977695465e-03 1.503680739551782608e-02 1.792177185416221619e-02
4.236050881445407867e-03 1.075930800288915634e-02 3.558861324563622475e-03 -5.606370046734809875e-03 -1.196830254048109055e-02
-5.166229326277971268e-03 5.198762286454439163e-03 -1.730887405574321747e-02 -8.452224428765475750e-04 1.862281933426856995e-02
-1.441475283354520798e-02 1.932879537343978882e-02 -1.224144734442234039e-02 5.997538100928068161e-03 1.167470123618841171e-02
-1.476770080626010895e-02 1.865938678383827209e-02 -9.422218427062034607e-03 5.425126291811466217e-03 -1.134115736931562424e-02
1.130630355328321457e-02 -4.347454756498336792e-03 -1.119760237634181976e-02 1.857769489288330078e-02 -9.779048152267932892e-03
3.580500837415456772e-03 1.036619860678911209e-02 -2.431323565542697906e-02 -7.244117092341184616e-03 2.193769253790378571e-02
-1.141998823732137680e-02 -6.253066821955144405e-04 -1.425584778189659119e-02 7.922247983515262604e-03 -1.527227926999330521e-03
2.456829883158206940e-02 -2.087079221382737160e-03 2.130403416231274605e-03 -2.519320696592330933e-02 -4.048759117722511292e-02
1.161750778555870056e-02 5.439752247184514999e-03 3.210079856216907501e-03 1.585784368216991425e-02 -1.291575189679861069e-02
2.510301768779754639e-03 -1.362495217472314835e-02 -5.058706155978143215e-04 1.860562153160572052e-02 -1.420202292501926422e-02
1.525547821074724197e-02 -3.928612172603607178e-02 -7.717740256339311600e-03 1.282694656401872635e-02 -2.292352262884378433e-03
-2.911951206624507904e-02 1.933156885206699371e-02 -5.046067293733358383e-03 -2.628572843968868256e-02 3.935419023036956787e-03
-1.398473698645830154e-02 1.941060461103916168e-02 -1.120636332780122757e-02 -9.977431036531925201e-03 -1.961944438517093658e-02
-2.135416120290756226e-02 2.244943380355834961e-02 -9.936990682035684586e-04 2.569916844367980957e-02 6.599931046366691589e-03
3.547528060153126717e-03 -1.104478538036346436e-02 8.089560084044933319e-03 9.447530843317508698e-03 -9.546197950839996338e-03
1.332898973487317562e-03 -7.337367162108421326e-03 -6.058405153453350067e-03 -9.772523306310176849e-03 8.147539570927619934e-03
2.853840822353959084e-03 3.304696828126907349e-02 6.770443171262741089e-03 -4.621733445674180984e-03 -3.766776621341705322e-02
6.707418360747396946e-04 -2.874802565202116966e-03 -1.151366718113422394e-02 -9.029584005475044250e-03 3.000535769388079643e-03
1.193590462207794189e-03 -1.319941785186529160e-02 -9.164919902104884386e-05 2.005619369447231293e-02 -3.799759969115257263e-02
2.215288393199443817e-02 -5.713932681828737259e-03 2.669879002496600151e-03 -1.454219128936529160e-02 3.640591632574796677e-03
3.119076788425445557e-02 -2.446418441832065582e-02 -1.333566755056381226e-02 4.609048366546630859e-03 7.620993419550359249e-04
1.582812145352363586e-02 -1.642638258635997772e-02 9.738693945109844208e-03 1.951824128627777100e-02 -2.047593519091606140e-02
-6.444400176405906677e-03 4.349645227193832397e-03 5.849151872098445892e-03 -5.937075242400169373e-03 2.940497547388076782e-02
9.487840346992015839e-03 1.125874184072017670e-02 4.810645245015621185e-03 -4.860498011112213135e-02 -1.661774516105651855e-02
4.547794815152883530e-03 1.576054468750953674e-02 -3.203549655154347420e-03 -3.297796472907066345e-02 -2.034623362123966217e-02
-7.824325002729892731e-03 -1.371655706316232681e-02 -2.551312185823917389e-02 -4.677679389715194702e-03 -9.131471160799264908e-04
4.509683698415756226e-03 2.107088640332221985e-02 -7.092322222888469696e-03 -8.930829935707151890e-04 1.405615592375397682e-03
2.158976718783378601e-02 4.016211256384849548e-03 -3.915234934538602829e-03 -3.068158589303493500e-02 6.418412551283836365e-03
1.413126662373542786e-02 6.264693103730678558e-03 -2.716399356722831726e-02 1.035084761679172516e-02 -2.897824905812740326e-02
-7.430866826325654984e-03 -5.871891509741544724e-03 -2.250584587454795837e-02 -1.882277801632881165e-02 2.231534384191036224e-02
1.380885392427444458e-02 -2.087894082069396973e-02 6.154901348054409027e-03 1.217673998326063156e-03 -8.331265300512313843e-03
1.152448449283838272e-02 -1.867145858705043793e-02 -9.403039701282978058e-03 4.428057000041007996e-03 9.561599232256412506e-03
-2.698237262666225433e-02 8.489081636071205139e-03 -1.327343378216028214e-02 2.748677879571914673e-02 2.335805678740143776e-03
1.485537458211183548e-02 5.317910574376583099e-03 -1.697884686291217804e-02 2.460400015115737915e-02 -1.055017299950122833e-02
-5.725411232560873032e-03 -7.755619473755359650e-03 -1.112100481986999512e-02 6.208913866430521011e-03 1.515417825430631638e-02
2.162778191268444061e-02 -7.484202738851308823e-03 7.615257520228624344e-03 4.563530441373586655e-03 -2.024077624082565308e-02
-7.240353152155876160e-03 4.074062220752239227e-03 9.496468119323253632e-04 -1.225154567509889603e-02 -1.142899133265018463e-02
-1.591053442098200321e-03 8.861003152560442686e-06 -1.502948626875877380e-02 -5.882454570382833481e-03 7.864478975534439087e-03
5.521682556718587875e-03 1.281738514080643654e-03 -2.581231109797954559e-02 7.936973124742507935e-03 -1.559443678706884384e-02
8.594242855906486511e-03 -6.608502008020877838e-03 -9.537116624414920807e-03 -9.853220544755458832e-03 3.008123487234115601e-03
-3.764349594712257385e-02 1.369852013885974884e-02 7.238401100039482117e-03 1.966986805200576782e-02 9.697186760604381561e-03
-1.152287144213914871e-02 3.985801246017217636e-03 -1.464363932609558105e-02 1.794986601453274488e-04 -2.677031559869647026e-03
-9.269080124795436859e-03 2.903144620358943939e-02 -2.260714024305343628e-02 -3.481230884790420532e-02 -3.571681305766105652e-02
-7.728567288722842932e-05 -3.368509933352470398e-03 6.661551073193550110e-03 -2.560806088149547577e-02 -1.595437526702880859e-03
3.641646122559905052e-03 -6.581605877727270126e-03 4.800871014595031738e-03 -1.392595097422599792e-02 -8.455345407128334045e-03
-5.299033597111701965e-03 -2.224300289526581764e-03 2.142757177352905273e-03 1.379817724227905273e-02 2.586069330573081970e-02
1.258809678256511688e-02 -1.524574588984251022e-03 6.464454345405101776e-03 1.671526767313480377e-02 2.857590094208717346e-03
1.117299869656562805e-02 8.776342496275901794e-03 -4.856190178543329239e-03 2.894380362704396248e-03 -1.117481384426355362e-02
3.244639839977025986e-03 -1.146968826651573181e-02 -1.383890677243471146e-02 3.768529044464230537e-03 5.863431841135025024e-03
-8.578004315495491028e-03 1.717422157526016235e-02 -8.466226863674819469e-04 -2.615443372633308172e-04 -1.561791286803781986e-03
3.738221479579806328e-03 -2.958247996866703033e-02 -1.740062423050403595e-02 1.862775348126888275e-02 -1.440563704818487167e-02
9.776222519576549530e-03 -3.215872868895530701e-02 4.885418340563774109e-03 2.002668194472789764e-02 7.109807804226875305e-03
-4.366575740277767181e-04 2.056932076811790466e-02 9.489615447819232941e-03 5.109473131597042084e-03 -2.172464132308959961e-02
-1.927665085531771183e-03 -9.454837068915367126e-03 -3.110565012320876122e-03 9.023942053318023682e-03 -1.845200918614864349e-02
7.840697653591632843e-03 -2.071654610335826874e-02 -6.307121366262435913e-03 1.526944618672132492e-02 2.265847055241465569e-03
-5.454044789075851440e-03 1.685425825417041779e-02 5.705059040337800980e-03 1.335003133863210678e-02 5.359487608075141907e-03
1.342407613992691040e-02 6.355850491672754288e-03 -9.703444316983222961e-03 -6.680210586637258530e-03 -1.595231704413890839e-02
-1.456908043473958969e-02 1.735825277864933014e-02 1.082755334209650755e-04 -1.429955591447651386e-03 -9.303914383053779602e-03
3.088678698986768723e-03 7.255433592945337296e-05 -1.197224482893943787e-02 1.423795800656080246e-02 -8.454383350908756256e-03
1.830596663057804108e-02 -2.312134485691785812e-03 3.796933917328715324e-03 -7.219273597002029419e-03 -1.620431244373321533e-02
1.327484939247369766e-02 9.990891441702842712e-03 -3.711009630933403969e-03 1.595338806509971619e-02 -1.472487766295671463e-02
-2.488232590258121490e-02 2.595917135477066040e-02 -1.645412296056747437e-02 3.231997601687908173e-03 -1.335725840181112289e-02
3.710782900452613831e-02 -2.397934533655643463e-02 -5.393016152083873749e-03 -1.607502624392509460e-02 -1.304654404520988464e-02
2.436798438429832458e-02 -1.644978672266006470e-02 -3.260351251810789108e-03 -4.578025080263614655e-03 -8.846167474985122681e-03
1.855377294123172760e-02 -1.843223161995410919e-02 -2.260342240333557129e-02 -5.320622120052576065e-03 -9.414207190275192261e-03
-2.251948788762092590e-02 -2.773353131487965584e-03 -2.963709179311990738e-03 2.136827446520328522e-02 -4.803209099918603897e-03
3.432678990066051483e-03 1.730631664395332336e-02 -7.189539726823568344e-03 2.418401278555393219e-02 -1.656486466526985168e-02
4.126960877329111099e-03 -1.131997723132371902e-02 9.007549844682216644e-03 -7.480998523533344269e-03 -5.440236069262027740e-03
-1.857946068048477173e-02 2.300379239022731781e-02 1.980344997718930244e-03 -4.200775176286697388e-03 -1.045097503811120987e-02
-5.428173462860286236e-04 4.738958086818456650e-03 -1.900838874280452728e-02 -1.797322556376457214e-02 -1.227909792214632034e-02
1.277635805308818817e-03 -2.948501380160450935e-03 -7.687276694923639297e-03 -9.205565787851810455e-03 -1.306179165840148926e-02
3.118714317679405212e-03 -2.166810445487499237e-03 -6.821016315370798111e-03 -9.442609734833240509e-03 1.947508566081523895e-02
2.875994332134723663e-02 -1.552691566757857800e-03 -2.338764630258083344e-02 -3.119934815913438797e-03 -2.973237074911594391e-02
2.542382664978504181e-02 -7.642071694135665894e-03 1.774620846845209599e-03 6.262985989451408386e-03 -4.314664751291275024e-03
6.813346408307552338e-03 -1.383316237479448318e-02 6.390267051756381989e-03 -6.679331883788108826e-03 6.377891637384891510e-03
-4.724302329123020172e-03 1.475259475409984589e-02 -7.229610346257686615e-03 4.787605721503496170e-03 -7.774736732244491577e-04
1.350485626608133316e-02 -2.043738774955272675e-02 7.341263815760612488e-03 7.149208104237914085e-04 -2.125775255262851715e-02
5.346467718482017517e-03 -1.278572063893079758e-02 -3.652469022199511528e-03 2.021018415689468384e-03 7.481099572032690048e-03
-1.829083822667598724e-02 7.751171360723674297e-04 -1.165789458900690079e-02 2.919784933328628540e-02 -1.672107912600040436e-02
2.972145564854145050e-02 -6.612981203943490982e-03 -4.378045909106731415e-03 -3.180671855807304382e-02 1.461300440132617950e-02
2.504023350775241852e-02 -1.342497020959854126e-02 -9.898689575493335724e-03 -3.237872384488582611e-03 -9.460360743105411530e-03
2.267775125801563263e-02 -1.141213532537221909e-02 -1.104444544762372971e-02 -1.081089209765195847e-02 -1.677739061415195465e-02
1.185849308967590332e-02 9.841115213930606842e-03 -1.958106830716133118e-02 -1.288874354213476181e-02 -5.618796683847904205e-03
3.317083232104778290e-03 -1.124797947704792023e-02 -7.015482988208532333e-03 1.667464524507522583e-02 -1.032223808579146862e-03
8.821253664791584015e-03 -3.815403673797845840e-03 8.482166565954685211e-03 2.829702384769916534e-02 -3.570747794583439827e-03
1.338436175137758255e-02 9.588868357241153717e-03 -2.431306429207324982e-02 8.015119470655918121e-03 -3.609805833548307419e-03
7.121073082089424133e-03 -1.706667430698871613e-02 -1.299991644918918610e-02 -8.401914499700069427e-03 -1.349295210093259811e-02
2.401847392320632935e-02 1.929161022417247295e-03 3.162337932735681534e-03 -1.950730755925178528e-02 5.422079702839255333e-04
-2.158511616289615631e-02 -2.284483751282095909e-03 -2.115012146532535553e-02 2.937551401555538177e-02 -9.901018813252449036e-03
5.355814471840858459e-03 -1.689976826310157776e-02 -3.506344510242342949e-03 -3.868608921766281128e-02 -3.554733702912926674e-03
1.164866331964731216e-02 -1.918250508606433868e-02 1.311657717451453209e-03 1.161517482250928879e-02 -1.179133914411067963e-02
1.277019176632165909e-02 -2.265834249556064606e-02 -7.719715591520071030e-03 -1.783934235572814941e-02 -1.062507741153240204e-02
1.143860816955566406e-02 8.016397478058934212e-04 -1.786816120147705078e-02 -2.596973814070224762e-02 4.355878103524446487e-03
-1.994484476745128632e-02 2.312771975994110107e-03 -6.332800723612308502e-03 2.328915894031524658e-02 -2.440878888592123985e-03
1.173257362097501755e-02 9.001485072076320648e-03 -7.389633916318416595e-03 2.419280633330345154e-02 9.383598342537879944e-03
-3.009971976280212402e-02 -1.916643977165222168e-02 -8.863567200023680925e-05 3.421152383089065552e-02 1.199638750404119492e-02
-1.407131645828485489e-02 6.325301248580217361e-03 2.230418147519230843e-03 1.358380541205406189e-02 6.774985231459140778e-03
1.256184000521898270e-02 4.289234522730112076e-03 -8.535269647836685181e-03 -3.310135798528790474e-03 7.584581617265939713e-03
1.425466407090425491e-02 7.108372636139392853e-03 -3.923383541405200958e-03 -3.237877041101455688e-02 6.040323060005903244e-03
9.133838117122650146e-03 2.064851298928260803e-02 -8.850248530507087708e-03 7.058675400912761688e-03 -2.898637321777641773e-04
6.822397466748952866e-03 3.920401446521282196e-03 -7.533732336014509201e-03 -6.230543833225965500e-03 -4.408164881169795990e-03
9.883363731205463409e-03 5.420916713774204254e-03 1.173507142812013626e-02 6.398300640285015106e-03 2.005956508219242096e-02
-6.873577367514371872e-03 -5.435882601886987686e-03 -3.890962339937686920e-03 2.050683833658695221e-02 1.030092965811491013e-02
1.707041263580322266e-02 -1.027872692793607712e-02 -1.395795680582523346e-02 4.967099986970424652e-03 1.420896127820014954e-02
-6.234258413314819336e-03 -4.013766068965196609e-03 -7.139051333069801331e-03 2.088860608637332916e-03 2.878097118809819221e-03
4.871746525168418884e-03 1.007772143930196762e-02 8.685505948960781097e-03 2.123961038887500763e-02 1.155018806457519531e-02
7.277110591530799866e-03 -1.325331861153244972e-03 -2.126175677403807640e-03 2.188829518854618073e-02 -5.939893890172243118e-03
9.399748407304286957e-03 6.026876624673604965e-03 5.668436642736196518e-04 2.819779096171259880e-03 -9.088594466447830200e-03
3.169833496212959290e-02 -6.474964320659637451e-03 -1.746072992682456970e-02 -2.034137398004531860e-02 -7.511793635785579681e-03
1.092394627630710602e-02 1.963375834748148918e-03 -3.107138443738222122e-03 2.140548080205917358e-02 -4.040756262838840485e-03
-1.537583861500024796e-02 1.051973085850477219e-02 -1.821006444515660405e-04 -8.870083838701248169e-03 -3.824502928182482719e-03
1.844694465398788452e-02 1.335868379101157188e-03 -2.520802197977900505e-03 -6.912721786648035049e-03 8.855986408889293671e-03
-8.295142470160499215e-05 -1.289438642561435699e-02 -1.268145628273487091e-02 -5.866341292858123779e-03 2.233736403286457062e-02
8.250919170677661896e-03 -9.563341736793518066e-03 -2.046132832765579224e-02 3.215397149324417114e-02 -6.329425610601902008e-03
7.968685589730739594e-03 2.335199341177940369e-02 -2.658534795045852661e-02 -1.532446406781673431e-02 1.063007209450006485e-02
-1.467132661491632462e-02 -7.027419749647378922e-03 -1.954975165426731110e-02 6.922409404069185257e-03 1.974530145525932312e-02
-1.305566914379596710e-02 -8.375064469873905182e-03 -9.741727262735366821e-03 2.257592231035232544e-02 5.719031672924757004e-03
-5.779512692242860794e-03 -3.799301339313387871e-04 -5.784492474049329758e-03 1.949468068778514862e-02 -1.467007584869861603e-02
3.874743357300758362e-03 3.522431105375289917e-02 -1.573731005191802979e-02 -2.620004862546920776e-02 -6.673552095890045166e-03
-7.587088271975517273e-03 1.830466650426387787e-02 -3.959413617849349976e-03 -1.342991366982460022e-02 -3.243476897478103638e-02
-1.191372430184856057e-04 1.432506926357746124e-02 -1.684658601880073547e-02 1.674351049587130547e-03 -4.369666799902915955e-02
1.472603809088468552e-02 -8.925478905439376831e-03 -1.907577738165855408e-02 -1.531683001667261124e-02 1.527652144432067871e-02
-1.675244711805135012e-04 -3.540789475664496422e-03 -1.450048293918371201e-02 1.085659954696893692e-02 -1.245299819856882095e-03
-3.107932163402438164e-03 3.216644003987312317e-02 -1.533009950071573257e-02 -1.313239522278308868e-02 -3.321697469800710678e-03
